2.217273e-01:1.133027e-01:-3.196297e-01:-9.840307e-02:2.689188e-01:-4.752865e-01:-3.237737e-01:-3.236059e-01:-5.499043e-01:-2.950560e-01:2.635692e-01:-2.183958e-02
-7.335449e-02:5.531641e-03:1.323749e-01:1.743747e-01:3.187521e-01:2.289189e-01:-5.157757e-01:1.426261e-01:-6.170610e-01:8.186173e-02:3.668916e-01:1.009434e-03
-4.583896e-02:6.971537e-02:-3.465885e-01:-2.874904e-01:1.886761e-01:-8.252855e-02:-2.060653e-01:5.971790e-01:2.066537e-01:4.114162e-01:3.164836e-01:4.895755e-01
-9.510979e-03:-2.439681e-01:3.258361e-02:7.182454e-02:-8.883783e-02:2.779018e-01:5.385316e-02:1.000407e-02:-7.645392e-02:-1.482136e-01:-1.435529e-01:-2.901480e-01
-2.058171e-01:-1.107119e-01:1.060309e-01:-1.290972e-01:-1.375879e-01:8.010866e-02:2.784211e-01:2.622758e-02:-5.599802e-02:-5.742429e-01:-5.385607e-02:-1.120007e-01
-2.130898e-01:9.149173e-02:5.806584e-02:3.313804e-01:-3.116261e-02:-2.067506e-01:-6.674829e-01:2.889967e-01:-2.986722e-01:-6.613690e-01:-7.258736e-02:5.692824e-02
-1.249496e-02:-2.041704e-01:3.395835e-01:-4.172975e-01:-2.361400e-01:-2.490772e-02:1.536386e-01:3.332504e-01:1.170874e-02:2.406465e-01:-1.235314e-01:9.303728e-01
-3.068185e-01:-1.913250e-01:6.335375e-02:3.487525e-01:-3.313475e-01:-3.469917e-01:2.821724e-01:-1.474714e-01:4.780640e-01:-1.169282e-01:-4.431629e-01:-6.000200e-01
4.751111e-01:1.262084e-02:-1.638248e-01:-8.682099e-02:1.643180e-01:-2.497904e-01:-1.849357e-01:-4.146455e-01:-4.630007e-01:6.976036e-04:-2.726556e-01:3.959203e-01
4.847667e-01:4.902806e-01:-9.200784e-02:-3.884129e-01:-3.053054e-01:-1.124456e-01:-4.915102e-02:-3.855508e-02:-7.142316e-01:-1.555290e-01:1.915907e-01:4.344622e-01
3.467337e-01:-6.084457e-01:6.162719e-02:2.841789e-01:6.275973e-01:2.148530e-01:-2.962044e-01:-2.918035e-02:-7.371193e-01:5.072587e-01:-2.822929e-01:-1.531991e-01
-1.959795e-01:-2.308958e-01:6.419477e-02:-5.056978e-02:2.543988e-01:-5.241727e-02:6.570294e-01:6.951016e-02:5.590041e-01:-3.582273e-01:-3.326224e-01:-3.895148e-02
4.920350e-01:1.495582e-01:-3.538401e-02:3.380933e-01:-2.208799e-02:-6.200792e-02:-2.263491e-01:2.550602e-01:1.850568e-01:-8.284675e-02:3.931175e-01:-4.182865e-01
-9.806275e-02:-5.277232e-02:-1.633180e-01:1.192621e-01:2.878210e-01:1.949759e-01:-9.769053e-02:-2.670781e-01:-3.128213e-01:-1.540638e-02:4.813694e-02:-5.325030e-01
-1.949494e-01:4.910172e-01:-2.502958e-01:2.588474e-02:-3.313701e-01:-1.911667e-01:-2.013744e-01:-1.185488e-01:-3.565041e-02:-3.884450e-01:-1.693748e-02:-1.038315e-02
7.693582e-02:2.403778e-01:3.085659e-01:6.734315e-02:1.037761e-01:-2.041006e-01:4.124604e-01:1.032827e-01:-6.490542e-02:-3.318205e-01:1.824989e-01:2.610047e-01
3.338648e-02:-9.530368e-02:-5.193932e-01:6.592563e-01:-3.459219e-01:4.497138e-01:-2.998323e-01:-6.402257e-01:6.831321e-01:1.832608e-01:4.776954e-01:6.488616e-02
-4.392649e-01:7.126846e-02:4.010280e-01:6.606444e-02:2.198492e-01:7.680587e-01:-1.039260e-01:-4.984837e-02:2.996561e-01:7.913937e-02:5.398920e-01:-2.744916e-01
-3.127235e-01:-3.575595e-01:5.557080e-01:6.213169e-01:-3.028163e-01:5.102366e-01:-6.096515e-02:7.537160e-02:5.694547e-02:-2.233950e-01:2.760396e-01:3.894331e-01
-1.610394e-01:1.735031e-01:-2.470737e-01:-2.250801e-01:-2.006407e-01:9.340706e-02:4.916839e-01:2.963395e-01:-2.234115e-01:4.908628e-01:-2.214612e-01:-3.095674e-01
-2.253840e-01:4.490652e-01:-3.025989e-01:-3.717393e-01:-3.344783e-01:4.269840e-01:4.303567e-01:4.178675e-01:-2.413049e-01:2.765776e-03:5.494927e-01:-1.860339e-01
-3.348572e-03:1.089360e-01:7.892962e-01:1.451188e-01:1.192601e-01:-8.705124e-02:4.367687e-01:-3.363511e-01:-2.055520e-01:1.361530e-01:-4.678160e-02:-3.360002e-01
2.713710e-01:2.453146e-01:-3.582925e-01:2.147152e-01:-2.623170e-01:7.770702e-01:4.313174e-01:-7.262094e-02:-5.328558e-01:-2.639149e-01:-7.912279e-02:-7.016425e-01
2.944233e-01:-7.225907e-02:-2.929634e-01:-1.588192e-01:-6.119867e-01:1.395556e-01:-3.267784e-01:-3.424564e-01:4.056102e-02:-6.178980e-01:-3.730871e-03:-1.688756e-01
3.109978e-01:-1.496342e-01:2.630197e-01:3.086983e-01:-4.649634e-01:2.708937e-01:1.591076e-01:1.167192e-01:1.679279e-01:-3.182894e-01:-3.178480e-01:1.881531e-02
-3.766223e-01:-3.549276e-01:-1.581030e-01:4.218027e-02:2.238953e-01:1.153349e-01:2.935668e-01:4.898262e-01:3.183748e-01:5.010725e-01:-6.035564e-02:-5.455701e-01
5.833293e-01:3.530753e-01:-1.168370e-01:-5.619134e-01:4.276567e-01:-9.830670e-02:-4.047313e-01:-2.900383e-01:6.654019e-01:-3.482323e-01:4.301098e-01:1.228099e+00
5.087927e-01:-5.207971e-01:6.439629e-01:-1.913060e-01:9.232467e-02:-3.853960e-01:-2.258007e-01:-1.865552e-01:6.546202e-01:5.272927e-02:1.094432e-01:3.366978e-01
5.224709e-01:-5.084698e-01:-2.506593e-02:-2.938778e-02:-2.364403e-01:1.017893e-01:2.437439e-01:-4.941366e-01:-3.557674e-02:2.128037e-01:-1.859568e-01:1.501292e-01
2.499823e-01:-1.331396e-01:-9.627739e-02:2.461664e-01:4.133919e-01:2.470512e-02:3.628211e-01:-1.308820e-01:-1.930609e-01:2.480360e-01:-3.704071e-02:2.469324e-01
1.227169e-01:1.763445e-01:1.022095e-02:3.413510e-02:-2.000347e-01:1.442529e-01:1.199005e-01:-4.217359e-01:7.735363e-02:1.428954e-01:-1.911688e-02:-4.365029e-01
9.560791e-02:-2.871523e-01:2.983463e-01:-6.746199e-02:5.857652e-02:-4.025386e-01:9.241872e-02:-5.871117e-02:3.489687e-01:-1.296031e-01:2.755407e-01:1.289121e-02
-9.584627e-01:-5.476910e-01:2.285792e-01:-2.798307e-03:1.007107e-02:2.676085e-01:6.385922e-01:-1.271969e-01:5.854232e-02:1.455035e-01:-8.135046e-01:-5.350905e-01
-2.560254e-01:6.430269e-01:1.292345e-01:-7.598704e-01:2.668960e-01:-3.360850e-01:2.768500e-03:-2.987543e-01:5.314191e-01:-2.191015e-01:4.188395e-02:-1.991084e-01
-1.042221e-01:2.726752e-01:-9.061091e-04:2.263791e-02:-1.164683e-01:-1.850937e-01:2.066910e-01:2.159652e-01:6.967700e-02:2.552165e-01:-7.157313e-01:5.044759e-01
-3.116859e-02:2.825525e-01:1.011413e-02:1.408441e-01:8.939561e-02:-3.515796e-01:4.502942e-02:5.131189e-01:3.024620e-01:-5.352160e-01:2.661342e-01:-3.336607e-01
1.703150e-01:1.814244e-02:7.140961e-01:-3.823968e-01:-2.809014e-01:1.725343e-01:8.494524e-02:3.448499e-01:1.187244e-01:1.929398e-02:1.259548e-01:2.996040e-01
-6.311427e-01:-9.540294e-02:-1.099152e-01:2.625802e-01:-3.050751e-01:-5.500780e-01:-5.323665e-01:3.239766e-01:-6.200181e-01:-9.945664e-02:-1.597655e-01:-2.037054e-01
-3.735641e-01:-3.713366e-01:-9.245238e-02:5.270341e-01:1.270510e-01:-7.420775e-01:1.004694e-01:3.738729e-01:-1.244722e-01:-1.825366e-01:1.280052e-01:-2.274937e-01
-4.521537e-01:2.460561e-01:-2.057325e-03:6.936060e-01:3.231373e-01:3.032118e-01:-8.689903e-02:2.373290e-01:-1.420249e-01:2.403039e-01:-1.507350e-01:3.454075e-01
-7.047696e-02:-2.808912e-02:-1.368086e-01:-2.606003e-01:1.899178e-01:-4.857893e-01:3.079709e-01:4.527581e-02:-2.405786e-01:4.266238e-01:6.562909e-02:-2.606337e-02
1.725129e-01:2.129316e-01:-4.203041e-01:-3.065416e-01:-3.737423e-01:2.876209e-01:5.812224e-01:3.227012e-01:1.146504e-01:-1.693030e-01:-6.092895e-01:-8.466532e-03
-9.290665e-02:2.959101e-01:-2.821760e-01:-3.269067e-01:1.002636e-01:-8.286114e-02:-2.676941e-01:-2.307458e-01:-6.103382e-01:-4.578504e-01:8.551680e-02:-2.160883e-01
4.046700e-01:8.305890e-02:2.175631e-01:-6.308727e-01:3.968441e-01:2.786479e-01:-4.271181e-02:3.510938e-01:-4.015974e-01:-1.172716e-01:-2.255165e-01:-1.065637e-01
4.780970e-01:-1.003428e-01:-2.421147e-01:-3.200853e-01:2.077872e-01:-7.594048e-02:9.222544e-02:3.283994e-01:6.880514e-02:2.278119e-02:-1.147205e-01:9.003656e-02
9.394629e-02:-9.061906e-02:4.804462e-02:-1.498169e-01:-1.279312e-01:-1.758227e-01:-2.250707e-01:-2.600563e-01:1.586354e-01:1.043324e-01:-2.782239e-01:3.884619e-01
-8.323374e-04:-7.777071e-03:3.392064e-01:-3.697823e-01:-3.157530e-01:-2.070774e-01:4.432471e-01:-1.150389e-01:4.430614e-01:1.575907e-01:-4.144217e-01:3.045566e-01
-3.836867e-01:9.975248e-02:-6.154922e-01:-1.276620e-01:-1.331947e-01:3.644754e-01:-5.131371e-02:-5.409805e-02:-3.053703e-01:5.902761e-01:7.203277e-01:1.351596e-03
