-1.001900e-01:9.573150e-02:2.001865e-02:6.398644e-03:-8.704739e-02:2.520619e-02:-1.528755e-01:-2.103156e-02:3.518328e-01:-1.609405e-01:1.573184e-01:-3.092529e-02
5.811081e-02:-3.154481e-01:2.176723e-01:-1.807786e-02:-3.070042e-01:2.003009e-02:9.386827e-02:-3.244537e-02:-7.173909e-02:2.553182e-01:2.479120e-02:-4.966386e-02
-7.700775e-02:1.322476e-02:-8.820883e-02:-1.731340e-01:1.456881e-01:-2.150075e-01:-6.493449e-02:1.324209e-01:-1.644444e-01:2.060802e-01:-1.799051e-01:1.221655e-01
3.507537e-02:1.443712e-01:1.947217e-01:6.155910e-02:-4.719202e-02:2.046581e-01:-1.323490e-01:-4.052258e-02:-1.261590e-01:3.176828e-01:-1.009093e-01:-7.204355e-02
2.693501e-01:1.607902e-01:-2.557203e-01:-3.890818e-01:8.068238e-02:-1.118062e-02:1.261644e-01:8.399332e-03:4.964903e-02:-3.363835e-01:1.857069e-01:6.788755e-02
9.192804e-03:-3.820490e-03:-3.650165e-01:3.156689e-01:-5.009492e-01:-2.981642e-01:-1.899505e-01:8.675805e-02:7.522355e-02:-1.391195e-01:-1.271736e-01:-3.044436e-02
-3.518137e-01:5.976449e-02:1.330373e-01:1.300550e-01:-3.482774e-01:2.478135e-01:-6.601378e-03:4.455683e-03:-3.429554e-01:2.184441e-01:6.700184e-02:-6.095569e-02
-3.143157e-01:3.566917e-01:3.208302e-01:3.848317e-01:1.140289e-01:-3.022105e-01:-1.308777e-01:2.523021e-01:3.879063e-01:1.120343e-01:-8.206747e-02:1.482885e-01
8.239231e-03:5.066751e-02:5.294375e-01:1.868631e-01:4.494779e-02:-4.360750e-01:2.678881e-01:1.966770e-01:-1.480970e-01:-1.198953e-01:4.703106e-01:4.130470e-01
-3.191724e-01:1.675158e-01:1.011895e-01:1.471350e-01:1.197284e-01:4.456691e-01:7.686862e-03:-2.047042e-01:1.957769e-01:-3.364050e-01:1.515757e-01:8.326938e-03
1.090133e-01:-3.347990e-01:1.113266e-01:8.270128e-02:4.755110e-01:1.463695e-01:-2.379817e-01:-1.275725e-01:1.328388e-01:-1.252293e-01:3.104192e-02:1.278344e-01
8.968584e-02:-4.270653e-02:-2.694970e-01:-2.965172e-01:5.562755e-02:1.052662e-01:-3.794592e-01:8.330018e-02:8.849520e-02:5.733828e-02:1.233126e-02:-9.215771e-02
-4.001059e-01:2.682266e-01:1.509463e-02:3.049763e-01:-2.079641e-01:1.321010e-02:-1.985912e-01:1.043925e-01:8.290872e-02:1.769142e-01:-3.447292e-01:-1.577196e-02
5.350352e-03:2.357320e-02:7.498701e-04:-6.306037e-02:4.796336e-02:1.456480e-01:-1.002524e-01:2.470768e-02:-1.224672e-01:-1.536756e-01:2.266693e-01:-6.683125e-02
7.979627e-02:-3.687399e-01:1.218348e-01:1.317093e-01:1.356520e-01:4.714464e-01:2.928097e-01:-6.092766e-01:-9.149545e-02:-1.920645e-01:-3.453627e-02:-1.922166e-02
7.777356e-02:-3.137318e-01:7.097069e-03:1.104052e-02:-3.582885e-01:-2.556901e-01:-2.162398e-01:-9.973919e-02:2.794691e-02:-7.336335e-02:2.440193e-01:2.797066e-01
2.054067e-01:-3.578380e-01:1.468620e-01:2.349646e-01:-4.574813e-03:1.272237e-01:-4.359640e-01:2.208755e-02:1.041093e-01:4.388558e-01:1.762932e-01:-3.494963e-02
-1.877902e-01:2.448003e-03:-1.250853e-01:9.206844e-02:2.039811e-01:1.572626e-01:-2.380684e-01:-2.087109e-01:-1.058760e-02:6.465733e-02:1.960868e-01:1.893379e-01
2.153639e-01:1.198723e-01:-2.931992e-01:7.516059e-03:-5.660396e-02:8.849885e-02:4.406412e-01:-7.496878e-02:6.880966e-02:1.148522e-01:-2.493734e-01:-1.821197e-01
1.711047e-01:1.251518e-01:9.612910e-02:8.294780e-02:2.627338e-01:4.356048e-01:1.654836e-01:-2.955881e-01:2.402067e-01:-1.110195e-01:3.553458e-01:-5.977723e-02
-4.955898e-02:-1.391876e-01:-5.899129e-02:-2.247971e-01:-1.281264e-01:-1.299542e-01:-1.033085e-01:4.979230e-02:2.480288e-01:-2.369355e-01:-2.260818e-01:2.136836e-01
6.602324e-02:-2.704353e-02:5.850916e-02:2.423859e-01:6.522271e-02:-3.784789e-02:-1.563601e-01:1.880956e-01:-2.254918e-01:6.627198e-02:1.046849e-02:1.367362e-01
1.783085e-01:1.289343e-01:1.447652e-01:2.347179e-01:-7.937696e-02:2.362113e-01:2.918994e-01:2.873047e-01:1.696763e-01:-5.324769e-02:2.631712e-01:-3.681649e-02
3.348752e-02:-2.968041e-01:-5.946373e-02:1.282106e-01:-3.345774e-01:-7.380527e-02:-5.444933e-02:-1.680044e-01:-1.238607e-01:3.294440e-02:-6.145305e-02:-9.587910e-02
2.723045e-01:-1.698807e-03:1.345286e-01:-1.216680e-01:-4.811804e-02:2.328965e-01:3.271082e-01:1.338285e-01:-1.213321e-01:6.475700e-02:1.214756e-01:-7.199297e-02
6.412013e-02:-1.778480e-02:1.389401e-01:-1.369909e-01:-1.540729e-01:-8.390867e-02:-3.282119e-01:2.097541e-02:1.847607e-01:2.075156e-01:-1.590512e-01:-1.468552e-01
-6.408008e-02:4.807422e-02:7.551344e-02:-3.035340e-01:9.506208e-02:1.737473e-01:3.918855e-01:2.351356e-01:3.598003e-01:-2.323225e-01:6.630446e-02:5.637794e-02
-8.071034e-02:1.261248e-01:3.169872e-01:-1.195279e-02:1.921837e-01:1.183652e-01:1.304888e-01:-3.456403e-01:2.301244e-02:-5.833953e-02:-1.268284e-01:3.226210e-02
1.375034e-01:3.551999e-02:-2.721040e-01:-1.341755e-01:-5.097118e-03:8.346883e-02:1.419445e-02:-3.659086e-02:1.260853e-01:-1.974557e-02:-4.310500e-02:1.042166e-01
-7.941066e-02:-1.059815e-02:4.786863e-02:-1.000667e-02:-1.173575e-01:-1.634201e-01:6.346902e-02:1.042948e-01:-2.112149e-01:-1.933932e-01:5.081375e-02:1.003526e-01
-2.187940e-01:1.055615e-01:-1.031295e-01:1.159079e-01:4.517388e-02:4.060474e-01:-5.807969e-02:-1.014466e-01:6.633941e-03:5.533603e-03:1.170136e-01:4.457420e-01
-2.910607e-04:7.862720e-02:-4.157287e-01:-1.086658e-01:-8.655859e-03:1.178228e-02:8.993856e-03:-2.669697e-02:1.355190e-01:-8.933140e-02:-1.431681e-01:2.209063e-01
2.798193e-01:3.591115e-01:-1.253376e-01:-1.592516e-01:-3.653444e-02:-6.164820e-02:-1.526254e-02:8.858134e-02:2.497247e-01:-1.609668e-01:-8.896314e-02:1.378489e-01
-2.156219e-01:1.541410e-01:3.422294e-02:-6.181699e-02:6.497209e-02:-1.401898e-01:2.629982e-01:-1.085840e-01:-1.971260e-01:2.913640e-01:-2.602851e-02:2.086662e-01
-1.613535e-01:4.545048e-01:-2.558958e-01:3.187943e-01:-1.373879e-01:-3.041355e-01:-4.773759e-01:1.412365e-01:-1.687407e-01:-2.227959e-01:9.227125e-02:3.178653e-02
-4.859428e-02:-1.516803e-01:-4.482586e-01:-2.064303e-01:2.966486e-01:4.886375e-01:-3.338425e-03:-6.461766e-02:2.179467e-01:-1.023794e-03:-6.478142e-02:-4.278761e-01
-1.145445e-01:-2.371357e-01:-5.563863e-02:-4.570931e-03:3.189014e-01:-7.423902e-03:-2.210494e-02:-1.299923e-01:7.294966e-02:7.990742e-02:-3.268691e-02:2.388134e-01
-2.265776e-01:1.960553e-02:-1.335674e-01:-1.527418e-02:1.887652e-01:-2.826084e-02:-1.004604e-01:1.079457e-01:-8.472058e-02:2.128719e-01:8.255862e-02:-3.610107e-03
-1.358309e-01:-6.230179e-01:2.577787e-01:-6.111281e-02:-4.155640e-02:-6.128101e-02:1.211711e-01:-1.903097e-01:-3.233748e-02:-3.462576e-01:1.813898e-02:1.357240e-01
7.971001e-02:-5.986970e-02:2.423960e-02:1.000202e-02:-1.670472e-01:-2.272098e-02:-2.180628e-01:-7.817398e-02:4.108184e-01:-1.452578e-01:8.142355e-02:-3.274282e-01
-1.643790e-01:-2.034982e-01:-6.432073e-02:6.878307e-02:5.809408e-02:-1.000704e-02:5.821665e-02:-2.794458e-01:-2.077595e-01:6.782206e-02:-3.231739e-01:-3.274964e-01
1.025315e-01:5.020021e-01:-4.212791e-01:-1.022338e-01:-9.397118e-02:-9.650169e-02:2.447532e-01:-2.632615e-01:1.829671e-01:6.788112e-02:-2.962983e-01:-1.191733e-01
1.094645e-01:4.086205e-01:3.185429e-01:-1.625232e-01:-3.198189e-01:2.080289e-02:4.083220e-01:1.353575e-01:-1.724747e-01:2.523609e-02:-2.655759e-01:1.343497e-01
-7.814331e-01:9.595106e-03:-2.370389e-02:-4.886037e-02:3.052009e-01:-2.683413e-03:1.445575e-01:1.323780e-01:-2.629035e-01:1.321469e-01:1.532616e-01:2.425803e-01
-4.965171e-02:2.199712e-01:-9.144165e-02:9.644609e-02:-3.930572e-02:2.423394e-02:-5.094026e-02:-4.232626e-02:-2.944301e-01:1.267468e-01:1.466083e-01:-7.123435e-02
2.468563e-02:-9.511229e-02:-1.954282e-01:8.070748e-02:2.123200e-01:1.699228e-02:2.643239e-01:1.079883e-01:2.629357e-01:-4.166730e-02:5.420226e-04:-1.780213e-01
1.174035e-01:9.191134e-02:1.002374e-01:1.183300e-01:-1.958878e-01:5.834109e-02:-2.718769e-01:2.155416e-01:9.880982e-02:-5.945246e-02:-4.263182e-02:-2.016584e-01
-7.378770e-02:-8.672845e-02:2.633601e-01:-2.304027e-02:-2.121707e-03:-1.129749e-01:4.068375e-02:2.449576e-01:-2.706168e-01:-8.684234e-02:-2.215243e-01:1.268921e-01
