-7.407061e-01:4.702148e-01:2.713484e-01:-1.799508e-01:1.344510e-01:1.866560e-02:3.235848e-01:2.358283e-01:-2.310996e-01:-2.264632e-01:-4.233081e-01:-2.450474e-01
-2.489743e-03:-3.248984e-01:-2.791735e-01:5.735516e-02:4.086262e-01:-4.765189e-01:1.021929e-01:3.580719e-01:-2.382749e-01:5.391040e-02:4.452822e-02:1.138576e-01
-1.486862e-01:-1.797611e-01:4.210825e-01:-2.125621e-01:4.697251e-01:1.534990e-01:-7.296807e-03:-9.180012e-02:-7.190162e-02:-5.133598e-01:-2.209944e-01:7.006421e-02
-1.202989e-01:-3.083666e-01:5.337428e-01:2.449735e-01:9.621754e-02:-1.338041e-01:-2.414719e-01:-3.379554e-01:-1.310363e-01:1.439107e-01:8.787300e-02:1.732044e-01
-4.687909e-02:-3.291337e-02:6.029262e-02:-1.912535e-01:-1.762818e-01:-4.393405e-01:-1.687801e-01:1.568416e-01:-7.225846e-02:4.660297e-01:2.518955e-02:3.320919e-02
4.861878e-01:1.589783e-01:-3.270771e-01:-4.816230e-01:1.762130e-02:-2.121203e-01:-3.906702e-02:3.396785e-01:1.133330e-01:-2.240796e-01:-2.577915e-01:2.423039e-01
-8.045047e-02:3.660443e-02:3.602804e-01:-3.085998e-01:-4.449233e-01:3.409116e-03:3.282234e-01:3.826178e-01:-1.016428e-01:1.748392e-01:-1.068578e-01:7.144103e-02
-3.245136e-01:-1.884530e-01:5.745633e-02:-3.619990e-02:-6.286188e-02:-2.231804e-01:-2.147381e-01:6.880161e-02:1.535734e-01:-2.364328e-01:-9.809998e-02:4.505635e-01
4.261726e-01:3.188099e-02:-3.084119e-01:1.988657e-02:-1.045836e-02:2.064568e-01:-1.085252e-01:2.018877e-01:2.345233e-01:-9.903613e-02:-2.169930e-01:-3.895813e-01
1.535817e-01:-2.025887e-01:5.743621e-01:-1.855579e-01:1.201996e-01:-5.433149e-01:9.473538e-04:2.620350e-01:-2.003645e-01:-1.946524e-01:-5.549622e-01:2.926672e-01
-5.813182e-02:8.230741e-02:7.125783e-01:-1.234106e-01:1.154552e-01:-4.849564e-01:-2.342354e-01:5.262154e-02:-5.267454e-02:8.728728e-02:-3.950168e-01:-3.451814e-02
-3.596957e-01:3.374423e-01:3.430405e-01:-4.408689e-01:3.166744e-01:5.161041e-02:1.367296e-02:1.603829e-01:-6.390899e-01:1.133481e-01:-6.279639e-01:4.766116e-01
8.883238e-02:4.194605e-01:-8.828770e-02:-3.497084e-01:2.429130e-02:-1.106793e-01:-4.504205e-02:2.038002e-01:-8.694795e-02:-1.484802e-01:-5.603223e-01:3.679353e-01
-3.862476e-01:-1.366832e-01:1.665928e-01:-1.586758e-01:-1.301158e-02:-2.440480e-01:-8.813071e-02:2.809718e-01:1.157605e-02:-1.701626e-01:3.041275e-01:6.397910e-02
2.695064e-01:-4.031811e-01:2.270512e-01:-8.399969e-02:6.013809e-02:2.850479e-01:2.246253e-02:4.591559e-02:6.562529e-02:9.712344e-02:-3.326552e-01:-1.418440e-01
-3.484127e-01:2.805697e-01:3.623149e-01:-1.326324e-01:2.159130e-01:3.811757e-02:-3.637732e-01:-1.173565e-02:3.980863e-02:-2.811807e-01:-7.253268e-02:2.811954e-01
-3.785990e-01:-3.015732e-01:2.199832e-01:3.033495e-01:5.275221e-02:4.741811e-02:-1.777889e-01:-1.064576e-01:-1.303774e-01:1.794993e-01:5.001018e-02:2.876362e-01
1.418262e-01:-1.963037e-01:4.982858e-01:8.464130e-02:1.860095e-01:1.356644e-01:-7.088648e-02:-3.259291e-01:-1.673065e-01:-6.907761e-02:-3.041023e-01:1.956723e-01
1.814731e-02:7.116257e-02:-5.760503e-02:-5.550635e-02:-2.851770e-01:3.258292e-02:-3.956380e-01:1.425603e-01:1.330466e-01:-5.451331e-02:1.615861e-01:5.977138e-02
1.144429e-01:7.409012e-02:-2.279594e-01:-2.248527e-01:-2.428160e-01:3.945536e-01:1.652821e-01:2.315444e-01:4.241380e-02:2.095838e-01:-5.275040e-01:-2.748956e-01
-4.792962e-01:8.157862e-02:-1.473468e-01:-2.425241e-01:1.427569e-01:-1.564671e-01:3.528306e-01:-2.352239e-01:-7.574485e-02:2.157804e-01:6.641296e-02:2.123792e-01
3.015468e-01:-1.985768e-01:-3.253153e-01:-5.821055e-02:-6.710839e-02:1.516340e-01:-2.184018e-02:-8.156923e-02:1.355909e-01:1.417644e-01:3.415047e-02:-2.367964e-02
7.307400e-03:-2.873502e-01:7.163115e-01:1.764667e-01:2.555310e-01:-4.321846e-01:-1.802530e-01:3.551832e-01:-1.184250e-01:-2.385116e-01:-3.919287e-01:-1.431664e-01
-7.333259e-02:-1.265280e-01:-1.674015e-01:-2.915837e-01:4.772856e-01:1.996907e-01:-3.428651e-01:3.843165e-01:2.638953e-02:-8.865451e-02:-1.997498e-01:-3.121891e-02
-1.326726e-01:-2.901825e-01:3.689658e-01:-2.198987e-02:1.162417e-01:1.582974e-01:-2.674635e-01:-2.660115e-01:-2.609375e-02:-8.730438e-02:7.679482e-02:3.969471e-01
2.074586e-01:3.718933e-01:6.953469e-02:-2.323151e-01:-1.618080e-01:1.227038e-01:2.183395e-01:6.200852e-01:-2.370164e-01:-4.685874e-01:-3.444547e-01:-4.036525e-01
-3.124726e-01:3.009162e-01:1.596655e-01:6.698740e-02:-3.701194e-01:6.775627e-03:1.415206e-01:-3.210892e-01:-3.793357e-01:2.392079e-01:1.440550e-01:3.306447e-01
-5.289526e-01:8.492662e-02:1.550998e-01:1.740164e-01:7.714523e-02:2.956419e-02:-5.579109e-01:1.495710e-01:1.852573e-01:-7.823360e-02:-4.327065e-02:2.429935e-01
-3.091394e-02:-4.245415e-01:6.330339e-01:1.385398e-01:-3.406857e-02:-1.657171e-01:-1.567448e-01:1.663400e-01:-1.553672e-01:2.219216e-01:-1.734841e-01:-1.722503e-01
-1.933587e-01:2.269061e-01:-1.525500e-01:3.117045e-01:-4.244782e-01:6.312243e-01:4.049089e-01:-3.720826e-02:-7.420081e-01:-2.529563e-02:-5.647349e-01:8.941483e-02
9.881948e-02:-2.826532e-01:-3.003183e-01:1.608679e-01:4.169333e-01:4.812082e-02:2.502727e-02:2.188138e-01:-8.192941e-01:1.787837e-01:-9.199651e-02:1.195772e-01
-9.218034e-02:-1.315614e-01:-1.365290e-01:-6.034234e-01:-2.715855e-02:2.822134e-01:4.322495e-02:-2.404650e-02:1.753347e-01:-3.564983e-01:-3.807891e-02:1.900479e-01
-4.581018e-01:-2.835265e-01:4.218572e-01:-8.890754e-02:1.041413e-01:5.223046e-01:2.433312e-01:-1.308332e-01:-2.499420e-01:1.624196e-02:-2.912079e-01:1.527668e-01
8.749620e-01:1.873917e-01:1.045297e-01:1.712498e-01:8.179878e-02:1.530729e-01:-1.663433e-01:2.408357e-01:-5.129641e-01:-4.068241e-01:-2.906059e-01:-2.935192e-01
-3.737443e-01:1.059792e-01:-1.453528e-02:-2.637602e-01:-1.103141e-01:1.977536e-01:-3.780900e-02:2.499827e-01:-6.307034e-02:2.080825e-01:-2.058939e-01:4.978796e-02
9.563524e-02:-2.724854e-01:2.126915e-01:9.571600e-03:-2.780310e-01:3.356584e-02:-2.949673e-02:6.706744e-01:-6.818178e-01:3.125199e-01:-1.068555e-01:1.290316e-02
7.913542e-02:-3.044167e-01:3.980410e-01:7.705400e-02:2.544962e-01:2.823303e-01:-3.035656e-01:-1.553687e-01:3.386861e-02:1.265234e-01:-6.275020e-01:5.358068e-02
1.181616e-01:3.933311e-01:2.194299e-01:1.974498e-01:6.571585e-02:-2.515440e-01:1.764872e-01:-1.151530e-01:-3.844381e-01:3.240893e-01:-2.258217e-01:-4.229819e-01
8.645783e-02:-1.406293e-01:-3.595277e-01:5.089123e-01:-9.240893e-02:-2.848134e-01:-2.704090e-01:1.020443e+00:-3.384250e-01:-9.304604e-02:-4.612235e-01:-1.502339e-03
9.281570e-02:3.274312e-01:-1.690026e-01:9.500383e-02:-4.052625e-02:2.095399e-01:5.788737e-02:-1.538408e-01:-8.142786e-02:1.025522e-01:-1.968418e-01:-1.512473e-01
1.537041e-02:-1.279123e-02:1.843490e-02:-5.231979e-01:3.668653e-01:-2.599524e-01:2.008303e-01:-1.276911e-01:2.195743e-01:-1.327781e-01:1.467298e-01:-1.794559e-02
2.136119e-01:-5.357870e-01:5.227472e-02:-4.600507e-01:3.239617e-01:-5.296540e-02:-9.913477e-02:-5.315251e-02:4.279814e-01:-8.946622e-02:-1.250669e-01:2.633129e-03
-4.015198e-01:-2.280402e-02:-4.237192e-01:6.499697e-02:-1.466075e-02:3.905968e-01:-2.433057e-02:1.770662e-01:-8.328298e-02:-2.521038e-01:1.674003e-01:-2.183373e-01
7.161310e-02:3.350707e-01:7.563150e-02:6.961046e-02:-5.072309e-01:9.271584e-02:-3.068888e-01:1.686185e-01:-9.923921e-02:3.691823e-02:-6.487819e-02:1.725377e-01
-4.263994e-02:1.106177e-01:-1.866426e-01:-2.320666e-01:4.661778e-01:-3.460136e-01:1.487696e-01:1.329359e-01:-6.634668e-01:4.017258e-01:-6.626162e-01:6.550444e-02
5.948720e-01:1.751780e-01:-2.851372e-02:-5.911214e-02:-1.863312e-01:5.775966e-02:-2.405526e-02:8.348931e-02:-5.857494e-02:-1.489794e-02:-8.177456e-03:-3.390396e-01
-8.407032e-02:-1.484541e-01:-7.093062e-02:3.361030e-01:2.669977e-01:-7.066280e-02:-2.964572e-01:-5.825283e-02:9.502517e-02:5.746680e-02:-4.981671e-02:-3.175727e-01
-1.876039e-01:-4.855688e-01:5.323206e-01:8.439375e-02:-2.220559e-01:1.890804e-01:-5.699826e-01:5.064149e-02:-1.735069e-01:-2.765486e-01:-1.478450e-01:5.660381e-01
