1.203009e-02:8.711203e-03:-4.908540e-02:3.788391e-02:-2.777771e-02:9.075329e-02:-1.264138e-01:2.280317e-02:-4.429399e-02:1.378133e-02:8.544517e-02:3.009379e-02
-2.293634e-02:2.742513e-01:-3.029029e-02:-1.896934e-02:6.157659e-02:-3.491247e-02:5.603504e-02:-5.571539e-02:1.025958e-02:-2.214243e-02:-5.074319e-02:-1.029453e-01
1.964789e-02:6.731129e-02:7.088151e-02:2.427800e-02:3.889890e-02:-4.050056e-03:4.139636e-02:1.183085e-02:-8.113328e-02:-7.082480e-02:-6.543521e-04:6.177840e-02
5.418724e-02:3.508852e-02:1.918876e-02:-7.630088e-02:-8.930616e-02:-4.065796e-02:2.784786e-03:-9.072121e-04:1.890805e-02:5.126539e-02:8.117689e-03:1.710665e-02
-4.508667e-03:-3.650137e-02:1.836753e-02:-2.544714e-02:-6.276906e-02:4.648552e-02:-3.120883e-02:4.323812e-02:-2.754857e-03:-3.912506e-02:2.756311e-02:6.585758e-02
-6.317411e-02:2.114956e-01:4.690688e-03:2.811406e-02:6.232024e-02:-1.746013e-02:2.676605e-02:-3.868850e-02:1.599793e-01:5.583537e-03:-5.247173e-02:-8.598469e-02
-3.978328e-02:-1.209138e-01:2.533970e-02:5.494362e-02:-5.748544e-03:3.972846e-02:3.546355e-02:2.272408e-03:-4.953817e-02:-8.480011e-03:3.209021e-02:-3.677373e-02
-6.554723e-02:-1.474854e-01:7.411908e-02:-9.034722e-02:-2.688486e-02:2.738139e-03:-5.903943e-02:-2.993549e-02:-1.122630e-02:2.217251e-02:-1.024425e-03:2.503700e-02
2.511182e-02:-4.589464e-02:1.670061e-03:1.088676e-01:-8.048607e-02:1.762518e-02:7.843176e-02:3.756904e-02:6.403409e-03:-1.601276e-01:1.578257e-01:2.481684e-02
9.448264e-02:3.149436e-01:-3.256433e-02:4.048313e-03:1.222148e-01:2.707105e-03:-4.291253e-02:3.804821e-02:-8.654760e-02:6.754476e-02:3.606501e-02:1.747528e-02
-5.038130e-02:1.391966e-01:6.777822e-02:2.103239e-02:-1.188749e-02:-6.440823e-03:1.391542e-01:-3.671828e-02:4.017859e-02:1.423988e-01:-9.963267e-02:-5.440525e-02
2.218749e-02:-6.719983e-02:2.714911e-02:9.111822e-02:-9.418263e-03:9.494998e-02:-2.723619e-02:1.142559e-02:-2.211182e-02:-1.883870e-02:-1.446471e-02:1.091197e-01
-8.716792e-02:6.580375e-02:4.484093e-02:-2.759805e-02:-4.656988e-02:1.030495e-01:-3.243396e-01:-3.604169e-02:-3.135937e-02:1.490002e-01:1.496743e-03:9.515096e-03
-1.233888e-01:-8.129000e-02:-1.150198e-01:-8.481218e-02:-7.794497e-02:-4.415477e-02:8.650485e-02:-5.332040e-02:3.653499e-02:1.105928e-01:2.406982e-02:-1.113626e-01
4.105748e-02:-8.594457e-02:-1.270222e-02:-4.819016e-02:-1.238062e-02:-7.472146e-02:-3.698082e-02:9.688221e-02:-7.366606e-02:4.274289e-03:4.718580e-02:5.758873e-02
8.605767e-02:4.070453e-02:1.488722e-02:4.319933e-03:4.879565e-02:-1.867243e-02:4.242617e-03:3.620454e-02:5.747314e-02:7.511279e-02:-9.829653e-02:-1.003331e-01
1.374577e-02:3.441375e-02:4.697135e-04:-7.233359e-02:1.499947e-02:-2.645178e-02:-2.461716e-01:4.000528e-02:-4.130180e-02:5.837404e-02:-4.941732e-02:-7.805152e-03
6.502528e-02:-1.876532e-01:1.036637e-01:8.368732e-02:-1.237500e-01:5.712693e-02:-3.443987e-02:-1.928356e-02:-1.059284e-01:1.206369e-01:-5.645555e-02:-1.554050e-02
-4.379853e-03:-3.201143e-02:4.281104e-02:-2.658923e-02:-1.137526e-02:2.405100e-02:-6.269916e-02:-7.850745e-02:-7.178057e-03:7.862454e-03:2.817306e-02:6.798995e-02
-3.901285e-02:1.625706e-02:-7.504817e-02:1.554302e-01:-1.907808e-03:9.949576e-04:5.411354e-02:-5.654742e-03:-2.748012e-02:4.471076e-02:1.861120e-01:-1.774321e-01
5.335834e-02:-7.041389e-02:-6.797093e-02:4.127354e-02:-6.168522e-02:-3.025672e-03:8.754379e-02:-1.015148e-02:9.639790e-03:-1.477885e-01:-2.753987e-02:-5.906272e-03
-5.528888e-02:5.650583e-02:5.162130e-02:2.474027e-02:-2.853787e-02:6.974214e-02:-5.704793e-02:2.872057e-02:3.730102e-02:1.260917e-01:-3.024733e-02:-2.712753e-02
-3.380751e-02:6.124196e-02:9.023251e-02:6.269438e-02:7.848097e-02:1.419435e-01:-1.637977e-02:-8.968484e-02:-1.896361e-02:7.130758e-02:1.145027e-01:-7.982509e-02
-1.560777e-01:-1.104099e-01:3.211924e-03:1.403275e-01:-3.962782e-02:4.163025e-02:-1.588148e-02:5.020566e-02:1.067797e-02:-5.854756e-02:-4.064786e-02:-2.429811e-02
1.525321e-02:3.060989e-02:3.838035e-02:-7.129011e-02:-3.673587e-02:4.097010e-02:-7.089333e-02:-2.403882e-02:-3.306573e-02:1.312525e-01:-6.232062e-05:6.189564e-02
-1.853942e-02:-1.488450e-01:-6.669381e-02:-8.098210e-02:-6.374207e-02:-4.605162e-02:5.931106e-02:-6.857958e-02:9.764548e-02:9.561365e-02:-6.071608e-02:-6.272243e-03
-3.456000e-03:3.591146e-02:-3.251653e-02:1.672023e-02:-7.489149e-03:-1.177189e-01:-3.699128e-02:6.937984e-02:3.489500e-02:-4.269299e-02:-7.598850e-02:2.710705e-02
2.517114e-02:4.949595e-02:-6.355862e-02:-9.025263e-03:7.606383e-04:2.234613e-02:2.471935e-02:-2.377089e-02:4.450289e-03:6.557740e-02:-1.272182e-01:-5.162885e-02
-2.644886e-02:2.975726e-02:4.902284e-02:-2.249357e-02:4.282946e-02:6.175473e-02:-3.253509e-02:2.419047e-02:-4.768481e-02:1.217370e-02:5.819328e-02:3.967244e-02
1.480749e-02:2.230016e-01:1.283482e-02:2.852399e-02:2.739893e-02:7.943054e-02:-3.627796e-02:3.757189e-02:4.526583e-02:-4.684272e-02:3.833983e-02:6.400721e-03
5.078221e-02:8.686792e-03:3.183815e-02:-4.756654e-02:-3.012258e-02:1.537382e-02:5.016672e-02:2.600693e-02:-5.709336e-03:5.274877e-02:-9.278062e-02:4.253828e-02
-8.431355e-03:-8.102131e-03:-2.010091e-03:1.197067e-02:-1.713173e-02:6.346150e-03:4.124056e-02:1.779575e-02:-1.718605e-02:1.851398e-02:-1.012589e-01:-6.268752e-03
2.477618e-02:-4.979134e-02:1.980375e-02:6.178940e-02:-9.734300e-02:-7.818473e-03:2.452493e-01:-4.266696e-02:1.050905e-01:-6.846540e-05:-1.233276e-02:8.529090e-02
8.848231e-02:-1.529587e-01:-8.561627e-02:-1.376968e-01:6.355746e-02:-1.264677e-02:2.040046e-02:6.998052e-02:-1.406075e-01:1.070029e-01:-4.059391e-03:1.083923e-02
-1.376874e-02:1.074604e-01:2.841028e-02:1.411755e-02:7.303095e-03:-5.688302e-02:2.631511e-02:1.093917e-01:1.302875e-02:1.844951e-02:2.692457e-02:-9.961666e-02
1.000284e-01:1.035063e-01:8.147851e-03:-1.829459e-02:8.076475e-02:7.106320e-02:4.346574e-02:4.316854e-02:6.280061e-02:9.448913e-03:3.389051e-02:4.815015e-02
6.209474e-02:-8.705387e-02:8.630420e-02:-4.122757e-02:1.247126e-03:-1.685515e-02:-3.439866e-01:6.135345e-02:5.447454e-02:-3.713467e-02:7.053195e-02:2.021516e-02
2.461625e-02:2.138194e-01:6.097676e-02:4.594697e-02:5.813807e-02:-5.968021e-02:1.495886e-02:1.116322e-02:1.524795e-02:-1.836950e-02:5.331650e-02:-3.319474e-02
-4.868073e-02:-7.966968e-02:-1.227750e-02:6.544768e-02:2.617106e-02:6.489465e-02:-9.086533e-02:-1.083310e-01:4.721278e-02:-7.473481e-02:-1.932366e-02:-1.797787e-03
-7.497769e-02:-1.068491e-01:5.285514e-02:-2.774955e-02:-3.759483e-02:3.796098e-02:8.009918e-02:-4.213737e-02:-4.613210e-02:-1.600582e-03:8.029904e-02:-1.026428e-01
-9.838394e-02:5.986496e-03:-3.717999e-02:-5.492974e-02:-3.471651e-02:-1.363913e-02:-2.066695e-01:5.663643e-02:-1.327350e-02:-1.991537e-02:5.212422e-03:1.341130e-03
-2.759451e-02:9.817190e-03:6.101592e-02:3.965614e-02:9.503770e-03:-7.611816e-02:-1.260445e-03:-1.898231e-02:5.018329e-02:1.140667e-01:2.687895e-02:-1.307656e-02
-6.896446e-02:-9.038033e-02:2.551706e-02:-8.055238e-02:-4.226598e-02:-9.167382e-03:-8.424299e-03:-4.962463e-02:9.816603e-03:1.791038e-02:3.041770e-02:-1.383809e-03
3.433970e-02:-1.018433e-01:4.894012e-02:1.022584e-03:-5.584127e-02:1.698894e-03:4.752786e-02:-4.382009e-02:-5.992562e-04:-7.439802e-03:1.565364e-01:-5.521530e-02
-3.229127e-02:5.435386e-02:1.396288e-01:-1.856896e-02:4.899584e-02:8.634371e-02:-1.184036e-01:-2.847103e-02:2.588561e-03:1.806365e-01:-8.906235e-02:-3.326091e-02
1.012223e-02:-3.171287e-01:2.814401e-02:1.969164e-02:-4.775022e-02:1.569173e-02:-7.606544e-02:-7.220425e-02:-1.321761e-01:-4.817657e-02:-9.110251e-03:-1.042227e-02
-3.480501e-02:-5.259216e-02:-6.573295e-02:-5.069616e-02:1.146034e-01:-2.189316e-02:5.917747e-03:4.956196e-02:-3.754982e-02:-1.033714e-01:-6.220735e-03:6.946164e-02
-2.394829e-02:3.017544e-02:-1.008746e-01:1.019611e-01:5.746375e-02:3.634664e-02:-1.631798e-02:4.694669e-03:-8.056104e-03:2.806857e-02:-1.854857e-01:-4.300339e-02
