-1.213444e-02:-2.560442e-02:-1.296355e-01:-4.750964e-02:3.313500e-02:7.362746e-02:1.061464e-02:-1.556941e-02:-6.097750e-03:-5.830389e-02:6.252193e-03:1.966351e-02
-4.637607e-04:-5.889318e-03:6.976106e-03:1.471722e-02:-4.720849e-02:5.601250e-02:1.497123e-03:1.796211e-02:-2.439483e-02:9.334974e-03:-4.527332e-02:8.215222e-02
2.132443e-02:2.836684e-02:-1.825298e-03:-7.288171e-02:-1.198584e-01:1.304639e-01:3.324714e-02:1.239136e-02:1.433019e-02:5.437090e-03:4.850045e-02:-1.141646e-02
2.963030e-02:2.235129e-02:-7.192482e-02:-9.468318e-02:1.767868e-02:-1.958123e-02:-2.233563e-01:3.614733e-02:-2.498970e-02:-4.164165e-03:-2.758539e-02:5.424226e-02
-1.011985e-02:-1.609649e-02:-6.444969e-02:-1.773528e-02:2.599816e-02:1.937222e-02:-3.847656e-02:-2.368219e-03:-3.848630e-03:1.021726e-01:-2.176211e-02:1.048156e-02
6.443524e-02:-4.622979e-03:1.181081e-02:-3.460309e-02:4.945514e-02:3.928671e-02:7.688870e-03:-5.173412e-02:1.224990e-01:1.932821e-02:-1.831774e-02:-2.752065e-02
-3.072220e-02:5.305245e-02:-4.997607e-02:1.280877e-01:-7.324868e-02:7.455754e-02:2.207023e-02:-6.917061e-04:9.177978e-02:2.599231e-03:-1.788883e-03:-1.527644e-02
-4.246535e-02:4.900618e-02:-9.267459e-02:-8.310817e-02:-1.590522e-03:-4.825322e-02:-9.543427e-02:-8.565620e-02:5.905624e-02:2.401935e-02:-6.965755e-02:1.549458e-03
2.354755e-03:2.081824e-02:1.242643e-02:8.642969e-02:-2.080328e-03:4.747489e-02:5.063703e-02:3.204806e-02:-8.325088e-02:-9.098602e-02:-3.326432e-02:2.429927e-02
5.935346e-03:7.564881e-02:3.348223e-02:-1.510638e-02:1.027500e-01:4.790459e-02:1.060797e-02:4.192135e-02:1.773575e-01:7.807672e-03:-2.540824e-02:2.002003e-01
-3.367737e-02:8.217344e-02:-3.966207e-02:-5.742734e-02:2.622062e-02:9.817603e-02:-1.055496e-02:1.168178e-02:-1.289250e-01:-5.676615e-02:4.886152e-02:-1.141741e-01
-3.248290e-02:-1.618647e-02:4.203472e-02:3.782574e-02:-4.514301e-02:9.900612e-02:1.659463e-01:7.524665e-02:6.933031e-03:1.167240e-02:-2.732407e-02:8.144605e-02
-9.073242e-02:-2.223555e-02:-1.978372e-02:-1.910037e-02:7.574432e-02:9.017090e-02:-2.300122e-02:-1.503695e-02:2.792281e-02:7.670284e-02:-6.244530e-03:-6.038661e-02
2.092080e-02:-4.125335e-02:-1.391687e-02:5.681013e-02:1.971407e-02:-2.477131e-02:-4.943774e-02:-7.979786e-02:-3.886707e-02:-3.575992e-02:-3.947770e-02:-9.063906e-02
1.777359e-02:4.833169e-02:-3.018437e-03:-9.014110e-02:-1.763904e-02:-3.198446e-03:-5.991722e-02:-3.123188e-02:7.082096e-02:-2.622858e-02:-7.380892e-02:3.483795e-02
7.965795e-02:4.174212e-02:-1.080820e-02:-1.075109e-01:2.854828e-03:-2.884857e-02:-1.706638e-01:-3.632495e-02:-2.726148e-02:7.912206e-03:5.253421e-02:2.275384e-02
2.658343e-03:-4.567225e-02:7.746952e-02:-2.192625e-06:-4.175438e-02:3.501082e-02:-1.141600e-01:3.096087e-02:-5.327808e-02:-1.824977e-02:4.625499e-02:1.544971e-02
1.918781e-03:1.307161e-02:4.342364e-02:-3.265312e-02:1.171634e-02:-1.330958e-03:6.351086e-02:-1.094283e-02:6.618196e-02:-1.403272e-01:5.925931e-02:-3.983191e-02
5.423132e-02:1.789970e-01:9.366560e-02:-1.654957e-01:6.325032e-02:-7.844118e-02:2.668956e-02:4.082812e-02:2.905945e-02:6.629589e-02:8.699793e-02:6.655171e-02
4.730103e-03:1.831435e-02:2.846360e-02:-4.063052e-02:-8.855050e-03:2.424954e-02:5.723594e-03:-1.564537e-02:2.250986e-02:-4.701614e-02:4.022622e-02:-8.163828e-02
4.844698e-03:-2.033100e-02:-2.753379e-02:-3.638111e-02:1.062591e-02:5.614243e-02:-7.820335e-03:2.134311e-02:-3.015246e-02:-2.358981e-02:-1.110693e-02:-2.097776e-02
1.228057e-01:7.341467e-02:-2.326784e-02:-8.406099e-02:-3.211554e-02:-3.537943e-03:2.170110e-02:3.745036e-03:-3.876034e-02:-4.741478e-02:5.882233e-02:-1.069095e-01
3.112249e-02:7.709707e-02:-6.704995e-02:4.238695e-02:-9.418500e-02:-6.434751e-02:-2.444241e-02:5.776973e-02:-1.976160e-03:1.216823e-02:-5.071141e-02:-5.600825e-02
-7.123835e-02:-8.951021e-03:-3.860366e-02:1.070519e-03:7.829637e-02:-4.814175e-02:9.276747e-02:1.448413e-02:-4.472699e-02:6.549937e-02:1.825712e-02:-1.985794e-02
3.271933e-02:-7.679545e-03:-5.309027e-02:-3.700291e-02:3.474604e-02:2.238809e-02:5.445282e-03:-8.820000e-03:3.246049e-02:8.295700e-02:-7.759536e-03:-1.863241e-02
-9.899961e-02:-6.531850e-03:4.731641e-02:1.793095e-02:2.511272e-02:1.740705e-03:-6.982790e-02:-1.599638e-02:-1.237118e-02:4.218160e-02:-2.152085e-02:-9.388201e-03
-1.747783e-02:-9.384271e-02:-2.365964e-02:6.013965e-02:-7.329135e-03:4.584548e-02:-1.872214e-02:-7.906935e-02:-3.182860e-02:-3.509295e-02:-1.490903e-02:5.633005e-02
5.494574e-02:7.559900e-03:-4.261676e-02:3.361271e-02:3.634698e-03:5.545684e-02:8.660595e-02:-1.890665e-02:-2.068094e-02:6.133835e-02:-4.723006e-03:-6.172762e-03
3.612503e-02:2.632738e-02:3.839540e-03:1.922637e-02:6.119780e-03:5.956573e-02:-2.859851e-02:9.337675e-03:1.066858e-02:-1.023852e-01:1.706653e-02:2.012831e-02
-7.185896e-02:-2.024756e-02:-1.281168e-02:3.411029e-02:2.888985e-02:3.890721e-02:9.970040e-03:4.654614e-02:-3.098518e-02:-1.000798e-02:2.086258e-03:7.157440e-02
1.571435e-02:3.568165e-02:2.366008e-04:-4.248291e-02:-1.312593e-02:6.612428e-02:9.136707e-03:1.036584e-02:-7.098516e-02:-4.345572e-03:1.214915e-01:9.094986e-03
2.959426e-02:-7.274782e-02:-4.241582e-02:5.109688e-02:-1.347847e-02:-1.969832e-02:-1.728416e-02:4.862119e-03:-2.889409e-02:-2.012919e-02:-1.323378e-02:1.407501e-02
4.458323e-02:-2.136544e-02:1.288103e-01:2.522084e-02:1.706086e-02:-8.727577e-02:7.779646e-02:-6.109295e-02:-1.885750e-02:4.865851e-02:-3.538574e-02:4.597635e-02
-2.509869e-03:-1.072410e-02:8.119407e-02:8.559725e-02:-1.617793e-02:-5.445666e-02:-5.051105e-02:4.274982e-04:9.685905e-02:8.709245e-02:8.182213e-02:6.728643e-02
1.438739e-02:-2.233846e-02:-2.605897e-02:2.594756e-02:3.286041e-02:4.594444e-02:-2.321246e-02:-5.704705e-02:-3.016325e-02:-7.248077e-02:-1.353056e-01:-5.320462e-02
-3.195918e-02:-3.965003e-02:4.285590e-02:1.059754e-01:-3.939741e-02:-1.640744e-02:2.433119e-01:6.457496e-02:1.546999e-02:3.157043e-02:-3.454338e-03:1.132732e-01
5.739271e-02:8.422936e-03:-3.838286e-02:5.732361e-02:-5.389544e-02:-6.645302e-03:-8.540145e-02:3.206751e-03:-5.207982e-02:1.186258e-01:-8.646697e-04:8.280651e-02
-2.521329e-04:-4.142531e-02:8.681374e-02:-9.775551e-02:2.498619e-03:-2.139306e-02:8.109511e-02:-7.091404e-02:3.915010e-01:-3.996553e-02:1.985057e-03:-4.003773e-02
-6.280466e-02:-2.209283e-01:5.578937e-02:7.145371e-02:-4.086122e-02:-6.439392e-02:1.130992e-02:3.432087e-02:4.980001e-02:3.328142e-02:5.717958e-02:-1.332640e-02
1.180190e-03:4.199089e-02:-4.340132e-02:-4.537983e-03:-8.873415e-03:2.432784e-02:-3.083320e-01:3.133499e-02:2.633942e-02:2.137781e-02:4.647779e-02:-9.506039e-02
4.793591e-02:-3.920952e-02:-1.147242e-03:1.250534e-03:7.458529e-03:5.401741e-02:-1.674846e-03:1.894429e-02:5.525671e-02:7.109375e-02:1.372296e-02:4.894758e-02
-6.331684e-02:5.312894e-03:-6.614771e-02:-2.866394e-02:5.962365e-02:-1.522241e-02:1.657922e-02:-3.656345e-02:1.162610e-01:-3.441234e-02:1.528947e-02:-1.176724e-01
-2.791927e-02:6.115990e-02:3.803758e-02:-5.213379e-02:1.700226e-02:-2.541423e-02:2.040650e-02:1.312876e-03:6.506786e-02:-6.530667e-03:-2.843723e-02:-3.926858e-03
6.180457e-02:-5.598215e-02:-1.810292e-02:8.989854e-03:-8.630250e-03:-3.243024e-03:6.280518e-02:-8.989531e-02:4.168596e-02:-2.942334e-02:2.947448e-02:-1.739253e-02
-3.778056e-02:1.542021e-02:-1.430069e-03:-7.699469e-03:1.830936e-02:5.124546e-02:6.334582e-03:8.592394e-04:1.901453e-02:-4.213338e-02:1.151159e-02:-4.662337e-02
-3.184187e-02:-1.703876e-02:-3.997327e-02:6.063098e-02:-2.418158e-02:3.319186e-02:3.848450e-03:1.984473e-02:-2.164936e-01:4.501395e-02:1.543440e-02:4.994651e-02
7.067930e-02:-7.402973e-02:4.140399e-02:-4.048699e-02:-3.547501e-02:-1.582017e-02:-4.690566e-03:-2.894699e-03:-6.278580e-02:2.617482e-02:6.944713e-02:8.357466e-02
1.415232e-02:7.870832e-03:-8.519700e-03:-7.050515e-02:1.453790e-02:-9.937067e-02:-1.135923e-02:6.632666e-02:2.923285e-02:-3.901720e-02:4.396728e-03:3.008035e-02
