-9.801374e-02:-3.578707e-01:1.312597e-01:-1.955681e-01:1.765530e-01:-1.354076e-01:-1.912541e-01:1.281650e-03:7.404264e-02:1.999018e-01:6.767318e-02:-3.670009e-01
-3.939244e-01:5.716508e-01:-2.807944e-01:-5.163181e-02:3.573954e-01:5.017658e-01:3.957895e-01:3.022109e-01:-2.505264e-02:2.016470e-01:-4.288531e-01:-2.536830e-02
2.543949e-01:4.571468e-01:-6.953181e-01:-5.491031e-02:-5.744328e-02:1.643471e-01:-6.817882e-02:1.692621e-01:-1.877144e-01:1.148598e-01:2.446896e-01:5.624747e-01
-2.870822e-01:-5.362307e-01:-9.606065e-02:2.724842e-01:4.029868e-02:2.542123e-01:-5.482429e-01:-4.742019e-01:5.262833e-01:9.917699e-02:4.203142e-01:1.853572e-01
1.073997e-01:4.845926e-01:1.097417e-02:-6.420212e-01:-1.248184e-01:-1.627429e-01:6.248393e-01:-3.629765e-01:8.035030e-01:-3.141823e-01:-3.688802e-01:4.361274e-01
6.810845e-01:1.286806e-01:2.595489e-01:-4.077342e-01:2.143350e-01:-4.890030e-01:-2.106132e-01:4.550616e-01:-8.823615e-01:1.478893e-01:-1.747465e-01:2.883518e-01
-6.159213e-01:2.261946e-01:-3.252428e-01:-1.675852e-01:-4.024347e-01:-6.004952e-02:-2.438198e-01:1.234189e-01:-4.535520e-01:-1.444479e-01:7.619237e-01:-3.446315e-01
1.941817e-01:-1.905416e-01:5.618314e-01:2.144715e-01:-1.571761e-01:-2.387096e-01:2.386239e-01:3.156302e-02:1.637698e-03:-2.785412e-01:-5.373078e-01:-4.585020e-01
-2.648098e-01:-2.294587e-01:-7.542020e-01:1.979015e-01:2.674588e-01:8.147826e-01:-9.503420e-01:-2.349603e-01:1.789421e-01:1.007601e-01:5.881946e-01:9.455259e-01
6.289387e-01:-1.498046e-02:3.470444e-01:-4.981950e-01:2.761702e-01:-4.372341e-01:9.804690e-02:3.221408e-02:-5.348438e-02:3.480203e-01:-1.806201e-01:3.145395e-01
2.350551e-01:-1.423095e-01:2.618307e-01:4.530314e-01:5.720775e-01:-8.487263e-02:9.327213e-02:-1.234895e-01:2.881182e-01:5.444154e-01:-1.115423e-01:-2.058974e-01
-9.983974e-02:1.648085e-01:3.022950e-01:6.427335e-02:-4.586047e-01:-3.527155e-01:1.105006e-01:-6.996971e-02:-3.706842e-01:-3.060291e-01:-1.447432e-02:-3.647243e-01
