-3.336618e-02:7.307779e-02:2.094480e-01:8.678719e-03:1.863624e-02:5.136984e-01:4.020051e-02:-5.008458e-01:1.056736e-01:1.913576e-01:-8.593281e-03:-5.377133e-01
-7.102013e-02:4.301113e-02:6.215170e-02:2.096236e-01:-3.152834e-01:-1.854148e-01:2.555281e-01:-3.369022e-01:4.560254e-01:-3.800937e-01:3.213911e-01:3.497430e-01
-1.269987e-01:-9.052202e-02:-1.689202e-02:7.380855e-02:4.345514e-01:9.885891e-02:-1.842172e-01:-3.815867e-01:4.000248e-01:-3.411806e-02:-6.790594e-01:1.099839e-01
3.608789e-01:2.047893e-01:-1.524902e-01:2.030057e-01:6.341521e-02:-4.579226e-02:5.358309e-01:3.403797e-02:-8.239495e-02:1.066639e-01:-4.414828e-01:-5.111243e-01
-3.136679e-01:-6.621510e-01:2.329299e-01:2.513819e-02:2.878784e-01:8.561339e-02:3.078186e-01:-8.321543e-01:3.517295e-01:-1.125937e-01:1.858356e-01:-9.192015e-02
-1.816483e-01:9.918951e-02:8.480468e-02:-4.288044e-01:3.327962e-01:-1.156491e-01:-5.019833e-01:9.287889e-02:-2.488813e-02:2.815211e-01:4.092258e-01:-3.817542e-01
1.904690e-02:9.548030e-01:6.839263e-02:1.186619e-01:-5.936542e-01:2.718283e-01:2.647716e-01:-7.803497e-01:2.093587e-01:-2.972719e-02:2.380706e-01:-6.150394e-01
-7.623821e-02:2.301846e-01:2.991142e-02:3.352084e-01:1.356331e-01:-8.335054e-01:-2.391972e-01:5.806390e-02:6.583215e-01:-2.895051e-01:2.583158e-01:1.074182e-01
-1.696328e-01:1.807261e-01:1.033601e-01:-1.381451e-01:7.753477e-02:4.631180e-01:-1.782909e-01:1.195162e-01:1.256622e-01:-2.546404e-01:-2.798711e-01:1.953496e-02
1.541669e-01:3.539825e-01:-1.593948e-01:4.980575e-02:-1.590764e-01:-2.326527e-01:2.667371e-01:-6.219754e-02:-5.292523e-02:-3.088117e-01:1.080559e-01:2.799854e-01
-7.273728e-02:-3.328065e-02:2.331092e-01:-2.497078e-01:-2.849884e-01:3.918473e-01:3.261112e-01:5.406744e-02:-2.820749e-01:7.698984e-02:-5.050879e-02:5.921182e-02
-5.036518e-03:8.702681e-02:-1.139705e-01:-1.186216e-01:-2.811531e-01:-9.222057e-02:-6.385113e-02:-7.930146e-02:6.765837e-02:-1.146246e-01:-1.183018e-01:3.569764e-01
-2.336561e-01:-5.429694e-02:5.746371e-01:-2.984619e-01:-2.569328e-01:1.908454e-01:1.474066e-01:-7.736810e-01:5.530822e-01:-5.912734e-02:2.724263e-01:-4.574540e-02
2.202852e-01:-1.054905e-01:-2.847105e-01:4.238989e-01:-3.619812e-01:-2.033854e-01:8.874188e-02:9.502814e-02:4.989996e-01:-4.036045e-01:-2.118256e-01:8.674614e-02
-1.135122e-01:2.927800e-01:1.263660e-02:-2.903121e-01:-3.826191e-02:-1.960930e-01:6.820650e-01:-1.200792e-01:-1.172365e-01:-2.720714e-01:-3.760321e-02:6.424744e-02
-1.538543e-01:-4.357303e-01:5.498429e-01:8.976770e-02:3.539187e-01:-6.031747e-01:3.212569e-02:-1.608170e-01:-1.307287e-01:-5.840592e-03:-3.843780e-02:1.852389e-01
-1.105515e-01:-1.569398e-01:-2.407776e-01:-4.564327e-01:-4.391087e-01:6.091647e-02:3.027206e-01:-3.043164e-01:7.337332e-01:-1.682532e-01:8.070192e-01:4.718095e-01
-4.288348e-01:8.051032e-01:1.696213e-03:-2.376302e-01:-3.638903e-01:5.568781e-01:-5.136786e-01:-1.425109e-01:-2.228325e-01:3.186181e-01:5.035289e-01:-1.842418e-01
-3.359190e-01:6.645427e-02:7.051926e-01:1.578869e-02:-1.021648e-02:-1.131633e-01:1.560864e-01:-7.436604e-01:4.390702e-01:-2.459109e-01:-1.184068e-01:-2.575208e-01
-2.511050e-01:5.270276e-01:-2.384357e-01:7.904853e-01:-5.175995e-01:-3.292604e-01:-1.498706e-01:3.042511e-01:1.151336e-01:-5.981798e-01:-3.195230e-01:3.123964e-01
-3.225083e-01:3.263148e-01:2.149561e-01:-2.216646e-01:1.060791e-01:2.159901e-01:-3.749361e-01:1.248750e-01:8.830497e-03:-3.800415e-02:7.735326e-02:5.947044e-02
2.122089e-01:1.876835e-01:-7.742295e-02:3.310193e-02:1.164716e-02:-4.255324e-01:4.644585e-02:1.737862e-01:-2.585222e-01:-3.197967e-01:-9.723674e-03:3.623211e-01
-2.423319e-01:3.020115e-01:4.714529e-03:-3.172952e-01:-3.249044e-01:3.866093e-01:3.516473e-01:1.803217e-01:-2.858295e-01:7.687337e-02:-3.138705e-02:4.333322e-02
-1.158093e-01:5.386351e-02:-8.484332e-02:3.073884e-01:-4.390672e-01:-9.010261e-02:1.893743e-02:2.210675e-02:3.160686e-01:-2.639491e-01:-1.261150e-01:3.387169e-01
2.131144e-01:4.009618e-01:-3.330750e-01:-4.408938e-01:-1.542794e-01:-2.116815e-02:5.285879e-01:1.188969e-01:3.815712e-01:-1.509777e-01:-2.409870e-01:-4.975489e-01
-8.017860e-02:1.609334e-01:4.325060e-01:-2.830649e-01:1.214339e-01:2.325587e-02:6.984507e-01:-3.846758e-01:-5.010485e-01:-3.030936e-01:-8.752122e-02:2.296325e-01
8.535711e-01:-1.160691e-01:-3.676654e-01:-4.542070e-01:1.111983e-01:1.928880e-01:-1.931883e-03:9.890162e-02:3.650254e-01:-3.247297e-01:2.195705e-01:-1.441019e-01
2.395733e-01:-2.382023e-01:-2.722802e-01:3.708222e-01:-1.199183e-01:2.707932e-01:-4.788445e-01:2.497749e-01:-3.017395e-01:6.829732e-02:-1.603439e-01:1.049396e-01
-2.766185e-01:3.452824e-01:-1.572511e-01:1.454568e-01:1.524996e-01:-2.972140e-01:-2.496350e-01:4.505471e-01:7.912761e-02:-5.489102e-01:-3.033153e-02:-4.649679e-01
-4.184409e-01:5.090054e-01:1.558273e-01:5.864885e-01:-2.219466e-01:-1.037718e-01:-3.247909e-01:2.329466e-02:-6.233053e-01:1.913833e-01:-9.652625e-02:1.587781e-01
-3.961381e-01:2.277052e-01:7.490599e-01:-6.794017e-01:3.432999e-01:-3.876279e-01:4.394237e-01:-5.816382e-01:2.756262e-01:-5.143557e-01:2.838209e-01:6.155608e-01
1.063923e-01:-1.619899e-01:3.022506e-01:-3.085461e-01:6.360537e-01:-2.081084e-01:2.776975e-01:6.000838e-02:6.327707e-02:-8.053851e-02:-4.428005e-01:-4.138683e-01
5.243261e-01:-2.499215e-01:-6.112759e-02:2.369355e-01:3.613388e-01:-1.061810e-01:-8.130360e-02:6.401367e-02:-1.641603e-01:1.045921e-01:1.749333e-02:-2.519978e-01
6.125540e-01:-5.780874e-02:-4.462393e-02:4.252006e-01:-3.096268e-01:-1.260272e-01:2.595198e-01:-3.355076e-01:6.035214e-01:6.567093e-02:-2.004617e-02:1.956172e-01
-2.921592e-01:-1.801238e-01:-8.832823e-02:-1.172483e-01:-2.864251e-02:4.068063e-01:7.224910e-01:3.480462e-02:-3.282504e-03:5.600777e-01:-1.765087e-01:-2.218091e-01
-3.923094e-01:-2.880414e-01:1.041158e-01:2.761835e-01:4.131325e-02:6.014463e-02:-1.515595e-01:-3.434376e-01:5.676873e-01:9.619990e-02:-1.530307e-01:-1.772419e-01
