1.624145e-01:-9.438099e-03:8.071346e-02:-3.860031e-02:3.133897e-01:-1.708488e-01:9.024177e-03:1.547996e-01:-2.072956e-01:2.649908e-01:1.835885e-01:4.927286e-02
1.522439e-01:1.334333e-02:1.248620e-01:2.038397e-01:-2.574865e-01:-3.784092e-01:3.612407e-01:-3.897077e-01:4.717741e-01:-7.037898e-02:1.175003e-01:-1.600395e-03
-2.810110e-01:4.755688e-02:1.632130e-01:1.204995e-01:-5.161890e-02:1.898713e-01:-4.105132e-01:-3.674321e-01:3.090789e-01:2.710271e-01:6.405523e-01:-7.350649e-01
-3.291817e-02:-4.992740e-01:-4.781748e-02:3.827656e-01:2.872331e-01:-5.615429e-01:-7.355303e-02:-3.533024e-02:4.101382e-02:-1.950525e-01:2.971037e-01:4.596902e-02
-5.738714e-01:1.906117e-01:-6.178911e-01:1.733912e-01:-5.620744e-01:-1.756225e-01:3.664021e-01:-2.568397e-01:-3.887776e-02:3.587635e-01:5.929713e-02:-1.162686e-01
4.730597e-01:9.556873e-02:-6.691730e-02:2.382826e-01:-6.725737e-01:1.446220e-02:9.553326e-01:2.196742e-01:-1.483462e-01:-3.634938e-01:-7.956273e-01:2.519892e-01
-7.289357e-02:-8.510776e-02:-1.914573e-01:-4.158179e-02:2.455456e-01:-1.118770e-02:-1.440557e-01:6.212415e-01:-8.115252e-01:-2.189289e-01:-1.660463e-01:7.433470e-01
-2.148486e-01:-2.449109e-01:6.285263e-02:1.980509e-01:-3.114553e-01:-3.998583e-01:-1.641098e-01:-1.376100e-01:4.601088e-01:-7.459058e-01:2.415552e-01:1.354724e-01
1.750237e-01:-2.005721e-01:-2.705749e-01:3.336974e-01:-5.552911e-02:-2.487135e-01:1.773397e-01:2.595645e-01:-5.758085e-02:-2.010282e-01:-6.796796e-02:2.519740e-01
-4.805664e-02:-6.027530e-02:8.092668e-02:-2.139272e-01:-9.389076e-03:-3.668600e-01:-1.730429e-01:3.454478e-01:-4.695682e-01:5.591838e-01:1.591225e-01:9.440363e-02
-8.296639e-02:-1.289035e-01:-2.828962e-02:-1.548353e-01:1.110915e-01:1.982315e-01:-1.115429e-01:4.612693e-01:-8.987720e-02:-1.691555e-02:-3.084761e-02:1.896942e-01
-2.049356e-01:1.378499e-01:-2.498730e-01:-3.173443e-01:2.408590e-01:1.681240e-01:-7.310084e-02:-1.136446e-01:-1.723071e-01:4.838990e-02:-1.117007e-01:1.426453e-01
4.544555e-02:-2.773947e-01:2.261954e-01:-2.281647e-01:5.903457e-01:7.827238e-01:-5.773841e-01:-2.344534e-02:-4.875675e-01:-2.896473e-01:2.931242e-01:-4.826008e-01
2.907512e-01:-4.999436e-01:-1.161166e-01:5.601895e-01:-1.505883e-01:4.079412e-01:2.218659e-01:-1.798275e-01:-2.618463e-02:-6.500468e-01:-2.119785e-01:-9.692355e-02
-2.484820e-01:1.217504e-01:4.961333e-02:-4.069815e-02:-1.908873e-01:3.651659e-01:2.963961e-02:-3.221190e-01:5.433864e-01:-2.467273e-01:1.692747e-01:-2.458006e-01
-2.463119e-01:-2.378412e-01:-9.360334e-02:-5.512526e-02:2.422812e-01:-2.250700e-02:-2.710463e-02:4.013341e-01:1.441922e-01:-5.133580e-01:4.671274e-02:3.900554e-01
6.778052e-01:3.035733e-01:5.906389e-01:3.829136e-01:-2.128232e-01:4.796351e-01:5.373897e-02:-6.438479e-01:-1.147043e-01:-9.842188e-01:-1.752238e-01:-1.963121e-01
4.924527e-01:-7.439625e-01:3.628948e-02:3.314215e-01:3.887130e-01:-1.943265e-01:-9.524753e-03:3.708252e-01:-2.942561e-01:-4.049636e-01:-2.038472e-01:2.623623e-01
1.439334e-01:1.443626e-01:-3.343692e-01:-3.789839e-01:4.084055e-01:3.362020e-01:-2.313766e-01:4.158210e-01:-1.049860e+00:5.963162e-02:-3.206121e-01:2.596034e-01
-6.197649e-03:3.328919e-01:-4.667248e-01:4.832133e-01:-7.959691e-01:-1.403155e-01:7.278005e-01:2.219661e-01:2.709127e-01:-4.567651e-01:-4.171980e-01:4.255459e-01
1.679604e-01:-4.348453e-01:-1.933397e-01:5.044978e-01:-2.299653e-01:-8.862887e-02:2.905832e-01:-2.174807e-02:1.464142e-01:-5.095354e-01:1.001545e-02:4.027172e-02
6.558786e-02:3.533208e-03:-9.301282e-02:-1.437988e-02:2.566876e-03:-4.161351e-02:-2.118174e-01:4.159030e-01:-2.971629e-01:-1.095113e-01:1.102619e-01:-2.322358e-02
3.470794e-01:8.272670e-03:-6.135744e-02:2.397752e-01:1.546178e-01:3.970676e-02:-1.087745e-01:-6.315371e-02:-3.958032e-01:-1.144713e-01:-2.285767e-01:2.057930e-01
-9.225377e-02:-2.848696e-01:3.003165e-02:-1.654892e-01:1.505771e-01:-1.353193e-01:-5.085415e-02:2.283275e-01:-8.436627e-02:1.238024e-01:-4.481592e-02:3.012312e-01
-3.278750e-01:-1.345084e-01:3.705600e-02:4.868884e-02:2.431773e-01:2.190796e-02:9.552821e-02:-6.722442e-03:7.785143e-02:1.036691e-01:-4.547167e-02:1.422558e-01
3.570159e-01:-2.728993e-04:-2.445555e-01:1.210045e-01:2.218061e-01:-6.616599e-02:4.117461e-02:-1.864199e-01:-4.820843e-02:1.264363e-01:-3.039345e-02:1.183976e-01
2.376896e-01:-6.775007e-02:9.085254e-02:-5.521126e-02:2.103750e-01:-7.513210e-02:-1.155620e-02:-1.932190e-01:-1.658856e-02:2.843453e-03:-2.660478e-02:-2.296168e-01
-6.504632e-02:1.616480e-01:1.033420e-01:-7.904159e-02:-1.553880e-01:-1.701832e-01:-1.179596e-01:2.868271e-01:6.914174e-02:9.968871e-02:2.401392e-01:8.703052e-02
-3.083404e-01:2.179920e-01:-2.030982e-01:-4.401673e-01:1.487084e-01:-4.264757e-01:4.494936e-02:2.060948e-01:1.354002e-01:2.883945e-01:-1.863678e-01:5.590668e-01
3.117070e-01:1.124799e-01:2.193698e-01:-3.422341e-02:-1.517230e-01:-3.296185e-02:2.331339e-01:2.358012e-02:-1.536311e-01:-3.605675e-02:1.759435e-01:-9.406453e-02
-6.695753e-01:-1.950615e-02:-3.345039e-01:-3.123473e-01:-9.762790e-02:-2.329478e-01:-1.406784e-01:5.538306e-01:2.652375e-01:1.892644e-01:-1.722331e-01:5.158924e-01
2.953189e-01:6.561383e-02:1.043632e-01:5.269924e-02:1.899503e-01:2.835465e-01:-1.395685e-02:-1.292054e-02:-1.357009e-01:-1.885305e-01:-8.766425e-02:9.516513e-02
-1.677247e-01:6.818361e-02:2.155989e-01:-2.873662e-01:-1.803548e-02:6.529157e-02:-1.022243e-02:7.492451e-02:-7.419596e-02:6.870912e-02:-1.584983e-01:-1.951259e-02
1.667253e-01:-3.511966e-02:-9.375440e-02:3.248343e-01:-8.082359e-03:1.828896e-01:2.639313e-01:2.868272e-01:-1.389248e-01:-3.747522e-02:-2.694026e-01:2.643350e-02
1.107320e-01:-1.241600e-01:5.468424e-03:1.385256e-01:1.722506e-01:2.299881e-01:2.437823e-02:-8.835125e-02:3.000176e-02:-3.450254e-01:-1.023940e-01:-1.810675e-02
3.258447e-02:1.295040e-01:-1.344221e-01:2.197458e-02:-2.187490e-01:2.427430e-02:8.965177e-02:-5.200688e-02:-3.423892e-02:-9.113051e-02:-1.097563e-01:-1.491315e-01
