6.911775e-02:1.843837e-01:8.591122e-02:-4.056628e-02:-2.676218e-01:-4.883251e-01:-3.219152e-01:1.710352e-01:8.127057e-02:1.082544e-02:2.538148e-01:3.343522e-01
6.062622e-03:-7.184843e-03:4.060288e-03:-1.067601e-01:2.652220e-01:3.561476e-02:-2.020598e-01:2.443257e-02:-2.674464e-01:-1.641853e-02:8.525694e-02:-7.954220e-02
-8.878003e-02:-2.900914e-01:8.194791e-02:5.282148e-02:-1.422569e-01:-4.736072e-01:-1.012733e-01:4.426857e-01:-1.690067e-01:1.872829e-01:1.038096e-01:6.205328e-01
-2.645462e-01:2.407733e-02:-1.000806e-01:3.615150e-02:4.324024e-01:-2.877426e-01:-2.327647e-03:6.465413e-02:2.304419e-01:-1.652264e-01:2.108473e-01:-2.688895e-01
1.724388e-01:-1.079371e-01:-2.500668e-02:1.952271e-01:-5.878562e-05:-1.331380e-01:1.904294e-01:-1.698550e-02:-8.793338e-02:-3.166698e-01:2.367592e-01:2.918372e-02
2.816044e-02:-9.512892e-02:-2.418162e-01:-2.171976e-03:2.417744e-01:-5.658461e-01:1.896327e-01:-7.933733e-02:1.471939e-01:1.045936e-03:4.493658e-02:-7.705207e-03
7.102754e-02:-3.366105e-01:-2.414279e-01:1.244783e-01:5.543936e-01:1.064853e-01:2.841399e-01:4.236528e-01:-3.807603e-01:-3.477368e-01:-1.247706e-01:2.932599e-01
-4.693987e-01:-2.517998e-01:1.195733e-01:-1.885137e-01:3.592320e-01:-2.283584e-01:-2.050130e-01:3.622801e-02:8.538508e-02:-9.303895e-02:4.245929e-01:1.101667e-01
-1.808362e-01:-4.766238e-01:4.303973e-01:-9.471455e-02:1.115912e-01:1.648158e-01:2.697206e-01:-1.037831e-01:-2.807420e-01:-1.594548e-01:5.697530e-02:-2.113059e-01
2.479831e-01:-5.556040e-01:2.739016e-02:5.699001e-02:2.396876e-01:-8.385596e-01:2.256556e-01:2.556401e-01:-2.928690e-01:2.264532e-01:-7.409031e-02:2.026577e-01
-1.480195e-01:1.019552e-01:-1.859834e-01:-2.001313e-01:3.221724e-02:5.888860e-02:-9.259263e-02:-1.167181e-01:1.175357e-01:-3.232361e-01:4.969642e-02:3.188808e-01
-1.168943e-01:-3.858544e-01:1.816737e-01:-1.577002e-01:1.113976e-01:-1.470803e-01:-3.878587e-02:-1.055703e-01:9.292533e-02:-1.363752e-01:3.338148e-01:2.710562e-01
4.092898e-01:2.541498e-01:-1.193482e-01:-2.384429e-01:-1.816814e-01:-1.447409e-01:3.946416e-01:-1.386067e-02:-1.855159e-01:3.299367e-02:7.582243e-02:-7.977816e-02
5.012834e-01:-2.832069e-01:-8.966436e-02:3.731627e-01:2.370299e-01:-2.893164e-01:-1.085483e-01:9.730385e-01:-6.460624e-01:-1.485755e-01:-1.221703e-01:6.205085e-02
1.495447e-01:-2.895350e-02:-7.231198e-02:2.731936e-01:6.474168e-03:5.916114e-02:2.742833e-03:2.272793e-01:4.157181e-02:-4.063222e-01:-2.128650e-01:1.366687e-01
1.941143e-01:-1.914245e-01:-2.148696e-01:3.045203e-01:1.839744e-02:3.379154e-02:2.282492e-02:2.199262e-01:9.527658e-02:-2.969663e-01:5.131260e-02:-1.070706e-02
-4.808914e-02:-1.973774e-01:-2.977222e-01:8.629739e-02:1.919896e-01:-3.006602e-02:8.817330e-03:-1.483953e-01:2.071484e-01:2.423469e-01:-5.499581e-02:-2.050193e-01
-4.742007e-02:-4.716052e-01:2.301870e-01:-5.385605e-01:1.244621e-01:-1.836153e-01:4.321837e-01:4.195324e-03:-1.138270e-01:1.738522e-01:7.468598e-02:1.806767e-01
2.873714e-01:1.076620e-01:-4.980731e-01:-9.473652e-02:-8.658504e-02:2.183601e-01:4.231475e-01:8.050553e-02:-3.908499e-01:-1.117265e-01:-4.702952e-02:2.358804e-01
3.886508e-01:3.022639e-02:-1.371266e-01:5.043661e-02:1.178134e-01:4.285172e-01:2.399983e-01:-1.523992e-01:-1.476015e-01:-3.889247e-02:-3.362105e-01:-1.128013e-01
2.340006e-01:-4.066448e-01:3.782067e-01:1.264189e-01:5.729287e-01:-6.195212e-01:-6.018603e-01:-2.698098e-02:2.000335e-01:-1.798481e-01:2.108676e-01:-2.026688e-02
3.190358e-01:-5.274184e-01:-1.478018e-01:1.459737e-01:2.810901e-01:-1.714696e-01:1.232586e-02:1.090640e+00:-1.834159e-01:-2.287140e-01:-2.398178e-01:1.388507e-01
-1.391845e-01:-3.208580e-02:-9.442683e-02:-2.660229e-01:2.835402e-01:1.107642e-01:3.028451e-01:1.691954e-01:5.491670e-02:-4.932127e-01:1.954819e-01:-1.081313e-01
1.786934e-01:-3.077064e-01:-3.368082e-02:7.203368e-03:-5.529697e-02:-8.896737e-02:-8.129343e-02:-2.653190e-02:-1.178955e-01:-3.014231e-01:7.174466e-01:2.321682e-01
6.765670e-01:-3.503734e-02:-2.926368e-01:1.659088e-01:-2.229387e-02:-4.356470e-02:4.540753e-03:2.212451e-01:-2.932433e-01:-1.103267e-01:-2.749178e-01:5.735178e-01
-1.515214e-02:1.264513e-01:-1.976111e-01:2.391709e-01:-8.162221e-02:-1.062197e-01:-7.583345e-02:-5.099814e-03:2.731159e-02:1.149239e-01:9.936719e-02:-1.939027e-02
-1.780776e-01:8.021633e-02:-1.206801e-01:-2.709275e-01:-1.132045e-01:-4.004577e-01:1.189896e-01:2.311017e-01:2.042031e-01:4.133911e-01:-1.774705e-01:3.681663e-02
-2.686013e-01:-5.924163e-01:3.461178e-02:8.954684e-02:-6.160764e-03:1.429614e-01:-2.827331e-01:1.825264e-01:1.196436e-01:2.562626e-01:-1.174548e-01:3.738781e-02
8.339261e-02:-4.238895e-01:2.806526e-01:2.901022e-01:2.077127e-01:3.852810e-01:-3.175797e-01:-1.851386e-01:-3.801116e-01:5.252100e-02:-3.164604e-01:1.310185e-01
1.322366e-01:-1.653986e-01:5.399252e-01:-2.671957e-01:5.959595e-01:-3.842081e-01:1.258449e-02:1.192976e-01:-3.706736e-02:-1.248360e-01:-2.138305e-02:-3.947032e-01
1.348458e-01:-1.021357e-01:-1.800024e-01:1.061740e-01:1.935453e-01:-9.460095e-02:-4.808237e-02:-4.365038e-01:8.100404e-02:6.850351e-02:2.287480e-01:1.664430e-01
6.613149e-02:1.050985e-01:-6.272864e-02:-1.472739e-01:2.650899e-01:-8.385604e-02:-2.169645e-01:1.512930e-01:-3.033875e-01:6.577106e-02:7.749699e-02:2.392772e-02
5.554162e-01:6.220041e-02:4.465340e-01:-1.756833e-01:5.782017e-03:-3.156301e-01:-1.772954e-01:-2.190545e-01:-2.328668e-01:-3.610477e-01:3.442444e-01:5.259137e-01
2.871677e-02:3.535694e-01:1.986066e-01:1.912476e-01:2.173560e-02:-1.002797e-01:-3.292443e-02:-2.266429e-01:-3.085351e-01:1.434321e-01:-5.141833e-01:1.229946e-01
-1.087980e-01:1.663366e-01:5.066839e-01:-2.078192e-01:-1.249738e-01:-2.838343e-01:1.318664e-01:1.527453e-01:-2.207895e-01:-5.508792e-02:-1.388687e-01:3.741400e-02
1.062036e-02:-3.453961e-02:1.010512e-01:-2.747152e-01:9.010043e-02:8.310009e-02:-2.168696e-01:1.510475e-01:-2.023785e-01:1.600615e-02:-9.955123e-03:-2.132519e-02
3.305688e-01:-1.354156e-01:1.761997e-01:-1.364726e-01:4.407424e-01:-7.588930e-03:-2.605478e-01:2.884372e-01:-3.489092e-01:-1.546427e-01:7.649530e-02:3.168139e-01
-1.495923e-01:-4.043329e-01:1.748380e-01:1.461780e-01:6.092191e-01:-3.558883e-01:1.012171e-01:-4.775739e-02:1.526335e-02:-3.369631e-01:1.216353e-01:7.361339e-02
-3.966698e-01:-2.054695e-02:4.353288e-01:-8.773441e-03:3.825736e-01:7.182840e-02:-9.565526e-02:4.901680e-02:1.815300e-02:-3.517292e-01:-1.114326e-01:1.446739e-01
6.998955e-02:-3.631848e-01:-1.044226e-01:1.310712e-01:3.004791e-01:-2.485364e-02:-2.674485e-02:6.772159e-01:-2.413749e-02:-5.387827e-01:-1.135544e-01:-4.158718e-02
2.091623e-01:-5.928998e-02:1.332631e-01:-5.604968e-02:-1.563626e-02:-8.857167e-02:1.272855e-01:-6.438626e-02:6.382309e-04:-2.050525e-02:1.056910e-01:-9.010646e-02
2.194384e-01:3.855797e-01:-5.539037e-02:5.047749e-01:2.726832e-01:-5.964614e-01:-5.291317e-01:8.473531e-02:6.025128e-02:-9.271245e-03:-3.670653e-02:-3.047142e-01
-9.512211e-02:-3.126647e-01:-7.687338e-02:-4.590636e-02:-2.723436e-01:1.882223e-01:1.145077e-01:2.445154e-01:-1.197581e-01:-5.372212e-02:4.477701e-01:2.225369e-02
1.939057e-01:1.624009e-01:-1.162887e-01:1.575252e-01:3.895137e-02:1.161256e-01:-2.118452e-01:1.121270e-01:-2.495289e-02:-2.401346e-01:3.577313e-02:8.057560e-02
-5.385280e-02:-1.798985e-01:-3.772156e-01:4.015246e-02:2.910159e-01:4.841631e-02:-2.331502e-01:1.067937e-01:7.221774e-02:-2.581961e-01:-2.056146e-02:4.517883e-01
-3.872576e-03:-2.266365e-01:-5.399941e-02:1.140557e-01:-1.085780e-01:-2.070497e-01:1.120036e-01:-4.179348e-02:1.956143e-01:-2.952590e-02:1.413199e-01:-2.506842e-02
3.835225e-01:-5.712838e-01:-3.774336e-01:6.423384e-01:1.337960e-01:2.204406e-01:-2.202918e-02:1.057689e-01:-2.954580e-01:-1.962430e-01:2.054457e-01:-1.690480e-01
-7.516514e-02:3.984958e-02:-1.596664e-01:1.892912e-01:1.026179e-01:-1.985448e-01:3.327379e-01:-3.099835e-01:-2.057117e-01:9.003332e-02:4.491915e-01:2.308423e-02
