-2.792495e-01:3.953977e-02:3.542362e-02:6.315130e-03:-1.026617e-01:-2.668245e-01:-5.189547e-01:-2.565697e-01:5.204406e-01:-1.021446e-01:7.447452e-01:-5.499777e-01
1.331214e-01:-1.706550e-01:1.224960e-01:3.754453e-01:-1.954252e-01:-1.099524e-02:2.956457e-01:-6.418976e-01:1.635166e-01:-1.864894e-01:-9.323798e-02:-3.868453e-01
-1.411523e-01:-4.861955e-01:-1.484299e-01:-2.628005e-01:3.561212e-01:-4.165637e-01:-1.246645e-01:-1.331307e-01:9.420021e-02:7.773160e-01:-1.914929e-01:-1.826165e-01
7.832651e-02:-3.660667e-01:4.445374e-02:-4.951328e-01:-1.872689e-01:-1.628078e-01:3.260820e-01:-5.164062e-01:-4.193489e-02:-1.586417e-01:2.338347e-01:1.090866e-01
1.729054e-01:-2.158219e-01:-1.979380e-01:3.485445e-01:-6.498058e-02:-4.169164e-01:1.962307e-01:3.627300e-02:-8.858197e-02:-9.346192e-02:-5.862533e-02:5.172705e-02
1.103347e-01:-4.045927e-01:-1.976134e-01:-1.863195e-01:8.715877e-02:-2.712499e-02:2.647068e-02:-1.769116e-01:-2.207567e-01:-2.643707e-01:2.605434e-01:1.753810e-02
-2.410164e-01:-2.876242e-01:-3.390498e-01:3.006831e-01:-2.714058e-01:-4.627088e-02:2.295026e-01:-5.067369e-03:3.500806e-01:-3.360635e-01:-6.319542e-03:3.214221e-02
5.754248e-02:-8.645325e-03:2.289879e-01:1.074458e-01:-2.436539e-01:1.759983e-02:2.078451e-01:-5.085326e-01:2.499482e-01:-1.311746e-01:1.556632e-01:-4.525951e-01
-1.291546e-01:1.583614e-01:2.222372e-01:-1.217829e-01:1.233119e-02:-1.475831e-01:3.290968e-02:-2.722454e-01:-2.101508e-01:1.802560e-01:8.568320e-02:-1.887693e-01
1.825411e-02:-1.910424e-01:-3.104821e-01:2.241029e-02:-7.294647e-02:-3.353969e-01:1.521154e-01:1.256861e-01:-9.248365e-02:-1.575136e-01:-2.661091e-02:3.113283e-01
1.243564e-01:1.954755e-01:-5.468297e-02:-3.325458e-01:3.234053e-01:2.088389e-01:-1.999294e-01:5.582091e-01:-4.011239e-01:4.179322e-01:-1.356594e-01:3.355571e-01
-1.461634e-01:-1.536093e-01:2.298509e-01:-2.634102e-01:-2.240231e-01:7.712372e-02:-4.240536e-01:-1.070358e-01:2.424098e-02:-6.747273e-02:-9.508153e-02:-4.966296e-01
-7.032716e-01:1.093499e-01:1.896074e-01:1.572291e-01:-9.936372e-02:-2.249519e-01:-1.039722e-01:-5.712576e-01:6.758159e-01:1.684140e-02:5.759029e-02:2.550745e-01
2.152955e-01:-4.537740e-01:-4.698764e-02:4.539201e-01:-2.128524e-01:-4.583617e-01:6.789792e-01:-1.546418e-01:3.982602e-01:-3.084548e-01:-2.645471e-02:1.820333e-02
3.437873e-03:-3.250760e-01:3.627523e-01:-9.012647e-02:5.036770e-01:5.314283e-02:-3.153650e-01:-5.859272e-01:-1.809361e-01:-3.195641e-01:6.763883e-01:-8.823578e-02
2.682933e-01:-4.704495e-01:-5.198516e-01:-1.592912e-01:4.246598e-01:-2.452989e-01:-9.135675e-02:-1.163367e-01:3.423918e-01:5.793197e-02:4.187952e-01:3.055103e-01
2.120039e-01:-1.722056e-01:-2.604557e-01:3.062814e-01:-2.449265e-01:-1.618424e-01:4.062946e-01:5.649540e-02:6.853672e-02:-2.761923e-01:-1.995293e-01:1.974432e-01
-7.448874e-02:2.933140e-01:4.356859e-02:-2.304727e-01:-4.279252e-01:-4.410567e-01:3.364206e-01:-3.124151e-02:4.714936e-02:2.621034e-01:-2.944664e-01:3.300493e-01
-1.388859e-01:-1.517586e-01:-8.341229e-02:3.166132e-01:-1.960111e-01:-3.040619e-01:2.132628e-01:-1.432710e-01:4.513142e-01:-2.260285e-01:1.092601e-01:1.090887e-01
-1.162943e-01:8.464699e-02:1.964041e-01:3.160956e-01:-2.842618e-01:1.685001e-01:1.343239e-01:-4.987705e-01:4.270934e-01:1.458530e-01:9.217408e-02:-6.692948e-01
2.035015e-01:3.150247e-01:4.465348e-01:-4.592846e-01:1.922341e-01:-2.009263e-01:-3.179545e-01:-6.629802e-02:-1.895987e-01:-2.728598e-01:3.462494e-01:1.416076e-01
1.681152e-01:7.429418e-02:-3.285249e-01:1.915191e-01:1.580143e-01:-5.093717e-01:2.923319e-01:8.335689e-02:-2.546118e-01:-2.491655e-01:3.010071e-02:2.247480e-01
1.852761e-01:-2.676605e-01:-1.480981e-01:6.496824e-02:7.861305e-02:9.052855e-01:-2.647865e-01:3.378736e-01:-5.535348e-01:-2.289393e-01:-1.401489e-01:7.166484e-02
-7.280927e-02:3.991065e-01:3.540847e-02:-4.231727e-01:2.387370e-01:-1.508976e-01:-1.956227e-01:-1.033321e-01:6.274411e-02:2.709376e-01:7.193717e-02:-8.705443e-02
-4.760642e-02:1.153213e-01:2.888625e-01:-1.532473e-01:1.596577e-01:1.338508e-01:-1.650820e-02:-7.358602e-02:-5.258554e-02:-1.553292e-01:6.665179e-02:1.039752e-01
-3.108766e-02:-1.044388e-01:4.171821e-02:1.026634e-01:1.794530e-01:-1.026676e-01:2.323950e-02:-1.219923e-01:1.005323e-01:9.940047e-03:1.536721e-01:2.925911e-02
-3.769203e-01:2.933545e-01:4.533527e-01:-3.314814e-02:1.134705e-01:1.887563e-01:-1.306248e-01:-3.535120e-01:-1.680150e-01:-8.878160e-02:4.180366e-01:-3.910843e-02
1.791872e-02:1.356270e-01:4.511670e-01:-1.391735e-01:5.269162e-02:-2.949315e-03:-2.769011e-01:-2.182507e-01:-8.016232e-04:-1.167188e-01:2.962922e-01:2.228689e-02
-7.002337e-02:-3.489582e-01:-6.743068e-02:-1.019152e-01:2.113149e-01:-1.670513e-01:-5.437221e-02:1.103952e-01:-1.152873e-01:-9.282544e-03:-2.018562e-01:-3.190120e-02
7.436498e-02:3.393827e-01:-1.131088e-01:-9.822752e-02:-1.813683e-01:9.692207e-02:-1.065122e-01:-8.921663e-02:-1.515985e-01:1.967913e-02:5.358198e-02:1.833280e-01
-6.869946e-02:-2.391681e-02:1.122617e-01:-1.346641e-01:7.441692e-02:7.294011e-02:-1.414108e-01:1.083032e-01:-5.647025e-02:-4.571600e-03:1.289537e-01:-4.711917e-02
-9.999207e-02:-1.704070e-02:7.774289e-02:-9.631440e-02:4.171303e-02:1.958076e-01:-9.364770e-02:-1.285449e-01:-2.437167e-02:1.350189e-01:-5.160280e-02:-2.946573e-01
2.538922e-02:1.281845e-01:1.491838e-01:-3.899211e-02:4.511770e-02:8.468506e-02:7.884675e-02:-1.338072e-01:1.579389e-01:1.853745e-01:-4.679220e-02:-6.851358e-02
2.418706e-02:-1.254606e-01:-5.347631e-02:1.187408e-01:2.143664e-02:-1.267350e-01:-3.065812e-02:-1.201589e-01:8.379860e-03:-1.217897e-01:-1.588612e-01:-4.209636e-02
-8.204520e-02:-9.613573e-02:-2.129527e-01:4.803011e-02:-2.823481e-01:6.728744e-02:1.634807e-01:6.039409e-03:-9.135426e-03:-1.686017e-01:-1.132802e-01:9.978408e-03
-1.102383e-01:-5.171299e-03:1.004393e-01:9.367552e-02:-1.836075e-01:-7.221987e-02:1.689304e-01:4.228823e-02:1.230265e-01:-6.336271e-02:2.144309e-01:7.796630e-02
