8.436242e-02:3.309907e-01:-1.265323e-01:-2.651952e-01:-3.214999e-01:-3.440635e-02:1.452881e-01:2.584947e-01:-3.219152e-02:3.791124e-02:-2.535067e-01:-5.427764e-02
-4.236160e-01:-1.756311e-02:-2.493714e-01:1.163731e-01:-1.731601e-02:6.124616e-02:-1.197602e-01:7.832584e-02:-1.788122e-01:3.760832e-01:3.047084e-01:4.465086e-02
-2.900081e-02:-5.756255e-01:-5.350589e-02:-6.699180e-02:-1.349073e-01:5.446093e-01:5.149246e-01:-2.345226e-01:-1.800599e-01:1.063341e-01:1.473295e-01:1.730854e-01
3.898960e-01:2.742361e-01:-4.173667e-01:-2.260616e-01:-4.995226e-01:2.614065e-01:3.599948e-01:-2.474554e-01:-1.013411e-01:4.085613e-01:-3.885469e-01:1.321718e-01
-1.324084e-01:-7.414284e-02:-1.979880e-01:4.842538e-02:2.852807e-01:2.340987e-01:-7.818210e-02:-3.062958e-02:-3.729198e-01:-7.393245e-02:2.877381e-01:1.664144e-01
-4.665755e-02:5.150911e-02:-3.290243e-01:-4.857787e-01:1.371431e-01:-3.366507e-01:2.897084e-01:4.581787e-02:2.329867e-01:8.467928e-02:-2.547471e-01:4.186167e-01
-5.484579e-02:-8.798543e-02:2.961327e-02:1.997106e-01:6.723101e-02:-7.130204e-02:1.645843e-01:-2.271231e-01:8.125836e-02:1.507227e-01:1.442054e-01:-1.410967e-01
-3.327148e-01:4.385493e-02:1.186493e-02:-2.641042e-02:8.634736e-02:-4.637570e-02:2.633547e-01:1.044967e-01:-3.190723e-01:1.597306e-02:4.701901e-01:-1.922013e-01
-1.998999e-01:-2.227454e-03:-5.759092e-01:3.131253e-01:-3.590923e-01:2.813629e-01:3.118961e-01:5.652592e-03:1.310062e-01:2.597118e-01:-2.959660e-02:-1.362516e-01
-5.675757e-01:4.498365e-01:-5.833562e-01:9.857069e-02:1.513211e-01:2.417411e-01:4.561372e-01:2.072976e-02:-1.520061e-01:-1.479705e-01:-6.437214e-02:1.546058e-01
1.393756e-01:-2.216481e-01:-2.565475e-01:5.613055e-02:-6.856796e-02:3.502362e-02:1.574306e-01:6.347455e-02:6.152899e-03:-9.735055e-02:1.611977e-01:1.149917e-01
-7.343953e-01:-3.287280e-01:5.186075e-02:1.892108e-05:2.081991e-01:2.396640e-01:2.150088e-01:8.327222e-02:2.074582e-02:2.672257e-03:2.853460e-01:-4.333633e-02
-6.064786e-01:-1.668649e-01:2.134058e-01:-2.062263e-01:1.315666e-01:-4.273135e-01:1.263544e-01:5.349827e-02:2.869838e-01:6.223165e-01:-2.495210e-01:1.313756e-01
-1.315151e-01:3.338518e-01:4.980007e-02:-1.324761e-01:-1.530018e-01:-3.176527e-01:3.691591e-01:-3.230503e-01:-3.084138e-01:3.051152e-02:5.165936e-01:4.568247e-01
-4.368032e-01:-3.844838e-01:-6.961854e-02:5.416688e-02:-1.371919e-01:-1.582561e-01:-1.258470e-01:4.193279e-01:1.998897e-01:1.820073e-01:3.419287e-01:-4.240986e-02
-1.813686e-02:-4.012248e-01:-1.861254e-02:-1.426992e-01:1.305710e-01:-3.882874e-01:5.469626e-01:-2.056633e-01:1.891843e-01:1.058144e-01:2.249481e-01:3.290791e-01
1.045914e-01:4.562384e-02:-5.551332e-01:7.419242e-02:3.591939e-02:-1.996097e-01:1.212227e-01:2.791586e-01:2.484992e-01:4.041847e-01:-3.765473e-01:-2.993769e-01
-2.940661e-01:1.794049e-01:-1.825147e-02:-2.881805e-01:3.746618e-01:-9.625448e-02:1.297163e-02:-3.504250e-01:7.191411e-02:5.565679e-01:-7.489312e-02:1.592441e-01
-5.556252e-01:-3.279289e-01:4.043823e-01:-1.646459e-01:-1.450002e-01:1.133863e-01:8.272319e-02:-2.617103e-02:-2.524227e-01:6.365429e-01:-2.736633e-01:2.060419e-01
-3.921773e-02:-3.201829e-01:-1.674886e-01:-1.276855e-01:2.407494e-01:1.808373e-01:1.944759e-01:-9.357739e-02:-1.724226e-01:1.555841e-01:3.581393e-01:-8.495566e-02
-1.668880e-01:-3.012202e-01:-6.258541e-01:2.280522e-01:-2.164889e-01:4.510711e-02:4.815871e-01:4.540892e-01:-5.490097e-01:1.618315e-01:2.239391e-01:1.159388e-01
1.283136e-01:-2.799305e-01:-3.528995e-01:-1.188580e-01:1.278552e-01:-9.804433e-02:1.572390e-01:3.374718e-02:-3.273756e-01:1.676381e-01:1.030858e-01:4.547871e-01
1.515785e-01:1.390864e-01:1.687809e-01:-1.559472e-01:-2.032881e-01:-2.518319e-01:1.572952e-01:1.419582e-01:-6.441288e-02:2.346644e-01:-2.714113e-01:-2.405868e-01
9.742393e-02:1.423411e-01:-2.831687e-01:7.605757e-02:1.981246e-01:-1.621979e-01:5.578078e-02:-1.617742e-01:6.618115e-02:9.570550e-03:1.634017e-01:-3.963638e-02
-5.031434e-01:5.474340e-02:7.623224e-02:1.073860e-01:1.705824e-01:-4.008250e-01:1.362696e-01:5.402452e-02:-1.550738e-01:1.036302e-01:-3.362033e-01:4.887702e-01
2.402918e-01:-2.831787e-02:-4.302533e-01:-6.529351e-01:-1.488736e-01:-3.935062e-01:5.067838e-01:-4.981291e-01:2.212420e-01:6.276122e-01:-2.664607e-01:4.270675e-01
-8.451793e-02:-2.836623e-01:-2.211105e-01:2.555338e-01:-3.626899e-02:-1.811786e-01:3.030118e-01:4.407173e-02:-1.119238e-01:1.513394e-01:4.947774e-02:1.139735e-01
-3.310524e-01:-1.120889e-01:-4.039589e-01:9.325964e-02:1.597526e-01:6.918777e-02:3.420039e-01:1.739441e-01:-2.137030e-01:5.610002e-01:-3.278339e-01:-6.197254e-02
-1.046591e-01:-5.591857e-01:-2.915517e-01:7.990949e-03:-4.935871e-01:1.145130e-01:2.145667e-01:4.465586e-01:-2.617370e-02:3.684376e-01:3.502481e-01:-3.702616e-01
-1.223959e-01:-1.559641e-01:-1.924631e-01:4.737774e-02:7.968221e-02:-1.238088e-01:8.226332e-02:-3.473532e-01:2.176723e-01:8.794463e-02:1.304451e-01:5.465212e-02
1.149821e-01:1.312566e-01:-1.179414e-01:-4.557660e-01:-9.455644e-02:-2.476642e-01:-3.457024e-02:-1.286415e-01:6.290696e-02:3.010890e-01:2.839037e-01:2.382153e-01
-5.715172e-01:-6.342787e-02:1.378344e-01:-4.307114e-01:4.782599e-01:-1.264658e-01:2.545918e-01:2.228056e-02:1.933319e-01:5.975672e-02:-1.612204e-01:-3.095476e-02
-2.394171e-01:1.355426e-02:3.026398e-01:-2.596408e-01:-1.155191e-01:-1.978993e-02:3.461849e-02:9.761143e-02:1.070790e-01:4.647217e-02:-1.671818e-01:1.354898e-01
3.035323e-01:2.117587e-01:-6.510899e-01:-4.610320e-01:-1.454162e-01:3.444099e-02:3.396882e-01:4.192800e-02:-6.470449e-02:5.821052e-01:-1.316472e-01:3.122640e-03
-4.008213e-01:-3.051759e-01:-4.384631e-02:-2.719060e-01:4.931313e-01:-3.663092e-01:2.745726e-01:8.088339e-02:-1.736562e-01:2.618106e-01:1.062870e-01:1.222070e-01
1.643039e-01:-3.724553e-01:-1.107644e-01:-1.929343e-01:2.682650e-01:-2.773132e-01:3.199480e-01:-1.897439e-02:-6.125842e-02:2.492445e-01:-2.471695e-01:3.721015e-01
-2.082109e-01:-6.961525e-03:4.622136e-02:-4.262011e-01:-2.824389e-02:1.563046e-01:-1.533788e-02:1.671271e-01:-2.772513e-01:1.783076e-01:2.585746e-01:1.895407e-01
-2.328182e-01:2.664538e-02:-8.120240e-01:2.781328e-01:-1.059401e-01:1.421564e-01:1.194517e-02:-3.724723e-03:-9.860758e-02:4.200060e-02:-1.065772e-01:3.949641e-01
2.124165e-01:3.685976e-02:-2.170440e-02:9.126296e-02:-1.956812e-02:5.587420e-02:3.666870e-02:-1.176983e-01:-1.141773e-01:-6.363793e-02:6.362675e-02:-6.592344e-02
8.796211e-02:2.110506e-01:-5.623729e-01:2.130861e-01:-6.119412e-01:1.247668e-01:-4.163024e-02:1.496015e-01:1.906191e-02:6.597185e-01:-3.538654e-01:7.067129e-02
-3.085080e-01:2.017810e-01:-1.896604e-01:-7.997660e-02:-8.013204e-02:3.245280e-01:-1.394667e-01:7.840837e-02:-1.596369e-01:4.205556e-01:2.405025e-02:1.153224e-01
3.113872e-02:5.161632e-01:-1.110522e-01:1.374907e-01:-2.208991e-01:1.207914e-01:1.990836e-01:-2.339947e-01:-3.320372e-01:-1.298524e-01:-8.654768e-02:1.301954e-01
-1.781198e-01:-6.202097e-01:-6.190566e-01:-2.829090e-01:-1.314551e-01:5.573395e-01:3.757187e-01:2.282092e-01:-1.193636e-01:1.328459e-01:1.013410e-01:4.039651e-01
2.272227e-01:-5.370199e-02:-3.482796e-01:2.088702e-01:-1.610741e-01:-7.535093e-02:-2.137721e-01:-4.376637e-02:-1.427649e-02:1.271417e-01:3.263238e-01:-4.873639e-02
1.060271e-01:-3.304012e-02:1.253234e-01:-1.949458e-01:6.114651e-02:-6.888904e-02:5.752788e-02:-1.463081e-01:6.645042e-02:3.378450e-02:5.673198e-02:5.444355e-02
-3.274714e-01:2.569616e-01:-6.314697e-01:2.964568e-01:-3.315138e-02:3.178645e-01:-3.132708e-02:-1.447907e-01:1.065161e-02:1.798558e-02:-9.071746e-02:1.105964e-01
8.087170e-02:4.283916e-02:-1.692761e-01:-1.527408e-02:-3.880201e-01:3.599030e-01:3.163265e-02:-1.571790e-02:-5.573195e-02:-1.948499e-02:5.800559e-03:7.443554e-02
-3.322576e-02:-7.668363e-02:4.391302e-03:4.457314e-02:6.902912e-02:-1.865077e-01:2.451347e-01:-2.352315e-01:1.630179e-01:1.006368e-01:1.530121e-01:-4.634706e-02
