2.296920e-01:6.337877e-02:1.988660e-01:1.199686e-01:6.091955e-03:-2.289907e-02:4.795380e-02:-5.835060e-02:-3.241669e-02:-5.748540e-03:2.022160e-01:-8.187824e-02
2.224511e-01:1.179493e-01:1.249893e-01:1.687535e-01:-2.020105e-02:-5.463995e-02:3.164335e-01:4.339921e-04:-2.958499e-02:-1.810687e-01:-1.212703e-01:-2.558562e-02
-9.392462e-02:1.927584e-01:1.922287e-01:1.957741e-01:-5.997881e-02:-1.180053e-01:3.956347e-02:2.104219e-02:-1.355107e-01:-1.365213e-01:-3.404369e-03:1.645151e-01
2.258604e-01:-6.877765e-02:1.588061e-01:1.089525e-01:2.567744e-02:-1.991557e-01:-6.356298e-02:-1.287074e-01:1.506761e-01:2.260825e-01:1.429993e-01:3.667868e-02
1.698860e-01:-2.087757e-01:2.226186e-01:4.569338e-02:2.910604e-01:-1.258384e-01:2.480363e-02:1.703122e-01:-4.338131e-02:1.424514e-01:1.140026e-01:-3.250392e-01
1.535334e-03:9.692797e-02:1.956073e-01:1.145139e-01:6.508366e-02:-6.817421e-02:1.412480e-01:2.320696e-01:-5.574000e-03:-1.311437e-01:-1.104528e-01:-1.698209e-01
5.627479e-02:2.054298e-02:1.961335e-01:3.335799e-02:1.277968e-02:-2.502251e-01:-6.837761e-02:-8.888113e-02:-9.257112e-02:-2.723962e-02:1.321969e-01:1.746046e-01
1.336287e-01:2.301398e-02:2.115751e-01:4.563403e-02:3.851434e-02:-7.542416e-02:1.090383e-01:-2.539386e-01:-2.188720e-01:9.637687e-02:2.056393e-01:-1.507020e-02
5.354102e-02:3.044952e-01:1.869746e-01:2.930542e-02:-6.189694e-02:-3.378853e-01:-7.500225e-02:1.221219e-01:1.197681e-01:9.214049e-02:-1.094512e-01:2.967557e-02
1.301843e-01:-1.171548e-01:1.505906e-01:2.119444e-01:2.735528e-01:-5.948799e-02:1.365253e-01:1.652365e-01:3.995057e-04:-1.394250e-01:-2.518052e-02:-1.761882e-01
1.640473e-01:-4.663282e-02:1.737370e-01:9.680154e-02:1.034575e-01:-7.983501e-02:1.790202e-01:1.707492e-01:9.976751e-02:-4.113890e-02:-7.733175e-02:-1.301939e-01
9.537873e-02:2.494660e-02:1.235056e-01:1.608102e-01:1.520736e-01:-1.373051e-01:-4.109162e-02:-2.258032e-01:-2.315932e-01:3.257933e-01:6.243302e-03:-2.326884e-02
