7.397891e-02:-6.217564e-02:-4.629865e-02:1.038022e-01:-2.627777e-01:1.342518e-01:-1.545438e-01:-1.617938e-02:-1.110505e-01:4.414389e-02:2.130805e-02:-1.655514e-02
9.095367e-02:-1.248511e-01:2.165619e-01:-8.530050e-02:-2.068749e-01:-2.437384e-02:-2.811618e-01:-3.790256e-02:1.031749e-01:-8.392612e-03:1.457031e-01:-1.648869e-01
-6.294671e-02:-5.728995e-02:1.802934e-01:-3.822100e-01:-2.362082e-01:-7.465045e-02:-3.023837e-01:-2.677619e-02:-1.263888e-01:-1.381983e-01:9.754778e-02:-1.083756e-01
-2.080604e-02:5.614285e-02:1.078515e-02:1.388195e-01:-1.726483e-01:2.322315e-01:-1.117159e-01:1.942724e-01:-1.280641e-01:1.908764e-01:1.786769e-01:1.505349e-01
-3.071793e-01:3.457892e-03:5.993846e-02:1.884029e-01:-2.316388e-02:4.109500e-01:-2.418783e-01:9.037685e-02:9.728067e-02:3.500312e-01:1.238391e-01:8.400109e-02
-1.308550e-01:-8.707072e-02:2.194309e-01:-9.976751e-02:-1.936342e-01:1.726964e-01:-2.909880e-01:-2.573030e-02:1.199559e-01:8.757388e-03:6.352377e-02:-1.568427e-01
7.736985e-02:2.178557e-01:4.032985e-05:4.806525e-02:-9.883817e-02:1.499279e-01:-2.390819e-01:2.691319e-01:-1.768326e-01:1.743374e-01:1.093614e-01:1.466413e-01
2.365263e-01:1.715996e-01:1.526950e-01:-9.954670e-02:-2.141500e-01:-1.139666e-01:-2.696219e-01:1.646579e-01:-1.712021e-01:1.037849e-01:2.391602e-01:-2.362848e-01
-2.055707e-01:4.123328e-03:5.612574e-02:-2.926222e-01:-1.580002e-01:2.558701e-01:-2.452114e-01:9.987704e-02:-6.138575e-02:-4.764600e-02:1.460021e-01:3.190892e-01
-2.793332e-01:-2.095648e-01:1.358126e-01:8.101501e-02:-1.604020e-02:3.546096e-02:-3.889802e-01:-1.447582e-02:-7.468336e-03:2.764913e-01:-1.389737e-01:1.467789e-02
-6.648651e-02:-1.541877e-01:1.141514e-01:-1.250690e-03:-2.083939e-01:1.378028e-01:-2.003497e-01:2.712687e-02:1.839674e-01:1.552211e-01:4.124226e-02:-4.980779e-04
-2.602478e-03:2.990674e-01:2.734167e-01:-6.372160e-02:-5.683573e-02:1.519060e-01:-2.998567e-01:3.575199e-01:-2.588527e-01:2.322959e-01:2.425177e-01:-8.178751e-02
