-2.637191e-01:-2.813833e-02:2.291607e-01:5.446422e-01:2.260056e-01:-1.307056e-01:-2.669936e-01:5.383172e-01:-7.664817e-01:5.327525e-02:-9.387636e-02:1.819249e-01
-1.657337e-03:1.782143e-01:1.541241e-01:3.795701e-01:-7.270106e-02:2.759364e-01:-8.827160e-02:-3.285035e-01:-4.654697e-02:-2.961676e-01:-1.313276e-01:2.425700e-01
-4.490406e-01:-8.366251e-02:1.096333e-01:-1.438406e-01:-2.206576e-01:-1.806047e-01:1.167245e-01:3.035270e-01:4.835480e-02:7.032896e-01:-2.403251e-02:-2.175788e-01
-2.999882e-01:-2.464553e-01:2.608129e-01:3.821206e-01:3.958585e-01:-1.748682e-02:1.442930e-01:1.620427e-01:-3.640586e-01:-6.822290e-02:6.190488e-02:-6.248692e-01
2.858518e-01:-1.249765e-01:4.440550e-01:-1.309360e-01:-3.417305e-01:1.600635e-01:-4.272994e-01:-1.008153e-02:-2.840975e-02:1.132994e-01:2.715406e-01:-4.199425e-02
-5.298820e-01:3.554543e-02:-2.635209e-01:1.129354e-01:1.883860e-01:5.010656e-01:-2.978557e-02:1.119911e-01:2.220132e-01:3.524335e-02:-3.034295e-01:-3.920388e-01
-5.824890e-01:1.681643e-01:-8.147549e-02:-2.181929e-01:-7.210180e-02:8.091105e-03:-9.951419e-02:5.348358e-01:2.070427e-01:-5.352337e-02:1.805010e-01:-3.874501e-02
-4.222298e-01:2.453140e-01:-1.335148e-02:4.702771e-01:-3.038055e-01:1.989091e-01:-8.813578e-02:1.574067e-02:-2.584608e-01:1.677605e-01:6.902958e-02:2.191253e-01
-5.090658e-01:-1.690637e-01:-2.583026e-01:-4.252937e-02:2.555378e-01:2.534297e-01:1.848463e-01:-8.163569e-02:1.820267e-01:1.223638e-01:9.264962e-02:-4.259409e-01
-4.709928e-01:-5.773991e-01:4.371434e-01:-2.756967e-01:3.366279e-02:-5.248120e-02:-1.181697e-01:6.200731e-03:1.963837e-01:-1.924825e-01:4.996314e-01:5.367545e-02
9.369528e-02:1.338368e-02:1.024177e-01:4.281941e-01:7.940540e-02:4.808946e-01:-3.035357e-01:-3.611681e-01:-3.814579e-01:-1.384797e-01:-4.304876e-02:-3.855231e-02
-1.724022e-01:1.645003e-01:-1.295093e-01:6.318803e-02:3.756279e-01:3.741871e-01:3.736213e-01:-4.400197e-01:-2.539727e-01:-7.948272e-02:-2.425010e-01:1.661619e-01
9.886001e-02:-2.188111e-01:5.925996e-01:1.536390e-01:-2.847857e-01:3.620672e-01:-2.738509e-01:1.983023e-01:-1.516878e-01:-1.991454e-01:1.485659e-01:-1.231728e-01
3.080419e-01:-7.417642e-01:2.333095e-01:-1.338932e-01:4.505522e-01:-4.569519e-01:2.648991e-01:-1.790869e-01:1.913661e-01:-2.907816e-01:-5.546807e-02:1.677165e-01
-3.982188e-02:1.213066e-02:1.040519e-02:-2.111780e-02:3.160067e-01:6.025127e-01:-5.431210e-01:-1.273172e-01:1.775717e-01:-2.990326e-01:-3.790349e-01:8.228115e-02
1.902926e-01:3.799609e-01:2.418905e-02:5.124101e-01:-3.738706e-01:4.441434e-01:3.417177e-01:-1.983407e-01:-5.058155e-01:6.194786e-02:-4.956237e-01:-9.457797e-02
3.873688e-02:2.756663e-01:-5.948718e-02:1.368825e-01:-1.823416e-02:4.521748e-01:2.291566e-01:1.698290e-01:-3.404150e-02:-3.941259e-01:-1.055281e-01:-7.436507e-01
-9.423889e-02:6.755024e-03:2.972645e-02:-4.815823e-02:1.969210e-01:2.553997e-01:-5.480507e-02:-1.408571e-01:-2.194874e-01:-3.742731e-01:3.396214e-01:-4.994365e-01
-5.109699e-01:-2.987775e-01:2.171193e-01:1.336928e-01:-1.337969e-01:3.648258e-01:-9.504474e-02:2.812425e-01:-1.323884e-01:-1.838676e-01:2.946704e-01:-2.255761e-01
1.272599e-01:1.034965e-01:1.092662e-01:-9.330302e-02:8.355603e-03:-2.998487e-01:2.907803e-01:-7.244848e-02:-1.116921e-01:7.540456e-01:-1.190843e-01:-4.456947e-01
2.032065e-01:-1.454094e-01:1.020881e-01:-2.585165e-01:1.138556e-01:-1.123445e-01:3.129699e-01:4.176922e-01:-1.272095e-01:-2.389358e-01:-3.523959e-01:-1.900822e-01
-4.057726e-02:-3.262373e-01:8.455410e-02:-8.171124e-02:4.759797e-02:5.673133e-01:3.880140e-01:-1.586812e-01:-4.953795e-02:-1.071188e-01:2.658820e-01:-2.840677e-01
2.592110e-01:1.126333e-01:-3.124196e-02:3.106581e-01:6.349044e-01:2.820009e-01:-7.632186e-02:2.795294e-01:-9.609916e-02:-4.266103e-01:-6.208133e-01:-5.566867e-01
1.714356e-01:-3.586946e-02:5.783780e-01:-2.409249e-01:-2.872645e-01:-2.569887e-02:-3.604353e-01:3.088056e-01:2.004118e-01:-3.191576e-02:9.245266e-02:-7.193663e-03
-2.358050e-01:-1.274442e-01:6.667102e-01:6.546840e-02:-2.990712e-01:5.054334e-01:2.189202e-02:4.408875e-01:-1.355624e-01:-3.410235e-01:-1.496187e-01:-1.463264e-01
-3.513839e-01:-1.955736e-02:-8.038059e-02:2.329146e-01:-1.628705e-01:3.129166e-01:5.099688e-01:6.018437e-01:-4.757691e-01:-2.381556e-01:2.241284e-01:-5.438752e-01
-5.823176e-01:2.202416e-01:-2.629840e-01:1.466559e-01:6.403895e-01:1.209429e-01:2.647270e-01:2.371881e-01:-2.086482e-01:8.136904e-02:-3.085735e-01:-2.714416e-01
4.684844e-01:-4.062029e-01:5.060636e-01:7.617754e-01:1.563132e-01:-9.855225e-02:2.026368e-02:1.702558e-01:-6.126355e-01:-1.461105e-02:-7.035536e-01:-4.312925e-02
-2.394812e-01:-2.300928e-01:4.493466e-01:-3.106090e-01:6.628630e-01:9.743600e-02:2.646020e-01:-1.651565e-01:-5.341276e-01:-2.023160e-01:-1.274281e-01:2.364960e-01
-9.770866e-02:-1.062089e-01:1.683565e-01:2.463675e-01:1.974165e-01:6.811163e-01:-3.629913e-01:2.431767e-01:-1.612981e-02:-6.457257e-01:-6.335396e-02:-2.695669e-01
-4.706185e-01:1.248750e-01:5.560418e-02:-4.274891e-01:-3.297414e-03:1.587597e-01:-4.014980e-01:1.917175e-01:3.120731e-01:9.915926e-02:1.621902e-02:2.369247e-01
4.719662e-01:1.384489e-01:2.563610e-01:-1.462083e-01:1.168426e-01:2.486498e-02:-3.969482e-01:-2.427867e-01:6.300899e-02:3.521844e-01:-3.036365e-01:-8.419590e-02
-1.998892e-01:1.315301e-01:-2.216014e-01:3.406765e-01:2.111297e-01:2.504458e-01:7.576402e-01:1.460447e-01:-2.709989e-01:1.532875e-01:-3.665666e-01:-7.900199e-01
2.986008e-01:7.632912e-02:5.651687e-01:-2.835263e-01:-1.317230e-01:-7.915945e-02:-3.226650e-01:2.293583e-01:2.089919e-01:-3.185723e-02:-2.947487e-01:-2.380425e-01
1.640885e-01:-1.237128e-01:8.782372e-02:4.503644e-01:8.148474e-02:1.162205e-01:1.686886e-01:-3.277509e-01:-3.638099e-01:3.182732e-01:-9.377980e-03:-5.023225e-01
-2.924662e-02:4.162437e-01:-6.928534e-02:2.375034e-01:1.386350e-01:-1.134991e-01:5.335497e-01:3.260403e-01:-3.169512e-01:7.412253e-02:-2.637622e-01:-5.349687e-01
-4.372012e-02:-5.760938e-01:3.306231e-01:-3.599071e-01:2.811761e-01:-2.457753e-02:1.558225e-01:4.545535e-01:1.428389e-01:-2.117973e-01:2.401749e-01:-3.478113e-01
-3.426361e-01:-3.664684e-01:9.586193e-02:-1.467756e-01:2.198047e-01:2.221823e-02:-5.337670e-01:-5.934576e-03:6.112529e-02:4.221101e-01:3.237055e-01:7.674577e-02
-1.038097e-01:-5.839019e-02:1.058654e-01:-1.046269e-01:1.364696e-02:-1.516170e-01:2.753879e-01:4.666982e-01:2.259669e-02:1.941945e-01:7.294777e-02:-6.190637e-01
-2.695350e-01:2.201645e-01:2.764010e-01:1.901623e-01:-1.255091e-01:-5.163132e-04:-3.032748e-01:5.437351e-03:-1.506867e-02:7.039155e-01:-4.296076e-01:4.488157e-02
-3.430700e-01:-1.336065e-01:4.537687e-01:-4.197461e-02:-2.224746e-01:-3.202389e-01:-3.237078e-02:3.038009e-01:-1.284748e-01:4.371159e-01:4.645791e-01:-2.276091e-01
-1.518122e-01:-1.137956e-01:2.409565e-01:1.894911e-01:7.853254e-03:1.877242e-01:4.610326e-03:-4.606592e-01:-1.110547e-01:-7.074082e-02:2.478650e-01:2.882996e-01
-1.129311e-01:-6.277202e-03:5.895815e-01:1.239321e-01:4.592209e-01:-2.705249e-01:-4.582092e-01:2.040608e-01:-9.857029e-02:-1.783033e-02:-5.039640e-02:-1.461760e-01
-5.295823e-02:-3.212816e-01:-9.102784e-02:-3.743387e-01:6.302743e-02:-2.049963e-01:-1.307907e-01:8.366487e-02:2.193427e-01:5.863143e-02:3.524197e-01:-1.772806e-01
-3.389960e-01:2.636162e-01:4.123069e-01:2.528736e-02:-7.555921e-02:5.322082e-02:1.607444e-01:4.668107e-01:2.833112e-03:5.246227e-02:-2.619331e-01:-5.940316e-01
-3.017257e-01:3.163011e-02:-4.739012e-01:2.921863e-01:3.513486e-01:3.352450e-01:4.685448e-01:-1.774258e-01:-9.191497e-02:2.160645e-01:-2.266037e-02:-4.131266e-01
-1.802679e-01:-6.344632e-02:-3.019988e-01:1.627744e-01:1.783289e-01:2.152026e-01:3.392406e-01:5.855375e-01:-3.132680e-01:9.581576e-02:-3.352728e-01:-8.034218e-02
-5.947017e-01:-1.238926e-01:-1.222140e-01:4.734711e-01:-3.298514e-01:1.902574e-01:1.653956e-01:2.833397e-01:-2.471762e-01:4.996631e-01:6.295997e-02:-3.082949e-01
