-8.074458e-02:-1.527655e-01:-8.220527e-02:5.589002e-02:1.217387e-01:1.841144e-01:4.616685e-02:-2.112111e-01:2.789603e-01:-2.202297e-01:-9.401225e-02:-5.091482e-02
-3.406392e-02:1.317771e-01:1.605297e-01:6.814778e-03:-1.505139e-01:-1.487920e-01:-4.067770e-02:-1.216573e-01:3.260824e-01:3.983261e-04:7.093691e-02:-1.921406e-01
2.946655e-03:1.500054e-01:-2.162834e-03:2.430795e-02:-3.580060e-01:-2.364348e-01:3.602637e-01:6.378414e-02:5.695076e-02:-2.225916e-01:-2.215335e-01:1.003324e-01
-1.078874e-01:5.526710e-02:9.016913e-02:-2.149014e-01:-9.380607e-02:1.851926e-01:1.153719e-01:5.780471e-02:3.547637e-02:3.208186e-02:-3.284916e-01:1.170587e-01
-3.059078e-01:-2.470222e-01:5.089273e-01:-1.763547e-01:7.509974e-01:3.828113e-02:-2.683822e-01:-1.438510e-01:3.482106e-01:-3.117459e-02:5.029828e-02:-3.605950e-01
4.182880e-01:-3.077720e-01:-5.455999e-01:7.188264e-01:4.506584e-02:-3.667283e-01:9.309708e-01:5.357420e-01:-2.101556e-01:-6.578912e-01:-7.382463e-01:1.502163e-01
-3.495197e-03:-2.286678e-01:-4.166804e-01:-6.653655e-01:1.065230e+00:3.671809e-01:-5.876834e-01:8.520470e-01:-1.498710e+00:4.793041e-01:-3.916142e-02:4.936333e-01
-2.458334e-01:5.080886e-01:-1.496832e-01:-4.483705e-01:4.455538e-02:6.380055e-01:-1.924866e-01:-5.562857e-01:-1.509962e-01:8.447312e-01:2.176599e-01:-8.805032e-01
5.885034e-01:-4.317944e-01:-6.390578e-01:6.405872e-01:4.155094e-02:-6.358574e-01:6.433270e-01:1.016803e+00:-7.589518e-01:-8.521565e-01:-7.980556e-01:9.687834e-01
-6.200528e-01:4.944947e-01:-3.213366e-01:-1.091953e-01:8.187163e-03:3.536356e-01:-3.248939e-01:1.816190e-01:-5.321940e-01:5.852949e-01:2.378217e-01:-7.417203e-02
-4.869077e-02:6.433913e-01:1.469366e-01:5.444482e-01:-1.219432e+00:-2.574964e-01:8.469025e-01:-7.675541e-01:9.161193e-01:-4.632445e-01:-4.134924e-01:-3.742158e-01
2.928643e-01:4.163838e-01:-8.259466e-02:-6.443046e-01:3.645095e-01:4.529645e-01:-1.219549e-01:-7.464389e-02:-6.860425e-01:5.786003e-01:-5.810809e-02:-2.495915e-01
-4.807751e-02:-9.242162e-02:1.044871e-02:1.075848e-01:-7.684973e-02:-1.902946e-01:2.418898e-01:9.342862e-02:-1.161533e-01:1.958524e-02:4.939143e-01:1.211831e-01
1.990402e-02:-2.564647e-02:-1.538424e-01:3.809120e-01:-6.588577e-02:1.251219e-01:2.634732e-02:-1.444424e-01:3.680587e-01:-3.135453e-01:-1.155311e-02:-2.097385e-01
1.374506e-01:-2.229414e-01:-7.793665e-02:1.788276e-01:1.344101e-01:-1.453692e-01:1.490691e-01:-1.195817e-01:1.280316e-01:-2.821225e-02:-3.782430e-01:2.283264e-01
-4.448960e-01:-5.859257e-02:-2.273784e-01:3.729085e-01:-1.832025e-02:5.651188e-01:-1.512707e-03:9.471650e-02:-2.577764e-01:-2.012200e-01:-2.964363e-02:-2.681492e-01
-4.258876e-01:2.764931e-01:-6.994933e-02:-2.156398e-02:-6.322830e-01:9.972442e-03:-2.622843e-01:-2.231533e-01:2.155574e-01:1.340795e-01:5.359516e-01:2.616929e-01
4.473931e-01:-5.291346e-01:-3.622194e-02:2.681993e-01:3.048320e-01:-8.299708e-01:1.295634e-01:1.721012e-01:-3.141952e-01:-4.191516e-02:-1.043809e-01:7.284256e-01
-4.681243e-02:1.870855e-01:-4.333910e-01:-6.689891e-01:8.100865e-01:4.051008e-01:-5.886695e-01:3.973047e-01:-1.141619e+00:8.084608e-01:2.328863e-01:1.312033e-01
2.508210e-02:1.743076e-01:9.892637e-01:-7.359470e-01:-5.310953e-02:1.418205e-01:-5.334195e-01:-9.163553e-01:3.952149e-01:8.476889e-01:3.972943e-01:-8.342105e-01
4.321763e-01:-5.769811e-01:-4.731823e-01:2.153552e-01:7.400428e-01:-4.896563e-01:1.721208e-01:6.726421e-01:-8.226047e-01:-1.858043e-01:-3.708670e-01:7.428961e-01
5.301908e-01:1.922117e-01:3.689007e-01:-9.138889e-01:2.781148e-01:4.057328e-01:-1.860706e-01:-2.542258e-01:-3.692662e-01:3.740178e-01:-3.068868e-01:-2.228114e-01
2.995879e-01:-5.046754e-01:5.964574e-01:4.075981e-01:-3.337122e-01:-5.164583e-01:4.429687e-01:-3.738835e-01:7.948289e-01:-5.705644e-01:-3.960900e-01:-2.135627e-01
-1.865200e-01:-2.246085e-01:4.699824e-01:-4.913161e-01:7.748985e-01:2.419919e-01:-6.584081e-01:-1.452826e-01:-3.141019e-01:9.948271e-01:4.093822e-01:-6.203460e-01
3.114341e-01:-1.742191e-01:-2.450296e-01:-1.135639e-02:-8.634908e-02:-8.478434e-02:2.849338e-01:-2.419736e-01:-5.619132e-02:-8.090781e-02:3.096182e-01:6.779769e-02
5.539706e-01:4.802223e-01:9.320119e-03:-2.483850e-01:-7.114676e-03:-2.427709e-01:-1.131786e-01:-3.979350e-01:2.340028e-01:2.883392e-01:-3.178863e-01:2.984040e-03
-2.293994e-01:-4.103361e-01:-1.461912e-01:-1.067840e-01:2.749963e-01:6.546049e-03:3.341171e-01:9.759494e-02:-2.874720e-02:2.307698e-01:4.710787e-02:-3.344728e-01
-4.819911e-02:-4.583348e-01:1.820955e-01:-1.100346e-01:1.864210e-01:4.719472e-02:6.806206e-02:-1.071141e-01:1.807569e-01:-2.485354e-01:-1.211310e-01:4.164360e-01
1.247744e-01:1.631722e-01:-2.871226e-01:3.044999e-01:-2.291562e-01:2.106858e-01:-5.245624e-01:-2.967300e-01:1.125463e-01:5.223181e-01:-7.247754e-01:3.767092e-01
5.733922e-01:-1.313932e-01:9.045974e-01:5.131675e-03:1.677125e-01:-3.249928e-01:1.041192e-02:-4.443370e-01:-2.506574e-01:4.979029e-02:1.346475e-01:2.421432e-01
-4.062411e-01:-3.278851e-01:1.520162e-01:3.558004e-02:-4.698613e-01:-3.034643e-02:4.257220e-01:2.238287e-01:-2.067605e-01:6.405828e-01:2.050410e-03:-1.746734e-01
2.774968e-01:-2.587448e-01:-3.567062e-01:-2.790404e-01:-5.591266e-01:1.946327e-01:-1.948346e-01:1.794376e-01:1.595736e-01:-3.497660e-03:6.828648e-01:5.548087e-01
7.867305e-01:-3.563537e-02:-2.478265e-01:-6.484011e-01:-2.252886e-01:-1.919284e-01:4.720704e-01:-2.061963e-01:1.403017e-03:4.032412e-01:-4.363633e-01:-1.760170e-01
-2.935042e-01:-1.229727e-01:-2.880693e-01:3.921317e-01:1.449002e-01:8.263685e-01:1.936697e-01:1.446422e-01:-6.482433e-02:-1.206179e-01:-3.588179e-01:-4.795861e-01
-3.614096e-01:8.231920e-01:-1.094603e-01:-2.341235e-01:5.385849e-02:-3.524358e-01:4.338840e-01:-2.225449e-01:-2.292364e-01:-3.862143e-01:-2.813339e-02:1.027331e-01
-5.193973e-02:-2.290022e-01:9.899805e-02:7.257112e-01:-3.139459e-01:1.055938e+00:3.561758e-01:-8.262034e-01:-8.003629e-01:-4.277416e-01:7.514923e-01:3.818447e-01
