-1.611875e-01:-3.071199e-01:-1.622088e-02:-1.651277e-01:-8.474842e-01:-9.346099e-02:3.804362e-01:-4.491232e-01:-9.215099e-01:8.857260e-01:-3.522520e-01:3.764018e-01
4.134541e-02:-5.057361e-02:1.802931e-01:-2.466024e-02:-4.573048e-01:5.902157e-01:5.819846e-01:-9.293579e-01:-1.457399e-01:4.376119e-01:6.421663e-01:7.178560e-01
-2.831455e-01:2.576225e-01:-2.405562e-01:4.739849e-02:3.510373e-01:1.411525e-01:5.646434e-01:-5.993954e-01:-5.679304e-01:6.943768e-01:-3.429343e-01:5.711059e-01
2.500055e-01:-7.337531e-02:-6.342332e-01:8.519331e-03:-5.954629e-01:3.146345e-01:6.286336e-03:2.821246e-01:-3.799563e-01:-1.948895e-01:-8.175103e-02:6.717931e-01
2.861499e-01:-2.360647e-01:3.471978e-02:-3.277047e-01:-7.467467e-01:4.547829e-01:5.832056e-01:5.570202e-01:-2.193117e-01:-6.276113e-01:7.358955e-01:1.007252e+00
-1.823688e-01:6.908903e-01:-1.303232e-01:-6.909944e-02:-3.092594e-01:4.979165e-01:3.877749e-01:2.316125e-01:8.035210e-01:1.843919e-01:-6.346939e-01:8.569674e-01
-2.578601e-01:-3.112593e-01:-3.661416e-01:4.063176e-01:-1.004821e-01:1.104697e+00:-6.405898e-01:9.387131e-02:-5.203148e-01:-4.513304e-01:-6.440834e-01:7.065216e-01
-1.216377e-02:-1.733538e-01:-3.441106e-01:-1.639469e-01:1.121325e+00:4.163636e-01:8.072104e-03:-1.641892e-01:-1.572695e-01:4.765351e-01:-1.544358e-01:8.756303e-01
3.735008e-01:4.142904e-01:-3.543835e-01:2.544990e-01:2.223329e-01:-7.981083e-02:-5.780609e-02:-5.498382e-01:-2.003158e-02:8.754022e-02:1.093511e+00:5.865785e-01
-4.198554e-01:5.411144e-01:-4.779346e-01:-2.998451e-01:-2.561996e-01:2.216609e-01:-1.328178e+00:-7.873882e-01:-4.670089e-01:-2.471774e-01:8.150995e-01:2.552524e-01
-1.220866e-01:1.250743e-01:-3.118542e-01:-2.727612e-01:-1.533150e-01:-5.668638e-01:-5.417359e-01:1.082907e+00:-7.007460e-01:5.900972e-01:-5.064050e-01:6.121728e-01
-1.760800e-01:-5.038458e-01:1.763683e-01:1.126477e-01:-6.646736e-01:-8.819530e-02:-4.862010e-01:-2.521276e-01:5.478161e-01:1.013535e+00:1.511677e-01:6.255826e-01
