-6.634552e+00:6.170157e-01:-6.652421e+00:-2.061713e+00:-2.618940e-01:-9.812099e-01:-4.086130e-01:2.244326e-01:-1.604753e-02:-1.650872e-01:3.644174e-01:1.281040e+00
-3.348395e-01:3.984979e-01:5.732086e-01:2.346973e-01:4.229756e-01:5.645238e-01:1.288048e+00:7.176578e-01:-5.842587e-01:-9.027578e-02:3.294218e-01:7.591552e-01
7.350406e-01:5.201762e-01:5.522144e-02:-6.799488e-01:3.278614e-01:1.995024e-01:2.804384e-02:8.363327e-01:-2.651612e-01:-5.968131e-02:1.748500e-01:5.121496e-01
7.254930e-01:-1.940286e-01:-1.007436e-01:-8.137538e-02:7.344745e-01:-2.029971e-01:3.190012e-01:-3.805647e-01:2.356556e-01:1.223961e+00:-4.116027e-01:6.232842e-01
1.515677e-01:-5.519732e-01:2.323481e-01:3.491233e-01:-4.297716e-01:8.013657e-02:-1.870994e-01:-1.938767e-01:-2.161007e-01:-2.870471e-01:-2.489797e-01:-1.498195e-02
4.191538e-02:4.852690e-01:1.362205e-01:2.425593e-03:-1.212436e+00:-7.682367e-02:3.267876e-01:1.153915e-01:2.531457e-01:2.712769e-01:-5.576001e-01:-3.059282e-01
1.504552e-01:-9.292938e-01:-3.395756e-01:3.848313e-01:-5.840351e-02:7.237568e-01:6.706707e-01:-8.526660e-01:1.942796e-01:1.471369e-01:2.065965e-01:-2.156182e-01
4.419324e-01:-6.669522e+00:6.506515e-01:-7.080079e-02:2.516094e-01:4.616310e-01:-2.852116e-01:-2.317584e-01:6.433147e-01:5.152933e-02:-2.729456e-01:-2.284579e-01
-1.001484e+00:-3.011953e-01:-4.050147e-01:4.069330e-02:-4.604845e-01:5.794752e-01:-2.953122e-01:1.812937e-01:-5.359137e-01:-5.210617e-01:-9.048456e-01:-1.808623e+00
7.753787e-01:-7.041377e-01:3.785975e-01:1.691801e-01:-3.763646e-01:-1.057818e-02:-5.064652e-01:-3.206836e-01:-9.285566e-01:2.203624e-01:-6.486045e-01:3.793363e-01
-7.123774e-01:2.220378e-01:3.181592e-01:-7.812145e-02:-5.709406e-01:-1.573624e-01:-4.984484e-01:2.815996e-02:-6.509402e-02:-3.364364e-01:-8.824155e-01:-4.284362e-02
-7.043603e-01:-7.395552e-01:1.228538e-01:-6.967743e-01:8.308882e-03:2.390303e-01:-2.494228e-01:-5.407260e-01:-3.086866e-01:-7.927525e-01:7.516963e-01:-1.907963e-01
-5.205950e-01:-3.470486e-01:-2.901392e-01:-2.198520e-02:1.959537e-01:-7.598581e-01:4.007582e-01:-8.535799e-01:-4.466481e-01:-1.101548e-01:-4.685671e-01:-5.979004e-01
-4.026540e-03:-7.631497e-01:-4.699306e-01:-8.578670e-01:-8.053812e-02:6.843362e-02:-7.536829e-02:-1.355171e+00:-3.222896e-01:-3.221138e-01:-9.717227e-01:-6.495908e-01
-2.427230e-02:-4.718605e-01:-5.657589e-01:-3.547646e-01:-1.255663e-01:-7.103180e-01:-4.068964e-01:2.851010e-02:-5.291488e-01:-2.707802e-01:-1.231791e+00:-3.484359e-01
-1.620721e-01:-2.557324e-01:-3.777580e-01:-4.875548e-01:-5.987243e-01:-5.977625e-01:-2.507184e-01:-1.546408e+00:-9.076051e-01:-8.210282e-01:-2.155222e-01:-8.418477e-03
-2.443368e-01:-5.114459e-01:7.932869e-02:-6.177450e-01:1.888654e-01:-7.219968e-01:-1.573663e-01:-5.368091e-01:-6.038482e-01:-5.591719e-01:-3.409569e-01:1.124179e-01
1.241688e+00:-4.871779e-01:8.720687e-01:2.752028e-01:-3.140719e-01:8.705854e-01:6.174989e-01:2.374939e-01:-8.679842e-01:-4.773482e-01:-9.438970e-01:-9.291019e-01
1.870508e-01:1.253110e+00:4.761325e-01:2.542902e-01:-1.866368e+00:3.568156e-01:-7.835507e-01:1.323103e+00:-2.621019e-01:-1.434869e+00:6.420482e-01:-1.906960e-02
2.694338e-01:-1.572783e+00:-8.111336e-01:-2.235330e-01:6.322753e-02:-8.965231e-02:9.027214e-02:-6.649862e+00:-6.655046e+00:-1.582260e-01:-2.064944e-01:-1.989877e-01
4.142733e-02:-3.298040e-01:-1.217898e-01:-2.286313e+00:-3.094601e-01:-5.606790e-01:-4.817659e-01:1.694102e-01:-1.650945e-01:-2.875136e-01:-1.893099e-01:-6.114040e-01
-7.815899e-01:-5.040283e-01:-6.623353e+00:-6.651492e+00:-4.910293e-01:2.097927e-01:2.330415e-01:-3.063605e-01:-1.381634e+00:-3.614333e-01:-3.656227e-01:3.501629e-01
3.097835e-02:-6.611194e-02:5.015392e-02:1.586669e-01:-6.950897e-01:-9.305867e-01:-9.290990e-01:-2.793964e-01:-2.807159e-01:-6.123894e-01:-2.086361e-01:-4.466833e-01
-9.102922e-01:-4.136308e-01:-6.826615e-01:-7.439186e-01:-5.644350e-01:-9.231557e-01:-1.020903e+00:-7.249500e-01:-7.534400e-01:-4.553648e-01:-4.105859e-01:-8.478576e-01
-6.373712e-01:-5.124789e-01:-1.035026e+00:-8.139002e-01:-1.134562e+00:-1.404207e+00:-8.742224e-01:-1.091110e+00:-8.025752e-01:-1.134119e+00:-1.075411e+00:-1.125656e+00
