-7.012981e-01:-1.534881e-02:3.749951e-01:6.869908e-02:2.214945e-01:8.481278e-02:-1.625734e-01:3.728701e-01:-6.124342e-01:5.233702e-02:-2.821224e-02:-3.558294e-01
5.747641e-01:-1.283839e-02:7.790766e-01:2.710546e-01:3.476255e-01:-4.909758e-01:-2.627245e-01:7.810609e-01:-5.572628e-01:-4.511980e-01:-2.059188e-01:1.297116e-02
-7.000353e-01:-1.606948e-02:3.742004e-01:6.764980e-02:2.222537e-01:8.457713e-02:-1.621842e-01:3.719840e-01:-6.114433e-01:5.054276e-02:-2.905967e-02:-3.546697e-01
-7.691151e-02:3.564835e-01:7.681263e-01:8.244079e-01:1.806321e-01:1.546510e-01:-6.287482e-02:1.376739e-01:-8.978835e-01:-9.053059e-01:4.105914e-01:9.150273e-01
6.375547e-02:2.058683e-01:-2.818737e-01:-1.940697e-01:-4.425125e-01:-4.207795e-01:4.967715e-01:-3.647259e-02:-3.831129e-01:2.439543e-01:-4.852616e-01:-5.757291e-01
2.246160e-01:-9.037864e-02:1.475167e-01:-2.453872e-01:-9.823159e-02:-5.208553e-01:-2.466254e-01:-1.107216e+00:7.473120e-03:4.328158e-01:-1.959456e-02:-1.553835e-02
2.941775e-01:3.583975e-01:-4.338071e-01:2.452606e-02:-4.062870e-01:5.602590e-01:-1.812271e-01:-6.758379e-01:-2.132618e-01:2.661316e-01:-5.010597e-01:3.082531e-01
4.863762e-01:2.155438e-01:6.794329e-01:-1.077169e-01:-1.320064e-01:-4.036469e-01:-9.464066e-02:4.580882e-01:3.483165e-01:6.968014e-02:2.007455e-01:2.875810e-01
2.032448e-01:4.525948e-01:1.755809e-01:-6.609076e-02:-7.480044e-01:8.781306e-02:-3.205666e-01:-4.011980e-01:-3.835826e-01:-1.102135e-01:-5.450822e-01:5.414720e-01
1.800572e-01:-6.858487e-02:2.240251e-01:-2.040183e-01:-2.258659e-01:-4.687809e-01:-7.088593e-01:-6.956212e-01:4.577834e-02:1.215202e-01:-1.690491e-01:5.446649e-01
3.582377e-01:1.941983e-01:6.861368e-01:-1.582965e-01:-4.325330e-02:4.395774e-02:-2.608127e-01:3.878188e-01:2.548632e-01:-4.434481e-01:3.023050e-01:5.732037e-01
1.119262e-02:1.420789e-01:2.853532e-01:-3.825569e-01:-2.024527e-01:3.444151e-01:4.055303e-01:4.625521e-01:2.265968e-01:-5.193948e-01:2.306034e-01:4.692274e-01
4.328303e-01:3.359342e-02:1.319500e-02:-3.228879e-01:1.933933e-01:-4.733142e-01:-2.576093e-01:-1.107972e-01:6.193715e-01:5.286608e-01:7.138918e-02:-1.376688e-01
5.236815e-01:1.549037e-01:-1.612758e-01:-7.403072e-02:2.395601e-01:-1.427385e-02:5.785968e-01:1.704287e-01:1.360354e-01:-6.435586e-01:-2.910423e-01:-4.419883e-01
-6.909894e-01:-3.423115e-01:2.557515e-01:-2.415295e-01:-5.452796e-01:1.189954e-02:2.003596e-02:-3.962016e-02:4.245621e-02:-4.862174e-01:4.394194e-01:2.483280e-01
3.303732e-01:4.524538e-01:-4.134766e-01:-5.724636e-02:1.775235e-01:6.082065e-02:2.057210e-01:-3.233865e-01:-1.984698e-01:2.767485e-01:-4.618651e-01:-4.700254e-01
-1.059577e-01:1.960026e-01:-4.298541e-01:-2.617688e-01:-1.601622e-02:-2.178185e-01:5.991670e-01:2.202472e-02:-3.510796e-01:-3.398077e-01:-5.980545e-01:-5.933843e-01
-7.549241e-01:1.935679e-01:-7.567414e-02:-2.390226e-01:2.548902e-01:-5.244452e-01:4.757861e-01:6.853558e-01:2.763959e-01:1.720261e-01:4.082734e-02:-3.335191e-01
-4.667164e-01:-2.189571e-01:-1.712346e-02:4.339891e-01:4.837156e-01:-2.240702e-01:4.881597e-01:6.659451e-01:2.370680e-01:-1.183140e-01:1.921059e-01:-2.004119e-01
-1.227853e-01:3.539467e-01:4.421140e-02:-1.794862e-01:-7.248461e-02:3.955189e-01:4.440015e-01:5.009142e-01:4.289640e-01:2.151972e-01:-5.740832e-02:5.461831e-01
4.055106e-01:4.891977e-04:6.454903e-01:-4.631345e-01:-4.148870e-02:-5.924683e-01:-4.410275e-01:-3.697713e-01:1.893042e-02:-4.642654e-01:4.348386e-01:3.093281e-01
-3.466196e-01:-2.724262e-01:1.511395e-01:5.457464e-01:-1.464042e-02:-5.453664e-01:4.279306e-01:2.468832e-01:8.542333e-02:2.715232e-01:3.783229e-01:-5.075352e-01
-2.855732e-01:-4.549870e-01:-5.336958e-01:2.315951e-01:-1.010827e-01:3.912259e-02:5.484520e-01:1.647787e-01:-3.854800e-01:-1.741846e-01:-1.499654e-01:-3.120022e-01
-2.743295e-01:-2.145071e-01:-1.505233e-01:-1.810011e-01:2.378264e-01:1.042492e-02:-8.006944e-01:-4.862231e-01:3.415391e-01:-1.307670e-01:-2.125603e-01:-2.415783e-01
-3.401875e-01:-4.433690e-01:-2.454286e-01:-2.557311e-01:-5.049043e-01:-1.181694e-01:2.489267e-01:1.345481e-01:-3.136804e-01:-3.101598e-02:-2.374886e-01:-7.320890e-01
-5.412158e-01:-3.657579e-01:-2.985385e-01:4.236853e-01:6.105911e-01:5.341933e-01:-5.355069e-02:-8.097178e-02:1.742701e-01:-4.077742e-01:1.290901e-01:1.241816e-01
-2.746863e-01:1.894327e-01:-3.194716e-01:4.947165e-01:4.625401e-01:5.672216e-01:-6.502573e-01:-5.271959e-01:1.744584e-01:-2.614751e-01:-2.628234e-02:3.915015e-01
-9.725554e-02:-4.124799e-01:2.641608e-01:-3.077648e-01:-2.257501e-01:-7.604089e-01:-3.599552e-01:-3.081810e-01:1.707435e-01:3.516077e-01:2.847871e-01:-2.158883e-01
6.667510e-02:4.568036e-01:2.762268e-01:-3.291722e-01:-4.280719e-01:1.520441e-01:-5.391631e-02:3.111611e-01:2.999936e-01:-1.882169e-02:-7.378413e-02:8.273808e-01
5.164238e-01:2.432210e-01:-4.860764e-01:4.014769e-03:1.394829e-01:-2.166236e-01:5.741993e-01:-8.581949e-02:-4.824068e-01:3.058310e-01:-1.854322e-01:-2.688933e-01
-4.686604e-02:-2.413551e-01:3.320780e-01:-8.057579e-02:-8.672078e-02:-9.531573e-02:-6.699141e-01:2.882923e-01:4.438641e-01:-1.817044e-01:3.744540e-01:5.832649e-01
1.954397e-01:5.130653e-01:-9.871875e-02:-5.395941e-02:-9.196277e-02:4.343772e-01:-1.686043e-01:1.236026e-01:3.164541e-01:1.219084e-01:-4.723136e-01:4.644797e-01
-4.267975e-01:-1.511404e-01:9.003444e-02:-2.155570e-01:-3.744056e-01:-3.469948e-01:-5.431327e-01:-2.959816e-02:4.540067e-01:4.515442e-01:-1.544659e-01:5.038757e-01
-3.715432e-01:8.539304e-02:5.557193e-01:-1.640064e-01:-6.074492e-01:-2.635419e-01:-1.848215e-01:2.277717e-01:1.606286e-01:-3.703280e-03:3.501329e-01:7.140831e-01
-1.513990e-01:-3.360266e-01:-5.585725e-01:6.084349e-03:-1.750918e-01:-1.910645e-01:4.691420e-01:-3.070856e-01:-5.085495e-01:5.025151e-01:-1.934657e-01:-8.325408e-02
-7.895127e-02:1.508184e-01:2.979277e-01:-4.681897e-01:-5.550995e-01:1.152035e-01:-1.494814e-01:2.132228e-01:-2.366493e-01:-6.340355e-01:-8.814029e-02:2.545816e-01
-1.075839e-01:2.371007e-02:1.636934e-01:4.663921e-01:6.520713e-01:2.513200e-01:1.107331e-01:5.969954e-01:3.462865e-01:-3.295852e-01:2.694739e-01:-2.017032e-01
-3.818699e-01:1.762557e-01:-1.457654e-01:-2.983706e-01:-5.896470e-01:2.451967e-01:1.586437e-01:-1.004597e-01:2.293242e-01:3.745109e-01:-4.105900e-01:3.179317e-01
-2.601763e-01:-5.614288e-01:-1.262026e-01:-1.620055e-01:2.248808e-01:-4.922877e-01:-3.145939e-01:-7.248789e-01:3.082351e-02:3.337423e-01:-3.079800e-02:-4.606810e-01
-3.768940e-01:-2.692933e-01:4.504033e-01:-2.681773e-01:-4.891065e-01:-5.824328e-01:-4.577754e-01:-1.462470e-01:-1.198555e-01:-4.233690e-01:2.079424e-01:-8.669486e-02
5.241315e-01:-4.500533e-01:-2.932575e-01:9.100246e-02:-5.405188e-02:2.313344e-01:-4.788309e-02:-4.393213e-01:-5.968281e-01:-3.259974e-01:2.166591e-01:-4.719009e-01
2.971513e-01:2.246447e-01:-7.183499e-02:1.788650e-01:-3.197771e-01:-3.194399e-01:7.235251e-01:3.054863e-01:-1.086003e-01:-1.360794e-01:-1.202569e-01:-4.532169e-01
6.927944e-01:3.476361e-01:-2.050105e-01:-8.281721e-02:9.748215e-02:-1.738124e-01:1.541649e-01:-4.898526e-01:-3.850002e-01:-2.011264e-01:3.332933e-02:-7.266485e-01
-6.108799e-01:-2.863135e-01:1.212578e-01:-3.942263e-01:-2.673718e-01:-4.599023e-02:-5.806515e-01:-5.418610e-01:-1.509868e-01:-8.324642e-01:1.397309e-01:-1.690012e-01
-6.477975e-02:2.210411e-01:-5.378792e-01:4.132904e-01:6.416039e-01:1.381000e-01:-3.110975e-01:-6.740617e-01:1.038344e-01:2.130557e-01:-1.538518e-01:-2.979245e-01
4.456567e-01:-1.223012e-01:2.752060e-01:-5.623786e-01:3.390596e-01:-1.215289e-01:2.792983e-01:-2.109635e-01:3.592532e-01:7.067341e-01:-3.864557e-01:-2.991668e-01
-5.331873e-01:1.262731e-01:-2.702526e-01:3.117711e-01:1.804105e-01:-1.290877e-01:7.618653e-01:3.356434e-01:-1.220332e-01:1.795076e-01:-3.426597e-01:4.350983e-01
-2.896442e-01:7.721557e-02:-3.678671e-01:-2.900908e-01:-3.960292e-01:-1.164369e-01:1.575482e-01:-1.865598e-01:-2.963172e-02:4.017322e-01:-5.795103e-01:-5.382720e-01
-1.074905e-02:8.137428e-01:-4.294420e-01:-9.520185e-01:-1.304546e-01:-2.691852e-01:-3.193167e-01:3.708627e-01:-3.193724e-01:-6.981315e-01:4.094332e-01:1.511468e-01
3.902665e-01:4.623016e-01:5.123262e-02:-9.622806e-02:-1.456138e-01:5.551775e-01:-3.367029e-01:-1.778956e-01:-2.326596e-01:-5.296631e-01:-2.984072e-01:7.197761e-01
-3.304609e-01:6.992558e-02:-1.703072e-01:1.902146e-01:-2.813805e-01:3.740420e-01:5.035193e-01:2.774439e-01:-2.902136e-01:4.053988e-01:-6.519911e-01:3.696778e-01
1.068783e-01:3.798750e-01:-1.793799e-01:2.757596e-01:4.786059e-01:1.309731e-01:5.810191e-01:4.630088e-01:9.906197e-02:-1.691815e-01:-3.831901e-01:3.449767e-01
-6.701404e-01:-4.767750e-01:-3.811169e-01:-1.905189e-02:2.171373e-01:2.082652e-02:-6.355312e-02:-5.743890e-01:3.847773e-01:3.646786e-01:3.387179e-03:2.808192e-01
2.004300e-01:-1.821500e-01:5.845765e-01:-2.488085e-01:-1.703602e-01:-1.605411e-01:2.168843e-01:6.528181e-01:2.289560e-01:-4.736661e-01:3.844976e-01:1.349429e-01
1.089698e-01:1.843682e-02:-2.911978e-03:-4.187097e-01:-6.719806e-01:-8.349375e-02:-2.194801e-02:-1.585260e-01:-6.830617e-01:1.118477e-01:-3.619745e-01:-4.613808e-01
8.314629e-02:4.014434e-01:-1.131013e-01:3.827586e-02:-4.425881e-02:6.743869e-01:1.287976e-01:-1.530019e-02:-6.557004e-01:1.123846e-01:-3.973576e-01:4.280069e-01
-8.110458e-01:-3.519070e-01:-3.905837e-01:-5.633240e-02:-3.345426e-01:2.677702e-01:2.697913e-01:-6.435262e-02:-2.527017e-01:-4.806985e-01:2.605044e-01:-4.520682e-01
-3.804742e-01:-1.904754e-01:-2.667319e-01:3.620906e-01:1.012629e-01:3.246487e-01:6.834111e-01:4.553156e-01:-1.250027e-01:-3.591180e-01:-8.973781e-02:3.722603e-01
-1.083420e-01:-3.819061e-02:-1.352575e-01:4.308855e-01:4.563874e-01:-1.347791e-03:-2.687991e-01:-3.732095e-01:4.806032e-01:5.928000e-01:2.888438e-01:2.635905e-01
-2.324699e-01:-4.847789e-01:5.463990e-01:4.842654e-01:-2.558297e-02:-3.934032e-02:1.198084e-01:4.627003e-01:8.000042e-02:-1.082254e-01:6.828222e-01:1.219809e-01
5.574715e-01:1.227278e-01:3.109799e-02:-2.234447e-01:-1.293756e-01:-2.323256e-01:6.964473e-02:-1.076486e-01:-3.530230e-01:-7.772236e-01:-2.982707e-01:-8.808413e-01
-6.415857e-02:-4.171804e-01:3.513331e-01:1.314265e-02:4.002713e-02:2.134638e-01:-4.273789e-01:1.813172e-01:-1.244487e-01:-6.258287e-01:5.243011e-01:3.182436e-01
4.843170e-01:3.825268e-02:-8.480148e-02:-2.681470e-01:-3.052383e-01:-6.580004e-02:-4.119054e-01:-4.300697e-01:-4.278515e-01:-2.596674e-01:-5.339141e-01:-6.725957e-01
2.354613e-01:-1.094116e-01:-5.398161e-01:9.010457e-02:2.747655e-01:-2.715718e-01:3.625464e-01:-3.693461e-01:-3.857071e-01:-3.382884e-01:-1.347433e-02:-7.814001e-01
1.716443e-02:-2.154224e-01:2.839366e-01:-5.313730e-01:3.740918e-01:3.126185e-01:2.884116e-01:3.099017e-02:-7.191694e-01:-3.092314e-01:-9.649178e-02:2.743361e-01
-1.592113e-01:1.131637e-01:5.406297e-01:3.128636e-01:5.400955e-02:2.722793e-03:1.242521e-01:9.407263e-01:4.828334e-01:-1.998931e-02:4.024701e-01:9.746712e-02
-2.069072e-01:2.139234e-01:-5.541972e-02:4.101365e-01:6.356927e-01:-3.285152e-01:2.051973e-01:3.751332e-01:3.129094e-01:1.880915e-01:1.898555e-02:-3.943308e-01
-6.303497e-01:-1.895303e-01:-2.215442e-01:-3.954619e-01:-3.896932e-01:3.207599e-01:3.766546e-01:7.076564e-02:1.454454e-01:-2.055992e-01:-2.055530e-01:-1.236247e-01
7.156309e-01:-1.362134e-01:-1.152145e-01:6.152999e-01:2.671846e-01:5.110282e-01:2.747281e-01:2.009581e-01:-6.124291e-01:-1.711999e-01:8.860106e-03:5.233034e-02
2.483291e-01:-1.876321e-01:5.888807e-01:-4.663974e-01:-2.186306e-01:-6.751449e-01:-4.233689e-01:-4.171166e-01:-2.240648e-01:-1.528570e-01:-2.465578e-01:-1.817006e-01
-6.777348e-02:-3.073550e-02:-3.825716e-02:9.437327e-02:1.877090e-02:5.685492e-01:-6.907009e-02:1.254342e-01:-5.755455e-01:-8.384448e-01:-5.886675e-01:2.636544e-01
-2.918605e-01:-3.943581e-01:4.937208e-02:5.817241e-01:7.903279e-01:-1.121807e-01:4.761541e-01:-1.389426e-01:-1.590780e-01:-2.815000e-01:4.067604e-01:8.793716e-02
-3.970962e-01:-1.082785e-01:9.072850e-02:-4.499210e-01:-5.285091e-01:1.233255e-01:-1.950496e-01:1.565690e-01:3.059391e-01:-1.711773e-02:-3.612185e-01:9.425972e-02
3.491738e-02:4.445294e-01:-1.353300e-01:-9.350509e-02:-2.203325e-01:1.115488e-01:-7.156572e-01:-2.818809e-01:1.938957e-01:-3.462534e-02:-5.143898e-01:3.749659e-01
3.595796e-01:-1.785620e-02:-2.026826e-01:7.387470e-01:1.315953e-01:2.382383e-02:7.550038e-01:4.839382e-01:-2.847376e-01:4.804629e-01:-1.390176e-01:3.578911e-01
-1.305340e-01:3.412612e-01:-4.243290e-01:4.600054e-02:4.777232e-01:3.334144e-01:1.388630e-01:-7.786501e-02:-2.900577e-01:4.064824e-02:-6.744536e-01:8.291275e-04
3.409579e-01:-1.494306e-01:-3.329896e-01:-8.453884e-02:-5.335523e-01:4.111604e-02:4.965450e-01:3.298676e-02:-6.015915e-01:3.218890e-01:-3.626837e-02:-2.802188e-01
-3.432850e-01:3.763591e-01:-2.310640e-01:-2.905709e-01:3.016650e-02:8.209155e-02:1.869320e-01:2.154637e-01:3.550363e-01:3.709743e-01:-4.884542e-01:-1.284296e-01
-3.285973e-01:7.590824e-02:-5.952555e-02:4.790649e-01:6.519586e-01:3.721609e-01:4.329929e-02:3.070273e-01:4.346687e-01:4.585309e-02:7.693131e-02:2.398745e-01
6.307287e-01:-2.038707e-01:1.212131e-01:4.730814e-01:6.616382e-01:2.391450e-01:7.183830e-02:3.513301e-02:1.912289e-01:-2.236602e-01:6.121468e-01:-5.323483e-02
-7.961089e-01:-3.371260e-01:-3.814387e-02:6.419695e-02:1.819320e-01:9.797373e-02:-3.509520e-01:3.101700e-01:4.878855e-01:2.449942e-01:6.966992e-02:-1.012524e-01
-2.149871e-01:-4.870251e-01:4.515001e-01:-2.031957e-02:-2.217623e-01:-1.885432e-01:-4.161305e-02:1.742882e-01:-2.454057e-01:-7.437990e-01:1.130960e-01:-5.281491e-01
-5.461417e-01:-1.383781e-01:2.711368e-01:3.710427e-01:2.950520e-01:-6.664986e-01:-1.131526e-03:-1.496486e-01:1.064647e-01:5.607778e-01:2.879238e-01:-2.909586e-01
-3.662902e-01:1.866639e-01:-1.560017e-01:-3.334204e-01:-2.990018e-01:4.194583e-01:7.578515e-02:1.091385e-01:2.773473e-01:-5.035343e-02:-5.598586e-01:-2.625879e-02
5.778869e-01:-4.867495e-01:3.178822e-01:8.543029e-02:4.317569e-01:4.248743e-01:3.998321e-02:4.369329e-01:-2.449615e-02:-5.827104e-01:1.001476e-01:1.807896e-02
-6.988208e-01:-1.677448e-02:3.734234e-01:6.666227e-02:2.229835e-01:8.433823e-02:-1.617781e-01:3.711396e-01:-6.105080e-01:4.881259e-02:-2.987930e-02:-3.535655e-01
-3.772164e-01:-1.922294e-01:1.342649e-01:-3.499336e-01:-3.072431e-01:3.205188e-01:1.335942e-01:2.943325e-01:-1.716654e-01:-6.900997e-01:2.027873e-01:-4.207753e-02
-5.822924e-02:-3.720974e-01:4.864558e-01:2.092451e-01:-3.450229e-01:-3.318893e-01:3.826832e-01:4.541825e-01:-9.722950e-02:-2.112916e-01:2.923795e-01:-3.999193e-01
-1.875045e-01:-1.090945e-01:4.116527e-01:2.004504e-01:4.325786e-01:3.150750e-01:-2.179885e-01:5.585113e-01:2.896566e-01:-4.880535e-01:5.023970e-01:3.426329e-01
-7.331808e-01:2.221022e-01:3.777502e-01:-3.182854e-01:-5.216388e-01:-5.456253e-01:-4.174556e-01:-4.649845e-01:-2.786612e-01:2.354625e-02:-3.668984e-01:-1.999997e-01
-4.598730e-01:-5.782662e-02:-3.184270e-01:-2.175467e-01:-5.345191e-03:4.719976e-01:3.486664e-01:2.395706e-01:2.579925e-01:-2.480854e-01:-4.399062e-01:-6.545349e-02
6.080573e-01:4.703971e-01:-1.163153e-01:6.096764e-01:4.413862e-01:-9.407951e-03:5.128685e-01:2.885577e-01:-3.006538e-01:-1.174849e-02:-2.216737e-01:3.304708e-02
-7.283207e-01:-5.553764e-01:-3.125659e-01:1.713898e-01:4.453881e-01:-1.929907e-01:1.979805e-02:-3.115339e-02:-1.427779e-02:-2.922052e-01:5.740676e-02:-6.085930e-01
2.137828e-01:-1.094853e-01:7.847505e-01:1.177038e-01:1.157534e-01:-1.589796e-01:-2.588455e-01:2.124820e-01:-2.307238e-01:-7.557468e-01:3.987263e-01:-1.904099e-01
2.468216e-01:-8.937874e-02:-5.054806e-01:-1.434603e-01:-1.149172e-01:-1.748190e-01:2.643275e-02:-7.171519e-01:-5.370236e-01:2.202189e-01:-1.040817e-01:-6.996228e-01
-4.463758e-01:-2.394206e-01:-4.514230e-02:3.040910e-01:6.963967e-01:-3.462408e-01:1.654641e-01:-3.648730e-02:2.231225e-01:6.233578e-02:5.521791e-01:-3.199378e-01
2.775658e-01:2.812994e-01:3.167862e-01:-2.427549e-01:4.957520e-01:1.991508e-01:-2.313930e-01:5.183188e-01:3.210813e-01:-1.367509e-01:-1.227922e-01:5.739189e-01
1.850602e-01:2.341696e-01:5.798147e-01:4.173969e-01:4.778932e-01:2.882957e-01:-4.910428e-01:3.324153e-01:2.153664e-01:-3.861385e-01:2.185918e-01:1.703864e-01
9.932213e-02:5.904894e-01:1.784030e-01:1.652628e-01:5.956448e-02:4.910763e-01:5.190672e-01:5.583059e-01:-3.193040e-01:6.180946e-02:-2.035327e-01:5.928759e-01
-2.631766e-01:-5.000588e-01:-5.237544e-01:4.545700e-01:2.625336e-01:2.353962e-01:4.061706e-01:5.222398e-02:-5.906703e-01:1.854263e-01:-1.275622e-01:3.636594e-01
-9.185157e-01:-2.130410e-01:1.111991e-01:-3.070710e-01:-3.848010e-01:-2.557103e-01:-6.445585e-01:-1.200076e-01:1.468749e-01:-2.771795e-01:-3.857340e-02:-9.459094e-03
-5.971326e-01:-2.689905e-01:-1.863399e-01:4.605878e-03:4.635755e-01:7.642543e-02:3.776905e-01:3.769487e-01:-3.094925e-02:-4.767716e-01:-2.538027e-01:-5.319404e-01
-2.591812e-02:-2.287950e-02:-3.322638e-01:-1.616390e-01:-4.181674e-01:1.506578e-01:-4.026915e-01:-7.200149e-01:-1.192346e-01:2.254268e-01:-3.199554e-01:-3.009668e-01
-2.571203e-01:-3.710891e-02:2.609843e-01:-4.497822e-02:-9.364652e-03:1.039605e-01:-7.428890e-01:-9.038150e-01:-3.801783e-01:-5.525122e-01:-4.327643e-01:1.049586e-02
-1.662408e-01:2.150918e-01:-1.808528e-01:-1.895414e-01:4.669418e-02:5.994972e-01:-3.270652e-01:-7.273518e-02:1.213666e-01:-5.031799e-01:-5.316642e-01:2.899321e-02
-3.122082e-01:-1.734507e-03:6.200374e-02:-3.589602e-01:-4.052641e-01:4.453417e-01:1.062547e-01:1.861274e-01:1.112314e-01:-5.032200e-01:-3.564682e-01:1.233208e-01
2.402899e-01:2.425575e-01:-1.936523e-02:2.737846e-01:-6.476379e-02:3.370636e-01:6.473296e-01:6.354058e-01:-3.291401e-02:-5.815257e-01:5.227802e-02:1.879089e-01
-5.047711e-01:6.840791e-01:-4.480317e-01:2.357879e-01:-3.492210e-01:-1.240449e-01:-9.619007e-02:-6.419845e-01:6.656788e-02:6.447897e-01:-1.969607e-01:-1.003059e-02
-8.904951e-01:-2.927338e-01:1.382409e-01:-1.146485e-01:-3.262734e-01:1.112724e-01:5.059340e-01:2.284366e-01:-2.201780e-01:1.239461e-01:1.364078e-01:1.565460e-01
4.768857e-01:5.572866e-01:1.534681e-01:3.361115e-01:-1.105341e-01:-2.660619e-02:6.947281e-01:7.180092e-01:-3.519873e-02:3.900787e-02:-3.579422e-02:2.639135e-01
-4.274346e-01:-2.909845e-01:-2.258016e-01:-3.478897e-01:4.725473e-02:5.089927e-01:2.484087e-01:1.851679e-01:1.061972e-01:-5.861412e-01:-1.265783e-01:-1.748065e-01
5.308418e-02:-4.427649e-01:3.552960e-01:5.777510e-02:4.179222e-01:-5.022739e-01:-3.765382e-01:1.428370e-01:1.253764e-01:-1.246104e-01:1.706316e-01:-7.614430e-01
2.435764e-01:2.952776e-01:9.014850e-02:4.719749e-01:6.645930e-01:2.632577e-01:-3.538436e-01:-3.690593e-01:1.550824e-01:1.629963e-01:3.916916e-01:3.745986e-01
-4.736041e-01:2.190726e-01:-4.602423e-01:3.196280e-02:3.938258e-02:-1.803881e-01:4.131015e-01:5.659822e-02:-5.663779e-01:6.330555e-01:-4.345716e-01:3.040948e-01
4.289832e-01:1.623136e-01:1.760741e-01:2.268644e-01:-1.112317e-01:2.075338e-01:2.084531e-01:1.476810e-01:-4.342895e-01:-9.193633e-01:-9.064243e-02:-4.193429e-01
8.600231e-02:9.683228e-02:-6.210948e-02:-1.298369e-01:2.769594e-01:-4.274099e-01:-6.516389e-01:-4.727195e-01:1.865155e-01:1.887251e-01:-2.371428e-01:-5.412039e-01
-1.881628e-02:1.871255e-01:7.170728e-02:-1.804070e-01:-2.582949e-01:6.170997e-01:6.744070e-03:1.867508e-01:1.612860e-01:-4.887333e-01:-4.096729e-01:3.952738e-01
-3.828935e-02:-3.648276e-01:-5.446781e-01:-2.108907e-02:4.234123e-01:3.863845e-01:1.920785e-01:-2.010031e-01:-2.984280e-01:-2.261221e-01:-6.592188e-01:-2.791515e-01
-4.756921e-01:3.274755e-01:1.972575e-01:3.405657e-01:-1.252368e-01:-1.845775e-01:-8.800456e-02:3.651176e-01:4.480111e-01:8.149710e-01:7.478523e-02:3.346733e-01
-3.337083e-01:-2.696322e-01:-2.317185e-02:-5.946187e-01:2.070293e-03:3.881271e-01:-2.993212e-01:-1.170216e-01:-1.322992e-01:-5.600997e-01:1.854240e-01:3.791017e-01
5.301437e-01:5.432695e-01:2.167961e-01:-1.175478e-01:6.893595e-02:4.803590e-01:9.788853e-02:4.218203e-01:1.596138e-01:-3.545058e-01:-9.465911e-03:6.535506e-01
-4.908206e-02:4.403615e-02:-3.925284e-01:3.488573e-01:6.007524e-01:-5.442506e-02:4.835965e-01:8.284503e-02:-5.041733e-01:3.597843e-01:-3.613591e-01:3.700071e-01
-1.734174e-02:2.629499e-01:-4.061416e-01:-1.497913e-01:2.352336e-01:3.123504e-01:4.771827e-02:-4.361926e-02:1.474003e-01:1.105103e-01:-6.905732e-01:-4.729233e-01
2.550668e-01:1.003114e-01:1.120834e-01:-7.432787e-04:4.096498e-01:-2.522704e-01:-6.517616e-01:-7.210906e-01:-1.210558e-01:-7.446653e-02:4.522811e-03:-3.854397e-01
-1.349852e-01:-2.489732e-01:-8.257791e-02:3.635195e-01:-4.661507e-01:3.481425e-01:5.691916e-01:5.539117e-01:-3.402334e-01:-8.656111e-02:8.359849e-02:1.222990e-01
-1.229594e-01:-5.997066e-01:5.584702e-02:1.577994e-01:2.399792e-01:-2.206582e-01:1.687481e-02:-5.708218e-02:-1.148855e-01:-6.567884e-01:3.826739e-01:-5.907225e-01
1.641016e-01:-2.356566e-01:-2.349541e-01:5.874887e-01:2.730571e-01:3.424342e-01:3.990526e-01:3.170051e-01:-3.342852e-01:-6.635246e-01:-8.068932e-02:-2.111102e-01
3.003499e-01:-1.527711e-01:-4.200713e-01:2.626143e-01:3.786103e-01:2.736178e-03:3.773585e-01:-9.147277e-02:-6.309248e-01:-5.479497e-01:-3.709847e-01:-3.368301e-01
-1.514090e-01:3.790770e-01:-1.023244e-01:-1.265312e-01:1.616454e-01:4.626608e-01:2.704715e-01:3.063665e-01:2.284001e-01:-9.334688e-02:-5.035700e-01:6.436308e-02
-7.483872e-01:-4.222800e-01:-6.836241e-02:-5.325259e-02:-3.201067e-02:4.025016e-01:3.898745e-02:9.418853e-02:3.156639e-01:-6.507391e-02:4.713244e-01:4.454791e-01
-7.442144e-01:-2.610052e-01:-4.955012e-01:1.225464e-02:8.231099e-02:-4.877657e-01:5.663463e-01:1.097333e-01:-6.560244e-02:-1.424967e-01:9.125981e-02:-5.414700e-01
-4.876191e-01:-1.197265e-01:-2.895145e-01:-2.168884e-01:-1.562975e-01:4.161424e-01:-4.258314e-03:-1.458235e-01:-2.432157e-01:-3.030810e-01:-6.559335e-01:-5.530243e-01
-3.218206e-01:8.282148e-01:-2.795381e-01:-1.224215e-01:2.364167e-01:1.244468e-01:2.949905e-01:-7.111170e-02:-3.658401e-01:3.431813e-01:-4.376189e-01:2.544192e-01
1.106604e-01:3.905284e-02:2.328770e-01:-7.315776e-01:4.605602e-01:-3.658962e-01:-4.826421e-01:-7.476313e-02:3.582792e-01:7.952381e-02:-3.186674e-01:1.464030e-01
-4.763641e-01:-2.673716e-01:3.691007e-01:1.194551e-01:3.896538e-02:2.737670e-01:5.914544e-02:4.381357e-01:1.596370e-01:-5.945867e-01:4.205413e-01:-7.790739e-02
-2.007401e-02:3.803346e-01:-3.605670e-02:-1.110001e-01:-4.496716e-01:-2.007757e-01:-2.263143e-01:-3.216501e-01:6.820366e-02:4.867592e-01:-5.826534e-01:6.322662e-02
-5.243531e-01:-3.541611e-01:-5.699372e-02:1.437105e-01:3.400840e-01:4.008163e-01:-4.555205e-01:-6.683103e-02:1.832607e-01:-3.057712e-01:4.809414e-01:3.626952e-01
-5.499141e-01:-4.318566e-01:-3.193491e-02:-1.374931e-01:3.559359e-01:3.344986e-01:-4.015428e-01:-3.815995e-01:1.465497e-01:-5.124526e-01:-3.461032e-01:-4.150493e-01
4.703552e-01:-2.220459e-01:-1.582094e-01:4.804702e-01:-1.620585e-01:5.735567e-01:3.116415e-01:1.725523e-01:-6.573251e-01:4.175644e-01:7.366885e-02:4.245609e-01
-9.446903e-02:-1.281980e-02:3.648653e-01:1.201267e-01:-1.066305e-02:-4.073453e-01:-9.831956e-02:6.110302e-01:4.173982e-01:4.610505e-01:4.946204e-01:-2.022958e-02
1.104255e-01:-2.262839e-01:-3.199837e-01:-2.422012e-02:-3.094025e-02:5.148863e-01:-2.296427e-01:-7.451327e-01:-5.394251e-01:-3.114527e-01:-4.533612e-01:-4.296447e-01
1.416385e-01:7.379619e-02:3.633957e-01:-3.185852e-01:4.629920e-01:3.504359e-02:4.873722e-01:7.075216e-03:-5.386705e-01:-5.859652e-01:-5.183537e-01:-8.400095e-02
-8.104677e-01:1.203323e-01:-5.121193e-02:6.099075e-01:7.842131e-01:-2.488759e-01:2.703286e-02:-6.193317e-02:-1.440720e-01:-3.765970e-01:-8.236905e-02:-4.750744e-01
2.000450e-02:-2.205745e-01:2.843410e-01:-2.568780e-01:9.307440e-02:1.643724e-01:-6.579161e-01:-4.066379e-01:-1.448114e-01:-7.759982e-01:-2.538108e-02:6.516341e-02
-3.116223e-01:-4.676873e-01:-2.694096e-01:3.791092e-01:4.318181e-01:4.075502e-01:3.154986e-01:3.167033e-01:1.936000e-01:-2.040990e-01:4.623715e-01:9.934954e-03
8.701348e-02:-1.657061e-01:5.747216e-01:2.689671e-01:3.879715e-01:-2.779428e-01:3.054554e-01:6.484693e-01:1.438423e-01:-4.674068e-01:3.827722e-01:-2.764424e-01
-3.625126e-01:-1.558193e-01:-1.888695e-01:-4.789753e-03:6.521980e-01:-5.164654e-01:-3.881351e-01:-5.875300e-01:-4.362518e-02:1.221915e-01:3.479587e-01:-3.841644e-01
7.140554e-01:-7.992951e-02:-2.195976e-02:1.681817e-01:-1.663397e-01:4.397324e-01:-3.554670e-01:-1.052219e-01:-6.816618e-01:-4.348294e-01:-2.746325e-01:-6.636960e-02
5.204113e-01:2.677465e-01:-2.535523e-02:6.469983e-01:3.058840e-01:5.570439e-01:1.320859e-01:5.505009e-01:-2.559890e-01:1.366564e-01:-5.123660e-01:1.868508e-01
-1.771018e-01:3.249025e-01:6.633654e-02:-3.905584e-01:-3.687655e-01:3.804808e-01:-2.461694e-01:1.168828e-01:1.474323e-01:-4.144769e-01:-3.798054e-01:3.695124e-01
-2.759417e-01:-4.782539e-01:-3.712639e-01:-5.361558e-01:-3.239584e-01:1.620639e-01:3.370835e-01:9.121173e-03:1.318320e-01:1.766497e-01:-3.919724e-01:-4.292720e-01
-3.069480e-01:3.468252e-01:3.422195e-02:1.151194e-01:-4.627685e-01:4.981066e-01:-2.784564e-01:-2.045597e-01:-6.041177e-01:-5.424862e-01:-6.697924e-01:-4.358184e-01
-7.684427e-01:-4.062271e-01:-2.902623e-01:-1.106240e-02:2.685599e-01:-3.059086e-01:-1.528201e-01:-2.521130e-01:2.482046e-01:1.505534e-01:1.115628e-01:-6.316319e-01
2.133557e-01:4.633951e-02:-3.983766e-01:-2.555264e-01:-8.603913e-02:3.085577e-01:-2.588813e-01:-3.430336e-01:1.256294e-01:1.464788e-01:-6.127803e-01:-5.315915e-01
-7.512825e-01:-5.707811e-01:-2.607534e-01:-5.537758e-01:4.176322e-02:-8.516179e-02:-2.992936e-01:-1.499647e-01:2.910360e-01:-2.777719e-01:-1.432457e-01:-5.673584e-01
-9.614693e-01:-1.947607e-01:-1.519310e-01:-2.204159e-02:-1.886685e-01:1.114546e-01:-6.406235e-01:-3.290091e-01:1.182885e-01:-1.890267e-01:-2.170019e-01:4.882809e-03
-7.420584e-01:-1.531972e-01:2.411176e-01:2.001744e-03:-5.634784e-02:-5.611145e-01:-3.591588e-01:7.132886e-02:2.868362e-01:4.983114e-01:-2.119399e-01:-3.335305e-01
9.111463e-02:-3.324099e-01:-2.987774e-02:1.241712e-01:-2.316547e-01:2.661361e-01:1.734641e-01:3.619485e-01:-2.371773e-01:-7.455777e-01:3.233668e-02:-5.332274e-01
-6.407093e-01:-6.287074e-01:-6.264880e-02:-5.991487e-01:1.381858e-01:-2.835263e-02:-2.096194e-01:-5.316572e-01:-8.417860e-02:-6.717056e-01:1.003179e-01:-4.733674e-01
-1.537575e-01:-5.345078e-01:4.913762e-03:-2.016068e-01:3.187210e-01:9.531745e-02:-5.107231e-01:-1.720301e-01:8.337501e-02:1.432649e-01:1.084808e-02:4.389193e-02
-3.859344e-01:-5.558799e-01:2.663988e-01:1.235508e-01:3.831317e-01:3.037737e-02:1.608164e-01:3.442692e-01:1.334122e-01:-5.137492e-01:2.716651e-01:-3.156310e-01
-8.493083e-01:1.724531e-01:1.509808e-01:1.291698e-02:-1.838722e-01:-2.084712e-01:2.877720e-01:2.355224e-01:7.978746e-02:6.403022e-01:-2.004657e-01:-3.870748e-02
1.738613e-01:1.431102e-01:-5.349505e-01:-4.329170e-02:1.246889e-01:2.874621e-01:-3.269228e-01:-4.447385e-01:1.630626e-01:4.276869e-01:-4.038252e-01:-1.315906e-01
-2.884393e-01:-3.961239e-01:-6.410818e-01:-3.122076e-01:5.713026e-01:-4.775417e-01:3.601443e-01:-3.359166e-01:-2.762477e-01:1.663395e-01:2.190074e-01:-3.710004e-01
9.138862e-02:-1.544342e-01:-6.280685e-01:-1.426557e-01:1.912358e-01:3.224072e-01:-2.577879e-02:-5.815266e-01:-4.428661e-01:3.032706e-01:-5.200288e-01:-2.823205e-01
-4.856770e-03:1.645033e-01:2.496977e-01:-3.373339e-01:3.966027e-01:2.964506e-01:-5.480118e-01:-3.554672e-02:2.748789e-01:-4.278165e-01:-1.311359e-01:4.271006e-01
-2.664918e-01:1.994963e-01:-4.444030e-02:-7.776429e-02:2.194951e-01:4.056362e-01:3.730305e-01:5.423132e-01:-1.149790e-01:-4.851332e-01:-4.934901e-01:5.356116e-01
2.495580e-01:-2.343535e-01:2.617768e-01:-3.615566e-01:-5.652512e-01:-2.045785e-01:-1.245195e-01:1.895290e-01:-3.927069e-01:-5.045960e-01:-1.353960e-01:-3.987560e-01
5.494167e-01:1.143207e-01:1.187998e-01:-4.618842e-01:-3.888094e-01:-2.712156e-01:-1.466247e-01:-4.898676e-01:-4.933044e-01:2.087207e-01:-4.513770e-02:-2.477416e-01
-5.535213e-01:-1.045410e-01:-1.326185e-02:-5.429405e-01:-4.692374e-01:2.341297e-01:-1.245616e-01:-1.108259e-01:-2.751798e-02:-5.001342e-01:-3.530327e-01:-1.874360e-01
-5.557442e-01:-2.688816e-01:1.421696e-01:-2.343913e-01:2.613966e-01:3.210279e-01:-3.603081e-01:4.212568e-01:4.867675e-01:-3.337307e-01:3.696801e-02:3.526638e-01
-7.425491e-01:-2.114934e-01:5.802571e-01:4.003225e-01:-3.056520e-03:3.957608e-03:9.448583e-02:3.910625e-01:3.150162e-01:5.567303e-01:3.097021e-01:4.301846e-01
1.471683e-01:4.781100e-01:5.034224e-01:2.961565e-01:4.221389e-01:1.488303e-01:6.902008e-02:5.552115e-01:2.736048e-01:1.507872e-02:-1.442164e-01:-1.040311e-01
-1.686062e-01:1.122811e-01:2.326647e-01:3.324847e-01:5.269603e-01:6.477202e-01:8.718196e-02:4.054328e-01:1.984194e-01:-4.376568e-01:1.059431e-01:1.177972e-01
-5.034021e-01:1.815429e-01:2.639538e-01:-8.008519e-02:-9.427385e-02:3.960878e-02:-7.302440e-01:3.136539e-01:2.865013e-01:-4.450874e-02:-3.020684e-01:5.097064e-01
-7.791852e-02:7.452671e-02:3.350953e-01:-1.526975e-01:5.776671e-01:1.824665e-02:-4.829766e-01:2.580868e-01:4.822502e-01:-8.248086e-02:2.143623e-01:1.277006e-01
-3.053970e-01:-4.423039e-01:1.455822e-01:-7.158346e-01:1.377539e-01:-6.049455e-01:-4.682803e-01:-1.372316e-01:9.825686e-02:-4.561633e-01:-8.141055e-03:-8.300067e-01
1.962086e-01:2.409121e-01:3.249785e-01:3.846526e-01:6.109325e-01:-1.473278e-01:2.665458e-01:5.662320e-01:2.569982e-01:4.010923e-03:1.400372e-01:-1.740789e-01
-5.580984e-01:-5.991006e-01:3.150336e-01:2.483038e-01:1.131691e-01:5.781558e-01:-2.843370e-01:2.487359e-01:-2.237874e-01:-4.816035e-01:1.447769e-01:1.432427e-01
2.334995e-01:-4.194565e-01:-4.131125e-01:-1.352989e-01:-3.131711e-01:2.777976e-01:-6.860606e-02:2.572917e-01:-3.540942e-01:-4.205548e-01:-4.953109e-01:-7.948768e-01
3.092733e-01:-2.967051e-01:1.637345e-01:-1.611447e-01:-2.197300e-01:4.267278e-01:-3.225524e-01:-5.352525e-03:-4.732570e-01:-7.206889e-01:-1.637507e-01:-1.396074e-01
-1.458575e-02:-5.847602e-01:7.445464e-03:3.044853e-01:8.133510e-02:-3.676150e-01:5.433515e-02:-3.350006e-01:-9.982802e-02:4.240472e-01:4.631078e-01:-3.370077e-01
-8.058346e-01:-5.355426e-01:2.290093e-02:-3.116381e-01:-2.928390e-01:-2.526269e-01:-7.552812e-02:-1.190118e-01:1.530627e-01:5.800837e-02:-4.050272e-02:-3.777234e-01
-3.190615e-02:-1.432443e-01:5.789325e-01:-8.374448e-02:4.004728e-02:-5.666642e-01:-3.174683e-02:3.525820e-01:-9.008773e-03:-5.660000e-01:4.688942e-01:-5.036429e-01
-6.490958e-02:-5.173978e-01:5.214536e-01:7.723497e-02:-2.293811e-01:-2.899408e-01:-4.223506e-01:1.301522e-01:-3.022580e-01:-5.416574e-01:4.037310e-01:-1.157776e-01
-6.491504e-01:3.215674e-01:-2.584675e-01:-1.726265e-01:5.696297e-01:5.131100e-01:-2.379690e-02:-7.821527e-02:2.153014e-02:-5.431999e-01:-1.149303e-02:-1.155966e-01
1.388140e-01:4.732246e-01:-2.440195e-01:2.911250e-02:3.867799e-01:-2.555703e-01:5.288109e-01:8.513217e-02:7.397647e-02:1.449651e-01:-4.562722e-01:-3.386417e-01
-4.130535e-01:3.675707e-01:4.475015e-01:-3.833011e-01:5.594927e-02:-4.490141e-01:3.887559e-01:5.833618e-01:3.938294e-01:3.321637e-01:2.214089e-01:-8.268488e-02
-6.109786e-01:-5.300902e-01:-8.580033e-02:-1.024529e-01:-2.664396e-01:1.669192e-02:-3.501128e-01:-3.496060e-01:2.441064e-01:3.706670e-01:9.400236e-03:3.570570e-01
-7.472343e-01:-2.276839e-02:1.935832e-01:-2.018872e-01:-2.583536e-01:2.324681e-01:-3.974590e-01:3.889784e-01:2.671730e-01:-4.230768e-01:2.259337e-01:3.547096e-01
-7.806884e-01:1.513662e-01:-3.347191e-01:-1.743946e-01:6.044260e-01:-2.655090e-01:5.113537e-01:3.482798e-01:1.450808e-01:-2.640158e-01:2.807333e-02:9.744665e-02
-8.711035e-01:-9.586050e-02:-2.390729e-01:1.737865e-01:6.375943e-01:-9.270307e-03:-2.919746e-01:-5.485421e-01:-1.534098e-02:2.501042e-02:2.104590e-01:-7.333550e-02
-4.248202e-01:7.025465e-02:3.299679e-01:-6.889009e-01:9.690876e-02:1.509671e-01:-4.087579e-01:-4.692375e-03:5.300017e-02:-6.975257e-01:2.420109e-02:3.464533e-01
-1.709786e-02:-1.787737e-01:-2.797809e-01:5.547700e-01:5.292386e-01:1.450417e-01:5.459731e-01:2.720888e-01:-2.720963e-01:-3.664643e-01:-3.745550e-01:1.534527e-01
3.037534e-01:-1.323932e-01:-2.392615e-02:-3.730490e-01:-3.041404e-01:4.538202e-01:-3.358859e-01:2.500307e-01:2.809889e-01:-2.566069e-01:-2.664843e-01:-1.829779e-01
-4.815469e-01:-5.017599e-01:3.552657e-02:-2.664467e-01:3.023034e-01:3.455062e-01:-5.432243e-01:-4.324531e-01:3.784172e-02:-5.864406e-01:1.849362e-02:2.634633e-01
-4.374029e-01:-6.204276e-01:-1.300072e-01:2.821070e-01:1.092090e-01:-4.113737e-01:2.030186e-01:-2.210601e-01:-4.851530e-01:1.050763e-01:1.607321e-01:-6.564907e-01
-3.205238e-01:-1.110857e-01:3.030786e-01:-3.356831e-01:-1.963741e-01:-3.316937e-02:-7.388474e-01:-2.177749e-01:3.017483e-02:-4.646795e-01:-2.814842e-01:4.997618e-01
-2.307221e-01:-3.446694e-01:4.190890e-02:-9.375206e-01:3.015637e-01:-4.389615e-01:1.456753e-01:2.045396e-01:2.913817e-01:7.710753e-02:-3.636949e-01:-1.059268e+00
-2.649034e-01:1.119467e-02:-1.223218e-01:-4.743826e-01:-3.096375e-01:2.858109e-01:-5.142673e-01:-2.617598e-01:8.153252e-02:-4.379630e-01:-4.318854e-01:-1.542860e-02
2.283338e-01:8.397409e-02:-4.918133e-01:1.453000e-01:4.472073e-01:-2.496047e-01:4.972946e-01:-2.326268e-01:-3.782225e-01:-2.375773e-01:-3.633426e-01:-4.033192e-01
3.463653e-01:-1.226473e-02:2.662179e-01:-3.982265e-01:-4.050002e-01:-4.021565e-01:4.321909e-01:2.363721e-01:-2.459884e-01:-3.068861e-01:-3.351056e-01:-4.949176e-01
-3.291100e-01:-4.227769e-01:3.000934e-01:-1.018602e-01:7.463735e-02:-1.029503e-02:-3.558702e-01:-4.659530e-01:-4.865498e-01:-8.672031e-01:1.225293e-01:-6.316242e-01
-1.023071e+00:-3.653890e-01:-1.974316e-01:-2.392632e-01:4.353803e-01:-1.257393e-01:4.221129e-03:-6.348121e-01:-2.036331e-01:-3.895344e-01:4.466983e-02:-3.811008e-01
8.585328e-01:4.328497e-01:2.589642e-01:-1.956914e-01:-4.123936e-01:-4.291133e-02:3.602440e-01:5.019949e-01:-4.464493e-01:-2.248040e-01:-7.121789e-02:3.486068e-01
5.634798e-01:4.256920e-01:1.224808e-01:3.741156e-01:6.276132e-02:1.144297e-01:-5.149029e-01:-4.409619e-01:4.118210e-01:3.154500e-01:4.761596e-02:9.873047e-01
-7.411444e-01:7.930295e-01:1.320014e-01:9.083528e-01:3.944114e-02:-2.845788e-01:4.593071e-01:-5.647902e-02:-1.095464e-01:7.693473e-01:3.272732e-02:-1.358505e-02
2.101008e-01:-2.019320e-01:1.796144e-01:2.016187e-02:7.130949e-03:-7.129843e-02:-6.594717e-01:-5.551579e-01:5.191514e-02:1.452430e-01:5.531504e-01:7.034698e-01
2.955841e-01:6.172473e-01:4.145206e-01:5.898250e-01:-1.600497e-01:-3.146308e-01:1.859892e-01:5.835884e-01:2.867918e-01:6.623871e-01:-6.387149e-02:8.467297e-02
-4.427308e-01:-5.573313e-01:9.884436e-02:1.002386e-02:-3.203409e-01:-1.772763e-01:-5.077782e-01:-4.011153e-01:-1.397452e-01:-9.011184e-02:5.001299e-01:1.224134e-01
2.431249e-01:-1.692254e-01:1.228925e-01:2.311835e-01:3.557028e-01:5.879041e-01:-5.003005e-01:-2.666168e-01:1.293400e-01:-4.778164e-01:4.773551e-01:7.195641e-01
4.337001e-01:-2.534412e-01:5.630714e-01:-3.159171e-01:-3.545744e-01:-7.144900e-01:2.802239e-01:-3.891482e-02:1.471537e-01:2.184019e-01:1.568845e-01:-1.467276e-01
2.114722e-01:3.839297e-01:1.906357e-01:-1.032793e-01:-4.648428e-01:-4.962641e-01:-7.924517e-02:-3.243806e-01:3.674320e-01:6.654112e-01:2.421866e-01:8.555799e-01
-1.128162e-01:-5.331808e-01:-5.242282e-01:1.606196e-01:1.043440e-01:2.612454e-01:-9.238310e-02:-1.270905e+00:-1.936522e-01:-2.722776e-04:1.814041e-01:5.852391e-02
7.935696e-01:2.117720e-01:8.519525e-02:9.450743e-02:1.348819e-01:-4.009850e-01:5.985402e-02:-6.619696e-01:1.330700e-01:3.269495e-01:6.728761e-01:5.027081e-02
-7.446402e-02:2.797791e-01:3.892909e-01:7.938055e-01:-5.029652e-01:-2.585530e-01:5.208092e-01:5.425354e-01:4.503597e-03:2.809353e-01:2.894667e-01:-2.729963e-01
-7.171439e-02:1.192515e-01:-4.643659e-01:2.436360e-01:4.064806e-01:-4.062361e-01:2.074644e-01:-8.087047e-01:-2.820588e-01:5.468420e-01:3.710078e-01:-2.177177e-01
-9.220495e-02:-4.437701e-01:9.667758e-02:-8.380380e-03:9.364817e-03:-2.029475e-01:-7.133278e-01:-7.630705e-01:-3.380202e-01:-4.147665e-01:7.191148e-02:-5.294860e-01
-6.068076e-01:-2.476645e-01:-1.150016e-01:2.100909e-01:-3.883644e-01:-4.869105e-01:2.963612e-01:-2.774343e-01:-1.657097e-01:4.450680e-01:-1.879303e-02:-4.642211e-01
-3.204622e-01:7.208654e-01:-5.122579e-01:2.285303e-01:1.896359e-01:-3.736858e-01:2.009277e-01:-4.676247e-01:-2.944379e-01:5.848120e-01:-1.679735e-01:-3.302694e-01
1.885614e-01:4.076070e-01:-5.532510e-01:-7.327698e-03:-4.439977e-01:-4.740428e-01:2.215311e-01:-3.898924e-01:1.618317e-02:6.116313e-01:2.742233e-01:-4.927985e-01
-7.216343e-01:-2.106918e-01:-4.086990e-01:3.399437e-01:3.806544e-01:-2.542369e-01:5.450181e-01:-7.895955e-02:1.891920e-01:5.725524e-01:1.915836e-01:2.849707e-01
6.016046e-01:5.678834e-01:7.796799e-02:4.320483e-01:4.001863e-01:-3.461013e-03:4.650178e-01:-1.065235e-01:6.085864e-02:4.640702e-01:3.127936e-01:2.158382e-02
2.480711e-01:6.091211e-01:-6.027843e-02:6.786650e-01:3.988244e-01:2.850957e-01:-3.009697e-01:4.940865e-02:2.055050e-01:3.903872e-01:-2.391625e-01:4.614957e-02
1.750885e-01:5.917568e-02:-2.433296e-01:2.092470e-01:1.953009e-01:-2.447993e-01:6.902352e-01:-1.427286e-01:4.898414e-02:6.499420e-01:7.363970e-01:2.593302e-02
1.447134e-01:-6.025688e-01:1.171923e-01:-5.532237e-01:5.436537e-01:6.551328e-02:4.594953e-01:8.329476e-01:-2.020642e-02:-8.963075e-02:1.416347e-01:3.287145e-01
-2.793885e-01:-5.747765e-01:7.361000e-02:-1.528382e-01:4.117859e-01:3.757100e-01:2.857057e-01:5.012012e-01:-1.184935e-01:-3.171898e-01:2.953172e-01:3.824113e-01
-3.744445e-01:-2.063002e-01:-2.769823e-01:4.540766e-01:-7.737786e-02:-1.742007e-01:4.381001e-01:3.401815e-01:-1.885510e-01:-4.755321e-01:2.755633e-01:-7.224339e-01
-5.065092e-01:-4.223031e-02:-2.790478e-02:4.016896e-01:7.993704e-02:3.859377e-01:3.450207e-01:8.203770e-01:3.778730e-01:-1.613842e-01:3.163044e-01:1.355319e-01
9.628128e-02:-3.458812e-01:-2.753173e-01:-8.289741e-01:2.493430e-01:2.203935e-01:2.479745e-01:-7.673208e-03:-4.632114e-01:-7.140953e-01:2.184151e-01:1.383051e-01
2.951940e-01:-2.288996e-01:5.082895e-01:-1.824736e-01:5.659400e-01:2.799636e-01:5.402070e-01:7.172330e-02:-4.248817e-01:1.275221e-01:2.140271e-01:6.198851e-01
-4.156195e-01:-4.795715e-01:-9.484436e-02:-1.846762e-01:6.974017e-01:1.103606e-01:3.116652e-01:3.695469e-01:-2.670205e-01:-7.125568e-02:1.502116e-01:1.846407e-01
-2.342063e-01:-3.149795e-01:3.565990e-01:-3.561813e-01:4.470451e-01:2.193162e-01:3.964364e-01:1.547874e-01:-5.419409e-01:-4.405188e-01:-4.998135e-01:1.160992e-01
-4.460340e-01:-6.244527e-01:-1.039410e-01:-3.103795e-01:5.406088e-01:2.101566e-01:-6.138812e-02:-3.290060e-01:-3.275129e-01:-1.079723e-01:1.842802e-01:3.078228e-01
-5.950575e-01:-2.607828e-01:-1.492610e-01:-1.652257e-01:6.597859e-01:6.753357e-02:3.852933e-01:4.435240e-01:-6.713662e-02:6.235499e-02:3.357226e-02:4.202919e-01
-7.002187e-01:-1.596377e-02:3.743213e-01:6.781137e-02:2.221641e-01:8.461222e-02:-1.622275e-01:3.720925e-01:-6.115835e-01:5.079700e-02:-2.893803e-02:-3.548507e-01
-6.998496e-01:-1.617154e-02:3.740782e-01:6.748927e-02:2.223837e-01:8.454014e-02:-1.621019e-01:3.718362e-01:-6.113114e-01:5.029562e-02:-2.916063e-02:-3.544978e-01
-6.358842e-01:-4.643276e-01:-1.860153e-01:-4.227049e-01:6.072330e-01:-8.354766e-02:1.171048e-01:-9.583254e-02:-7.123872e-02:2.633387e-01:1.587517e-01:2.940271e-01
-4.307144e-01:-4.039995e-03:-1.631369e-01:2.865252e-02:8.513364e-01:-2.031735e-01:1.882816e-01:-1.612825e-01:-3.080851e-01:3.950988e-01:1.277847e-01:1.667186e-01
-2.966916e-01:-3.709307e-01:1.440474e-01:-4.980917e-01:5.874037e-01:2.522300e-01:9.348671e-02:-5.062460e-01:-4.886105e-01:-1.002699e-01:-2.490174e-01:1.932226e-01
-5.653682e-01:-9.780824e-02:-1.706734e-01:-4.925620e-01:4.536302e-01:-2.083654e-01:1.902497e-01:-4.134712e-01:-2.568449e-01:4.912808e-01:-1.158507e-01:7.575758e-02
-5.031611e-01:-3.852426e-01:-9.341512e-02:-2.244191e-01:6.233771e-01:-9.733605e-02:1.046435e-01:-2.882444e-01:-4.200029e-01:3.041402e-01:-1.864697e-01:2.254546e-01
-2.438939e-02:1.491146e-01:5.414713e-01:-2.892575e-01:7.240265e-01:-1.959528e-02:5.178985e-01:1.608314e-01:-2.475921e-01:-1.301636e-01:-2.440752e-01:4.788448e-02
-5.629395e-01:-1.127251e-03:2.309619e-01:8.657265e-02:2.482783e-01:1.217730e-02:-8.709555e-03:2.067412e-01:-5.652074e-01:-3.724813e-01:-1.555559e-01:-2.818453e-01
-6.792443e-01:-4.364758e-01:1.536802e-01:2.493901e-01:5.216363e-01:7.167722e-02:-4.728608e-01:-1.181901e-01:6.554493e-03:1.495810e-01:-4.263786e-02:-1.558620e-01
-2.656567e-01:-1.773294e-01:-8.235857e-02:-1.053245e-01:7.216421e-01:2.427686e-01:1.811282e-02:-3.524410e-02:-3.500068e-01:1.961893e-01:-4.734639e-02:3.640189e-01
-4.719831e-01:-4.958117e-01:-1.228248e-01:-1.262700e-01:6.490315e-01:6.527299e-02:2.325578e-01:-7.479934e-02:-3.138428e-01:3.992445e-02:2.677410e-02:2.097016e-01
-1.530838e-02:2.744761e-01:-2.479224e-01:2.641425e-01:8.195106e-01:1.851365e-01:1.295613e-01:3.275081e-01:1.703734e-01:-1.462339e-01:-2.275846e-01:-1.529858e-01
-3.636718e-01:-3.943503e-01:-6.201497e-03:-8.295124e-02:7.328712e-01:1.548334e-01:2.575523e-01:-9.987404e-02:-4.423646e-01:-3.514697e-02:-4.205506e-02:2.535165e-01
-2.346762e-01:-3.719035e-01:2.276712e-01:-2.767938e-01:6.109959e-01:4.262795e-01:-2.716951e-01:1.178918e-01:-1.812908e-01:-4.197240e-01:-1.719792e-02:2.471015e-01
-5.081754e-01:-4.495680e-01:-1.735399e-01:-3.977873e-01:5.686693e-01:9.833208e-02:2.183898e-01:1.551204e-01:-3.169313e-01:-2.586118e-01:-7.366555e-02:2.467189e-01
-5.003190e-01:-4.484852e-01:-7.208015e-02:-1.566063e-01:7.169023e-01:6.993099e-02:1.233056e-01:-1.444334e-01:-2.763187e-01:2.145926e-01:2.072869e-01:3.327538e-01
-4.871619e-01:-3.871877e-01:-5.982564e-02:-3.523351e-01:7.137013e-01:2.852140e-02:-7.189197e-02:9.892782e-02:-1.348056e-01:6.387780e-02:-1.835377e-01:3.107722e-01
-7.494816e-01:-3.639610e-01:-6.439112e-02:-4.344888e-01:4.294006e-01:1.153835e-01:1.220665e-01:1.079179e-01:5.699143e-02:9.660471e-02:5.602522e-02:3.535020e-01
-7.021098e-01:-1.490870e-02:3.755276e-01:6.935717e-02:2.209873e-01:8.493834e-02:-1.628395e-01:3.734307e-01:-6.130904e-01:5.343659e-02:-2.770237e-02:-3.565667e-01
-7.000938e-01:-1.603021e-02:3.742474e-01:6.771325e-02:2.222186e-01:8.457958e-02:-1.621935e-01:3.720180e-01:-6.114991e-01:5.061976e-02:-2.903661e-02:-3.547405e-01
-5.350237e-01:-1.416661e-01:-1.754578e-01:-2.017119e-01:6.648882e-01:-8.704920e-02:2.431344e-01:6.890127e-02:-4.103598e-01:2.624084e-01:-1.544385e-01:1.901882e-01
1.024775e-01:-3.986335e-01:5.869098e-01:-2.753562e-01:4.043376e-01:3.719781e-01:-1.274060e-01:-2.548185e-01:-6.329130e-01:-3.759657e-01:-2.327831e-01:2.282774e-01
-2.153716e-01:-4.764836e-01:5.718586e-01:-2.772400e-01:3.952997e-01:3.196102e-01:1.944506e-01:1.352575e-01:-5.696371e-01:-5.481298e-01:-1.213194e-02:3.678485e-02
3.850613e-01:1.360441e-01:5.133645e-01:-3.353720e-01:7.045113e-01:2.107662e-01:-1.774154e-02:-2.286882e-01:-2.370800e-01:1.814616e-01:-1.595607e-01:2.220000e-01
-2.080429e-01:-2.025147e-01:1.695374e-01:3.247795e-02:5.687010e-01:1.774893e-01:3.477945e-02:2.828386e-01:-3.788227e-01:-3.789899e-01:-1.050505e-01:2.051560e-02
-4.580196e-01:-3.072393e-01:-1.707797e-01:-1.940982e-01:7.309248e-01:1.086948e-01:-1.108195e-01:-1.447522e-01:-3.193443e-01:2.114535e-01:-7.015441e-02:3.968154e-01
-2.936917e-01:-1.764576e-01:-2.307184e-01:-2.973326e-01:6.075957e-01:1.935598e-01:-2.757112e-01:-2.132300e-01:-4.782390e-01:8.118139e-03:-2.340877e-01:2.460958e-01
-6.440459e-02:-1.413748e-01:3.821807e-01:-2.860893e-01:6.287783e-01:3.188772e-01:-1.340346e-01:-3.904669e-01:-4.485946e-01:2.059337e-01:-3.227309e-01:2.672389e-01
-3.234040e-01:-7.538027e-02:3.760491e-01:-3.297514e-01:6.278787e-01:2.256039e-01:2.616164e-01:-1.601070e-01:-4.399673e-01:6.021263e-02:-4.522793e-01:2.210108e-01
-9.599178e-03:8.092006e-02:6.023921e-01:-3.999971e-01:5.279318e-01:3.003182e-01:1.761356e-01:1.473715e-01:-1.640823e-01:-1.181556e-01:-4.092340e-01:2.279363e-01
-4.772364e-01:-1.447575e-01:-3.809597e-01:2.096809e-01:5.629574e-01:2.857996e-01:-3.634940e-01:3.234265e-01:3.635583e-01:9.060378e-03:2.645303e-01:-1.158467e-01
5.857022e-02:-5.474910e-02:-2.782157e-01:4.817305e-01:7.894015e-01:-2.070993e-01:2.387859e-01:-3.035171e-01:-4.001247e-01:1.617120e-01:1.516796e-01:-2.078943e-01
-3.835204e-01:1.678890e-01:2.051277e-01:-2.009509e-01:5.572851e-01:1.339021e-01:-1.908535e-01:7.948463e-01:2.248035e-02:-2.084577e-01:-1.439855e-02:2.218509e-01
-7.883090e-01:-3.739692e-01:-1.504513e-01:-5.555227e-02:3.946035e-01:1.061481e-01:4.121031e-02:9.459268e-02:-2.128707e-01:7.832510e-03:-3.676014e-02:-1.781881e-01
-1.645316e-01:-4.395887e-01:6.369650e-01:-2.326524e-01:-5.675975e-02:-8.279357e-01:-1.746097e-01:-1.593307e-01:-1.802557e-01:4.575218e-01:-5.581927e-01:-5.245048e-01
-1.668178e-01:-7.074085e-01:1.447532e-01:4.330518e-01:4.447982e-01:1.459783e-01:1.025829e-01:-2.123495e-01:-5.884358e-01:-5.498333e-01:-5.542061e-02:-2.597900e-01
-3.550547e-01:-9.717638e-02:6.398174e-01:3.573947e-02:3.022959e-01:2.664548e-01:9.074777e-02:4.635019e-01:-2.768514e-02:-3.343628e-01:-4.460742e-01:-1.942942e-01
2.216273e-01:4.434219e-02:7.381237e-01:7.131148e-02:4.297073e-01:3.261477e-01:-2.278876e-01:2.792663e-01:-3.610021e-01:-3.867026e-01:-2.612419e-01:2.206918e-01
1.540252e-01:-9.572404e-03:7.250658e-01:2.967392e-01:5.563549e-01:2.224988e-01:2.142649e-01:5.196905e-01:-1.367502e-01:-3.349116e-01:-2.354581e-01:-1.975307e-01
-6.060443e-02:-8.267936e-01:3.125984e-01:-7.875821e-02:3.406548e-01:1.676472e-01:-3.586636e-01:-1.750606e-01:-8.458237e-01:1.032407e-01:-2.653333e-01:-2.930214e-01
-7.823076e-01:-5.979748e-01:-3.966425e-02:3.734010e-01:5.378022e-01:-2.739295e-01:3.187715e-01:1.513423e-01:-3.886468e-01:-1.136711e-01:-1.557109e-01:-1.804512e-01
-7.113910e-01:-4.131953e-01:5.148436e-01:-1.016524e-01:-1.575616e-01:1.256337e-01:1.444226e-01:2.589256e-01:-5.167560e-01:-3.693629e-01:-4.865914e-01:-2.833372e-01
-5.260523e-01:-2.588758e-01:4.714725e-01:2.198477e-01:4.225246e-01:3.358539e-01:2.547836e-01:3.919939e-01:-4.386269e-02:-2.339309e-01:-4.148364e-01:-1.950931e-01
-3.159560e-01:-4.413661e-02:2.242743e-01:5.826489e-02:5.343807e-01:3.371488e-01:-4.051743e-01:5.350824e-02:1.013978e-01:-5.214702e-01:4.674041e-02:-1.964328e-01
2.771134e-01:-6.413653e-01:6.050456e-01:2.059053e-01:-2.402142e-02:1.130681e-01:-4.119713e-01:2.136530e-01:-6.100997e-01:-2.925247e-01:-1.459803e-01:-4.223858e-01
-7.706261e-01:-3.426419e-01:4.413107e-01:-1.395518e-01:2.881173e-01:2.962736e-01:-3.309541e-01:6.452674e-02:-2.325010e-01:-2.647622e-01:-3.927692e-01:-1.589403e-01
-4.531375e-01:-3.366653e-01:4.732955e-01:-2.358461e-01:2.985690e-01:2.536418e-01:-2.455834e-01:3.167972e-01:-4.604683e-01:-4.733773e-01:-4.013008e-01:-1.779151e-01
-4.336995e-01:-1.965338e-01:5.328446e-01:-7.966431e-02:3.503082e-01:2.809504e-01:-3.487691e-01:4.507131e-01:-1.413873e-01:-3.029085e-01:-4.509254e-01:-2.138900e-02
-5.776948e-01:-2.927523e-02:5.428417e-01:-5.997303e-02:2.796442e-01:2.146986e-01:-2.614280e-01:4.678572e-01:-2.598878e-02:-9.973990e-02:-4.829116e-01:-2.458683e-01
-5.826425e-01:-5.250519e-01:1.402856e-01:4.628528e-02:5.061423e-01:3.377785e-02:-1.648275e-01:-4.929553e-02:-5.907162e-01:4.180099e-01:-4.432134e-01:-2.059047e-01
-4.942750e-01:-4.684952e-02:5.133657e-01:1.329600e-01:3.975275e-01:3.104959e-01:2.240212e-01:5.618958e-01:-1.454026e-01:-5.287844e-02:-4.638450e-01:-1.833441e-01
-2.930788e-01:-1.051969e-01:4.375615e-01:3.633689e-01:5.744742e-01:2.297805e-01:3.427715e-01:2.804537e-01:-2.382085e-01:-4.147364e-01:-2.637431e-01:-3.241757e-01
1.695275e-01:-1.169845e-01:3.062500e-01:-9.065144e-02:-8.541207e-02:-1.646103e-01:-2.087596e-01:-5.742273e-02:1.365981e-01:3.512342e-01:2.298089e-02:-3.178463e-01
-4.445782e-02:1.922020e-01:5.832497e-01:-4.276887e-02:-3.700502e-02:3.259747e-01:-2.409173e-01:4.108668e-01:6.867246e-02:-1.406345e-01:-3.682519e-02:4.305610e-01
-1.942122e-01:-3.823451e-01:3.143716e-01:2.072088e-01:2.620291e-01:-1.402605e-01:-3.293250e-01:4.772456e-01:-9.818434e-02:-3.817738e-01:3.007326e-01:-3.765539e-01
-4.070430e-01:-1.047595e-01:4.244281e-01:-5.011898e-02:1.204166e-01:1.610903e-01:-8.028563e-02:5.148040e-02:-3.411996e-01:-2.713428e-01:-5.883548e-01:-3.654879e-01
-5.862983e-01:-1.750753e-01:3.751129e-01:-1.902485e-01:4.230833e-01:2.186926e-01:-1.809500e-01:3.289036e-01:-2.888194e-01:-3.461519e-01:-3.999906e-01:-2.153640e-01
-7.019061e-01:-2.536966e-01:2.817383e-01:-1.053250e-02:4.462650e-01:1.685090e-01:1.335222e-01:3.162641e-01:-4.432721e-01:-3.520202e-01:-3.040058e-01:-1.779318e-01
-2.698220e-02:-1.457990e-02:-7.592254e-02:-6.009977e-03:-8.269783e-02:-1.120277e-01:-2.270082e-01:1.787355e-01:-1.011193e-01:2.360591e-01:-3.485929e-01:-3.340365e-01
-6.840807e-01:-4.145209e-01:2.881118e-01:1.892412e-01:4.247157e-01:1.067291e-01:1.133254e-01:4.204974e-01:-1.693071e-01:-2.477670e-01:-2.145402e-01:-3.572562e-01
8.538638e-02:2.901128e-01:6.214806e-01:1.076991e-01:4.347050e-01:9.876048e-02:-2.817720e-01:4.650835e-01:-5.066568e-01:1.362680e-01:-3.651535e-01:-1.203260e-01
-2.969579e-01:-2.674543e-01:-6.828578e-02:-6.897876e-02:3.510098e-01:1.634886e-01:7.987593e-02:5.165491e-01:1.391499e-01:-3.266697e-02:-2.528659e-01:-1.522495e-01
-4.878820e-01:-1.064465e-01:2.412809e-01:-7.971299e-02:3.796884e-01:1.321534e-01:-2.045757e-01:3.152354e-01:-1.541088e-01:-1.119958e-01:-1.202506e-01:-2.460062e-02
-3.196955e-01:-4.289355e-02:3.010070e-01:-9.126277e-02:3.878591e-01:-2.673780e-02:1.536889e-02:2.454010e-01:-1.619146e-01:-1.369955e-01:-2.312706e-01:-2.073101e-01
