-3.741246e-01:-6.359636e-01:-2.619245e-01:3.121038e-01:2.094382e-01:1.075720e+00:-4.619952e-01:4.249024e-02:-2.159138e-01:-5.736234e-01:1.266070e-01:-4.451426e-01
-7.353153e-01:-5.996881e-01:1.014305e+00:4.083213e-01:-1.571335e-01:6.998475e-01:6.791546e-02:1.905314e-01:-2.278671e-02:-3.782676e-01:3.491611e-02:3.402570e-01
3.467283e-02:2.548601e-01:4.086047e-02:1.717503e-01:-5.115746e-01:6.766837e-01:1.282385e-01:2.962483e-01:-3.473595e-01:-4.927135e-01:-5.789226e-01:2.419079e-01
1.069627e-01:2.027459e-01:7.700051e-02:-3.232928e-01:3.801017e-01:5.631875e-03:3.105607e-01:1.806552e-01:1.559680e-01:2.571816e-01:-3.157049e-01:-1.392332e-01
1.284529e-01:-2.380871e-01:8.687333e-01:2.930850e-01:1.185499e+00:-5.584015e-01:-2.329724e-01:-1.662668e-01:5.702108e-01:2.260734e-01:-1.919873e-01:3.451475e-01
-1.342812e-02:7.272981e-01:1.963617e-01:1.529339e-01:4.779461e-01:-3.960828e-01:1.632019e-01:7.358618e-01:5.218012e-01:1.696179e-02:3.237548e-01:-3.577949e-01
2.915032e-01:-3.489269e-02:6.340353e-02:-4.158981e-01:4.160497e-01:-4.152122e-01:5.910597e-01:4.619655e-02:-1.903221e-01:-1.838506e-01:-1.434972e-01:-9.567142e-01
-6.026332e-01:3.247442e-01:1.388659e-01:6.024736e-01:1.062524e-01:1.729565e-01:-2.108377e-01:-5.561347e-02:-1.459196e-02:4.286093e-02:-1.399781e-01:-2.736831e-02
3.553801e-01:8.200578e-02:1.826134e-01:1.508268e-02:3.613860e-01:4.750213e-03:5.276601e-01:2.174844e-01:1.150251e-01:2.198538e-01:-7.384960e-01:-7.126193e-01
-4.686502e-01:2.832316e-01:-3.188397e-01:-3.104689e-01:3.565649e-02:-1.762012e-01:1.095651e-01:2.794001e-01:3.103457e-01:-2.285425e-01:-4.667726e-01:-6.259897e-01
-3.769045e-01:1.961696e-01:-3.508306e-02:4.982104e-01:-2.481366e-01:3.312525e-01:-2.146422e-02:-8.358729e-02:-1.794412e-01:2.448799e-01:-2.173516e-01:-2.086928e-01
2.810138e-01:-1.051151e-01:-6.064624e-02:2.152081e-01:-5.393874e-01:2.288370e-01:-9.527911e-02:-4.808075e-01:-4.875821e-01:1.817241e-01:-6.001818e-01:-1.969526e-01
-3.759269e-01:8.759813e-01:8.191445e-02:2.563907e-01:9.820316e-02:-8.385955e-02:6.345936e-02:2.604657e-01:1.878369e-01:-1.160676e-01:2.501043e-01:2.864914e-02
-3.507758e-01:-5.043256e-01:8.031011e-01:8.032272e-01:5.278075e-01:-1.678835e-01:8.680293e-02:-1.893068e-01:1.286397e-01:8.487370e-01:5.555109e-01:6.183923e-01
4.047858e-01:1.883234e-01:-2.885724e-01:-2.416733e-02:-3.565985e-01:3.686874e-01:-3.711023e-01:-5.278273e-02:3.795477e-01:1.077237e-01:-5.796869e-01:2.329091e-02
-6.470322e-01:-3.384739e-01:1.510402e-01:1.915626e-01:1.040492e+00:-8.050457e-01:6.861634e-01:-3.257445e-01:-1.754623e-01:4.067573e-01:5.584681e-01:-4.232318e-01
1.682435e-01:-6.245732e-01:1.425062e+00:1.480113e-01:6.815319e-01:-5.000867e-01:1.012095e-01:7.418559e-02:7.084013e-01:4.940264e-01:1.581442e-01:8.549743e-01
-2.387830e-01:2.830384e-01:2.231746e-01:-1.511972e-02:-3.760754e-01:-2.006596e-01:-3.801146e-01:-4.870207e-01:-2.312145e-02:1.379384e-02:-3.233887e-01:4.774582e-01
-2.348181e-01:-5.290049e-02:-8.216100e-02:1.008585e-01:-4.721082e-01:-1.620399e-01:-6.923155e-01:-5.938687e-01:-2.473466e-01:-1.267873e-01:1.835161e-01:2.851944e-01
5.464725e-01:4.860434e-01:2.792165e-01:2.306858e-01:9.045330e-02:5.217069e-01:3.870041e-01:-3.840479e-01:-2.549053e-01:5.305757e-02:-1.181685e-01:2.825569e-01
-6.596212e-01:2.318089e-01:1.917708e-03:5.355712e-01:6.237117e-02:1.382089e-01:-5.063785e-02:5.203236e-01:4.207487e-01:2.565870e-01:-5.560579e-02:-2.421822e-01
-4.375865e-01:7.371452e-02:-2.370981e-01:-5.449254e-02:-4.334641e-01:-3.787960e-01:-1.076010e+00:-3.869490e-01:-8.539812e-03:-5.401996e-01:-1.085428e-01:-5.903808e-03
6.164281e-01:-6.553172e-01:3.392923e-01:1.356256e-01:7.342450e-01:-3.761473e-02:-4.424805e-01:1.436273e-02:7.966507e-01:5.029292e-01:6.051508e-01:4.462536e-01
-8.716955e-02:7.420007e-01:-3.105992e-01:-1.151167e-01:-2.642896e-01:-1.390395e-01:2.901450e-01:2.935485e-01:3.192998e-01:1.531366e-01:8.318524e-02:-1.076350e-01
4.855952e-01:-3.530156e-01:5.160901e-01:-4.579481e-02:6.365767e-01:-1.430010e-01:-3.859461e-01:5.483787e-01:1.254073e+00:4.115719e-01:-1.654300e-02:3.364155e-01
1.187748e-02:1.476845e-01:-5.255827e-01:-2.958370e-01:-6.565349e-01:6.523562e-02:1.564404e-02:-2.254566e-01:-5.924476e-02:1.501635e-02:4.905788e-01:-4.845830e-02
1.187731e-02:3.629892e-01:-1.677346e-01:-5.122992e-01:-4.149582e-01:1.543900e-01:5.194840e-01:2.270150e-02:-6.292372e-03:-2.247434e-01:9.540474e-02:-2.214405e-01
-2.766705e-01:6.295751e-01:-2.813250e-01:7.562449e-02:1.472348e-01:-5.672444e-02:-3.982165e-01:3.249701e-01:5.984972e-01:-1.794218e-01:-8.456100e-02:-1.369748e-01
4.135862e-02:2.660182e-01:-1.070185e-01:1.881003e-01:-1.555656e-01:1.078080e-01:9.644274e-02:-4.679268e-01:-4.388032e-01:-2.910905e-02:-8.527181e-01:-3.588705e-01
-3.269448e-01:-9.168607e-01:5.426850e-01:-1.574035e-01:1.075410e+00:-5.091579e-01:-1.598323e-01:-3.499114e-01:1.983279e-01:-3.315790e-01:4.373586e-01:-1.005001e-02
-7.587793e-02:6.396311e-01:-3.738569e-01:2.654343e-01:-2.313420e-02:4.824351e-01:7.760686e-02:1.439420e-01:3.451670e-01:2.040722e-01:1.037700e-01:-1.836074e-02
4.419639e-02:4.240375e-01:8.042527e-03:1.018647e-01:-9.640117e-02:-1.509566e-01:4.996216e-01:-3.827031e-01:-5.944813e-01:8.557582e-02:-3.172722e-01:-3.511923e-01
-6.580539e-02:6.277527e-01:-4.941296e-01:-2.197353e-01:-8.356217e-04:6.733745e-02:-9.929182e-02:-1.295157e-01:2.419459e-01:-2.520447e-01:-4.648413e-01:-2.171812e-01
9.596699e-02:3.891764e-01:-2.191116e-01:1.733603e-01:-1.339736e-01:3.405188e-01:-2.958721e-01:-1.475393e-01:1.221352e-01:-7.873219e-02:-7.393892e-01:-1.154481e-01
6.785265e-02:-7.442403e-01:-2.638059e-01:-8.026627e-01:4.379361e-01:-7.647990e-01:-7.995994e-01:-5.809360e-01:2.178549e-01:-5.928018e-01:-8.622745e-02:-3.596630e-01
2.766337e-01:-1.894154e-01:-1.541874e-01:1.023968e-01:-3.747013e-01:9.698736e-02:-4.886083e-02:-1.052799e-01:-8.354484e-02:3.211825e-01:-1.021455e+00:-5.095027e-01
-2.533658e-01:2.205839e-01:1.373449e-01:2.844949e-01:-4.919519e-01:1.902598e-01:-4.137455e-02:-2.071862e-01:-2.400187e-01:1.044110e-01:3.770865e-01:2.117995e-01
7.343245e-01:5.820661e-01:-1.320540e-01:9.951511e-02:2.219942e-01:-9.289251e-02:6.573648e-02:-3.912631e-01:-1.486294e-01:3.162678e-02:-5.329723e-01:-2.271891e-01
-8.701636e-03:7.911878e-01:-2.578035e-01:1.079105e-01:3.436117e-01:-3.971726e-01:-9.613451e-03:4.476804e-01:6.375737e-01:2.326715e-01:6.699937e-01:3.104901e-04
-3.051059e-01:1.668366e-01:-2.784700e-01:2.030129e-01:-6.265243e-02:1.010338e-01:-4.095863e-01:3.578996e-01:7.112590e-01:3.057080e-01:-4.845263e-01:-1.031866e-01
5.102268e-02:-8.403216e-01:3.520824e-01:-5.286848e-02:4.169939e-01:5.854640e-02:-3.659338e-01:6.147039e-01:8.308720e-01:-3.167620e-02:5.296530e-01:-8.573918e-02
-3.241666e-01:-6.264162e-01:6.310352e-01:3.833021e-01:4.078305e-01:-3.899396e-01:-9.002727e-01:-2.405254e-01:1.869247e-01:-7.126293e-02:1.308406e-02:2.870940e-01
-2.996103e-01:-1.222547e-01:1.268053e+00:6.478647e-01:1.023386e+00:-9.439889e-02:4.322594e-01:9.113930e-01:7.714936e-01:2.115714e-01:9.898560e-01:3.825802e-01
-4.417183e-02:4.388018e-02:-1.846232e-01:-2.383762e-01:-5.217836e-01:4.711094e-02:2.174854e-02:4.192283e-01:6.143690e-01:3.769628e-01:-4.836476e-01:-5.262929e-02
-3.152576e-02:5.942833e-01:9.534639e-02:-2.379134e-01:-3.063719e-01:-3.651257e-01:3.489229e-01:3.132660e-01:-2.192014e-02:-1.837462e-01:5.086760e-01:-2.098434e-01
-5.745218e-01:2.164459e-01:9.847016e-01:-5.029922e-02:1.102726e-01:-1.204358e+00:6.510450e-01:2.753606e-01:-7.733325e-02:1.552421e-01:-2.464504e-02:-5.779879e-02
4.232890e-01:-2.949391e-01:4.143648e-01:1.074739e-01:5.568328e-01:-2.349896e-01:-2.795808e-01:-7.610729e-01:-4.172907e-02:2.141398e-01:2.792902e-01:4.485062e-01
1.165421e-01:5.138560e-01:-5.070208e-01:2.123127e-01:5.158896e-01:-7.980426e-01:-5.988380e-02:-2.564505e-01:4.080430e-02:4.300995e-01:1.550028e-01:-3.539450e-01
-5.969083e-02:-1.622718e-01:-3.604194e-01:6.117901e-01:-3.767240e-02:3.484871e-01:5.128348e-01:6.514845e-01:-1.489693e-01:-2.260458e-02:-4.361068e-01:1.257322e-01
2.207042e-01:-8.683667e-02:2.645082e-01:-1.286819e-01:-1.208915e-01:3.296961e-01:8.440375e-01:6.735270e-02:-2.690259e-01:1.664952e-01:-4.269302e-01:-5.004807e-01
7.654237e-01:-2.893423e-02:4.450457e-02:2.230020e-01:5.109472e-01:-5.225177e-01:-8.083704e-02:-5.176337e-01:-3.695695e-01:2.065304e-01:-3.487502e-02:-5.483164e-01
2.556730e-01:-1.995903e-01:7.571156e-01:6.018385e-01:5.383830e-01:-4.125752e-02:2.426978e-01:-4.769875e-01:-3.656665e-01:5.832394e-01:6.136078e-01:4.253060e-01
4.660562e-01:6.256599e-01:-2.049326e-01:-4.653671e-01:-2.541691e-01:-9.148897e-02:9.610642e-03:-2.610784e-02:2.301838e-01:-3.157910e-01:7.070944e-02:-2.089132e-02
-2.913882e-01:-4.943745e-02:-2.972963e-02:6.068508e-01:-3.264145e-01:9.194352e-02:-5.535949e-01:-1.728144e-01:-4.165979e-02:3.513425e-01:-3.443394e-01:-6.041054e-02
-1.230440e-02:-9.248160e-01:4.693762e-01:-3.866028e-01:7.900025e-01:-3.406067e-01:-2.090783e-01:3.243094e-01:1.010146e+00:-1.213044e-01:-4.925502e-01:-1.953601e-01
3.739868e-01:-8.418311e-01:5.119878e-01:-6.478330e-01:5.536016e-01:-9.498363e-02:7.116711e-01:-3.349373e-01:-3.537057e-01:-1.432556e-01:-7.953283e-02:-6.365811e-01
7.542554e-01:-9.984757e-02:2.956406e-03:-2.496867e-01:-3.989323e-01:9.904145e-02:-3.212249e-01:1.140649e-01:5.085839e-01:2.977995e-01:-2.492943e-01:8.450548e-02
7.231123e-01:-5.139849e-01:2.771851e-01:2.661935e-01:3.074681e-01:1.502587e-01:-2.547951e-01:-4.726370e-01:5.356833e-02:5.052288e-01:4.206584e-01:3.280629e-01
-7.030926e-03:7.519777e-01:-3.165344e-01:-4.351673e-03:-6.127136e-02:5.768574e-02:2.440925e-02:2.519632e-02:3.711978e-02:-2.959248e-01:4.900912e-01:-1.533067e-01
2.428048e-01:4.669363e-01:-1.476705e-01:5.073654e-01:5.495137e-02:5.961737e-01:-2.929106e-01:1.193192e-01:5.096431e-01:2.173101e-01:4.808711e-01:2.780038e-01
-8.725461e-01:-1.005107e+00:7.583888e-01:2.740695e-01:6.258930e-02:-5.812266e-01:-5.078385e-01:4.100746e-01:3.633873e-01:4.205757e-02:8.855183e-02:8.923900e-02
-1.759535e-01:3.348246e-02:-4.109088e-01:1.340247e-01:-3.954014e-02:7.057214e-01:1.320196e-01:1.432555e-01:6.077570e-01:5.171447e-01:3.000044e-01:1.802735e-01
-9.875612e-01:-7.154170e-01:-2.912199e-01:-7.366348e-02:3.868141e-01:-1.033505e+00:7.165737e-02:2.066647e-02:3.542154e-02:2.535249e-01:1.435230e-02:-8.669550e-01
-5.076308e-01:-6.599239e-01:5.991269e-01:5.773744e-02:3.818913e-01:-3.256482e-01:-5.545996e-01:2.487262e-01:7.456841e-01:-1.108579e-01:6.448246e-01:6.454130e-01
5.473161e-01:-2.355130e+00:-8.294228e-01:-5.180942e-01:9.427014e-02:7.997198e-01:1.534409e+00:1.369590e+00:6.549641e-01:9.698364e-01:1.013388e+00:8.916472e-01
-2.078878e-01:3.515202e-01:-3.225886e-02:3.496742e-01:-3.175693e-01:2.250452e-01:-2.855138e-01:-3.531676e-01:-2.224589e-01:-3.320191e-02:-6.807309e-02:1.405560e-01
-6.057173e-01:4.015650e-01:6.609064e-02:2.335368e-01:-9.356298e-02:-2.084016e-01:-1.229056e-01:-3.557621e-01:-7.717200e-02:-5.115193e-03:4.926704e-01:4.646055e-01
6.991029e-01:3.380865e-02:-4.062666e-01:-2.232569e-01:-5.206130e-01:-2.508965e-01:-3.362584e-01:-6.078146e-01:-2.194544e-01:3.064755e-02:-7.416803e-01:-2.520589e-01
2.897925e-01:-8.141556e-01:5.758376e-01:1.689631e-01:4.141814e-01:1.605160e-01:-7.349247e-03:3.059447e-01:1.352770e-01:-3.145327e-02:9.002471e-01:-2.161048e-01
-5.867661e-01:1.797531e-01:1.522690e-01:3.884938e-01:3.172193e-01:-3.939945e-01:-7.669487e-02:6.370630e-01:6.295530e-01:3.532295e-01:-2.288816e-01:-2.609798e-01
7.325808e-01:-2.760275e-01:-8.642487e-02:-2.176377e-01:-5.904599e-01:-2.046962e-02:3.638515e-01:-2.683393e-03:-2.030162e-01:4.255917e-01:-2.878109e-01:-5.577955e-01
-4.990907e-02:-1.508317e-01:1.118953e-01:3.393453e-02:-8.285581e-02:2.570876e-01:-2.232102e-01:-1.504781e-01:2.674574e-01:3.152448e-03:1.054284e+00:5.967250e-01
5.429902e-01:9.440716e-01:-9.029379e-02:5.255231e-01:-6.172061e-02:1.453280e-01:5.139907e-02:-7.126234e-02:1.977489e-01:5.080534e-01:-4.067411e-01:2.910315e-01
-1.399026e-01:4.457371e-01:-1.090234e-02:-3.392346e-01:-1.203763e-01:-4.255552e-02:6.039517e-01:7.126004e-02:4.171878e-02:-2.795126e-02:-5.841073e-01:-3.482293e-01
5.227778e-01:-3.724118e-01:4.905434e-01:2.043473e-01:5.079746e-01:-1.144180e-01:-5.206948e-01:-2.721690e-01:-8.132264e-02:-2.470551e-01:4.488345e-01:-8.484348e-02
-1.334345e-01:-2.916774e-01:2.812362e-01:-3.985890e-01:-5.812224e-02:-8.535164e-01:6.313183e-01:-4.968616e-01:-6.295516e-01:2.845684e-01:2.121613e-01:-2.614165e-01
2.814439e-02:-1.105312e+00:2.547361e-01:-4.064654e-01:7.605716e-01:-2.866663e-01:-6.073515e-01:-2.091489e-01:5.254307e-01:-5.078632e-01:-2.413789e-01:-3.082687e-01
-2.468493e-01:3.587083e-01:8.657854e-02:-2.205553e-01:-2.168447e-02:-5.271595e-01:5.187252e-01:-6.968069e-01:-3.135606e-02:5.576457e-01:-3.115315e-01:4.816605e-01
1.488577e-03:5.262471e-01:-1.464068e-01:1.432664e-02:-2.245647e-01:1.669707e-01:1.624147e-01:-4.064666e-01:-2.871884e-01:-7.252425e-02:3.316142e-01:1.587133e-01
-2.543511e-01:1.100666e-01:-8.032618e-02:3.504025e-01:-2.814629e-01:9.860772e-02:-1.490501e-01:1.488294e-01:-7.866728e-02:-6.833127e-02:8.613696e-01:-2.192201e-01
1.519493e-01:8.380810e-01:-4.045688e-01:8.733509e-02:-1.581578e-01:2.336195e-01:-4.050416e-02:-1.491254e-01:2.703250e-01:7.882652e-02:1.725894e-01:3.250233e-01
-6.559184e-01:-6.922692e-01:-1.545580e-01:6.910197e-02:-5.624053e-01:-2.161960e-01:-8.360246e-01:5.035662e-02:4.270009e-01:2.437802e-01:-2.941142e-01:8.636578e-02
-3.253737e-01:8.580656e-01:8.190101e-02:2.258017e-01:3.002097e-01:8.717028e-02:-9.273443e-02:7.850357e-02:5.767270e-01:-1.819036e-02:5.452531e-01:6.494981e-01
5.118678e-01:5.546492e-01:-2.545007e-01:1.621666e-01:-3.306990e-01:-3.203870e-01:2.007154e-01:-4.412411e-01:-4.000308e-01:3.522437e-01:-4.410129e-01:-1.526501e-01
-2.466448e-01:-3.384624e-01:-1.567404e-01:1.802501e-01:-7.350545e-01:9.192696e-02:-3.462522e-02:-8.369967e-02:-2.938587e-01:3.750319e-01:3.119199e-01:-2.453595e-01
-1.245537e-01:2.797744e-01:5.917668e-01:-2.443836e-01:4.363638e-01:-1.868323e-01:2.223899e-01:-1.667621e-01:-5.673254e-01:3.148290e-01:-7.979182e-03:-1.593127e-02
6.740067e-01:-1.099701e-01:-8.220014e-02:1.898677e-01:-4.291927e-01:3.263172e-01:-1.818399e-03:7.325817e-03:1.352261e-01:5.905144e-01:-3.999553e-01:-1.030909e-01
4.489126e-01:4.499480e-01:3.823944e-01:9.795291e-01:2.987847e-01:2.749552e-01:-4.765070e-01:4.760285e-01:6.219319e-01:5.495393e-01:4.133847e-01:2.413692e-01
-6.101699e-01:-1.354702e-01:-5.253330e-01:-1.273318e-01:-6.636648e-01:1.852448e-01:-2.616837e-01:-5.848407e-01:-3.373596e-01:-9.474629e-02:-1.758528e-01:-1.224565e-01
1.646022e-01:6.106796e-01:9.339856e-02:1.473254e-01:1.799429e-01:-3.381954e-01:6.888493e-02:4.314349e-01:5.573188e-01:3.928078e-01:-5.926231e-01:-1.121934e-01
8.303297e-01:5.194750e-01:-2.358876e-02:1.652911e-01:-4.189903e-01:-5.922928e-02:2.583982e-01:-3.707875e-01:-2.086768e-01:4.313904e-01:-1.012064e-01:2.054257e-01
-1.135809e-02:-4.248010e-01:1.108355e+00:4.943871e-01:5.610440e-01:-1.870400e-02:4.259769e-02:3.023363e-02:-9.603123e-02:-9.218083e-03:7.576966e-01:3.185024e-01
-1.568144e-01:1.575548e-01:-5.112694e-01:-2.899252e-01:-6.629640e-01:-2.655916e-01:-5.412951e-01:-1.154834e-01:2.757132e-01:-6.830335e-02:2.773401e-01:1.879504e-01
-2.876375e-01:1.572267e-01:3.936399e-01:7.357661e-01:-3.495059e-01:4.131474e-01:3.353024e-03:5.772855e-01:4.611145e-01:6.541672e-01:2.822356e-01:2.813349e-01
-3.610380e-01:-4.501221e-01:3.364018e-01:-5.925827e-01:3.155325e-01:-9.262155e-01:-3.780881e-01:4.483878e-01:6.576501e-01:-4.435417e-01:9.120465e-02:-2.835878e-01
-4.837547e-01:2.783089e-01:-3.455084e-01:-2.424380e-01:-6.562991e-01:-1.911729e-01:-5.775878e-01:-2.129933e-01:-3.859147e-02:-5.021610e-01:3.087594e-01:7.796336e-02
-4.196366e-01:1.989495e-01:1.602204e-02:6.922814e-02:-2.338096e-01:1.579074e-01:3.449694e-01:-4.104141e-01:-3.727896e-01:4.442625e-02:-1.827727e-01:2.170162e-02
-5.543291e-01:1.792964e-01:1.300727e-01:5.451893e-02:-5.676249e-01:1.411719e-01:1.343518e-01:-4.177076e-02:-1.645955e-01:9.196455e-02:-2.718719e-02:9.704574e-03
1.278799e-01:-1.004232e+00:4.282019e-01:-5.240357e-01:1.626645e-02:-2.599737e-01:5.115105e-02:-9.352123e-01:-1.037492e+00:-5.846214e-01:-6.324258e-01:-6.917721e-01
4.052725e-01:-8.018718e-01:-2.327002e-01:-6.373544e-01:1.534366e-01:-3.371945e-01:-4.290406e-01:-4.644212e-01:8.036859e-03:-2.762560e-01:4.163856e-01:-3.018479e-01
-5.388618e-02:4.428684e-01:-3.240436e-01:-2.359023e-01:-2.100865e-01:1.562686e-01:7.283328e-03:6.775272e-02:6.501338e-01:2.319879e-01:-6.125031e-01:1.845226e-01
4.137015e-01:3.524093e-01:4.903103e-01:3.551765e-01:-6.018810e-01:-3.328202e-02:5.555628e-02:1.841047e-01:1.695376e-01:6.551293e-01:3.288683e-01:5.705243e-01
-9.414411e-03:7.802195e-02:-7.643374e-01:-5.254611e-01:9.530583e-02:-7.113217e-01:-1.226415e-01:-7.894637e-02:7.229976e-02:-8.855645e-02:-2.135904e-01:-9.542121e-01
9.923863e-02:1.973406e-01:3.841324e-02:-1.905264e-01:-2.719888e-01:-2.008032e-01:4.869721e-01:6.359938e-01:3.522143e-01:3.675348e-01:-2.266857e-01:-4.877646e-01
3.134041e-01:3.747689e-01:-1.613731e-01:-1.998349e-01:-6.752061e-01:-8.748052e-02:5.340612e-01:-1.731618e-01:-3.445169e-01:1.765327e-01:-3.475987e-01:-2.094540e-01
8.673218e-01:4.172485e-01:2.748581e-03:3.910874e-01:-3.139717e-01:1.119119e-01:2.323641e-01:-1.825093e-01:-1.243763e-01:6.337823e-01:-4.945505e-01:-4.698522e-02
2.146257e-01:-7.559061e-01:6.715079e-01:6.134989e-01:3.091084e-01:2.339809e-01:-3.599958e-01:-2.476449e-01:-7.543005e-02:3.461865e-01:1.752344e-01:2.268734e-01
2.992695e-01:6.604438e-01:4.683828e-01:-5.292658e-01:1.869263e-01:-1.682303e-01:2.632824e-01:1.414430e-01:2.526224e-01:-5.080014e-01:-3.209305e-01:-6.493803e-03
8.825719e-01:3.740669e-01:1.346621e-01:1.868352e-01:5.308989e-01:5.698463e-01:-7.173172e-02:-2.222870e-01:6.041770e-01:2.694442e-01:-1.516048e-02:4.709737e-01
5.356564e-02:-2.822770e-01:9.118443e-01:6.038219e-01:7.196975e-01:5.895847e-02:-1.873795e-01:-3.884317e-01:-1.364943e-01:8.467790e-02:1.860678e-02:2.562805e-01
5.725985e-01:1.938281e-02:-3.378895e-01:-7.684296e-02:-7.297315e-01:1.754592e-02:5.061527e-02:-3.888060e-01:-2.101427e-01:4.132417e-01:-2.665860e-01:-7.708310e-02
-4.573739e-01:5.506961e-01:-1.885968e-01:4.736962e-01:-3.254581e-01:-2.189376e-01:-3.228396e-01:2.753884e-01:2.029136e-01:1.966329e-01:5.213832e-01:4.068121e-02
-4.952621e-01:2.175647e-01:4.086215e-02:-2.133275e-01:1.321311e-01:4.186220e-01:5.865282e-01:1.312045e-01:2.082116e-01:-2.741514e-01:6.985372e-01:6.216147e-02
5.201581e-01:-1.827910e-01:5.504305e-01:-3.551246e-01:1.124574e+00:-2.336307e-01:2.159475e-01:-4.019247e-01:4.063517e-01:-2.621039e-02:3.605668e-01:3.180525e-01
-6.127569e-01:-1.371773e+00:8.015029e-01:2.680301e-01:-3.278487e-02:1.715192e-02:-5.645601e-01:2.140063e-01:2.495006e-01:-5.964047e-02:4.878671e-02:1.639514e-01
-9.056209e-01:4.925009e-01:-1.987192e-01:-1.942155e-01:-6.376895e-02:-6.806678e-01:1.921590e-01:1.113566e-01:2.038509e-01:2.336831e-03:1.330706e-01:-8.460022e-02
6.436042e-01:2.536103e-01:3.257868e-02:1.403774e-01:-4.555680e-01:2.048658e-01:4.956851e-01:-2.623309e-01:-4.346793e-01:2.993926e-01:-4.541542e-01:-2.571613e-01
4.035923e-01:1.327932e-01:-1.547221e-01:1.698031e-01:-7.964037e-03:-4.896346e-01:3.892809e-01:6.808202e-02:2.930610e-02:8.006377e-01:8.671768e-01:-1.858977e-01
-4.729402e-02:6.248807e-01:-5.193690e-03:-1.591372e-01:2.114106e-02:3.020847e-01:5.654639e-04:-3.273963e-01:6.573774e-02:-3.831093e-01:-1.882873e-01:2.622305e-01
1.644059e-01:-3.857262e-01:-1.744046e-01:-8.524203e-01:-4.621514e-01:3.643948e-01:2.672876e-01:-1.240132e-01:2.995274e-01:-2.076850e-01:-6.556827e-01:-1.831137e-01
7.246862e-02:-2.338627e-02:3.723821e-01:2.663701e-01:-2.256193e-01:3.072104e-01:4.463004e-01:-2.989040e-01:-6.217363e-01:8.614786e-02:-2.616613e-01:-2.739517e-01
2.987427e-01:-4.475916e-01:5.245547e-01:-2.052428e-01:6.255398e-01:-1.791136e-01:1.433506e-01:-3.386759e-01:1.828967e-02:-1.540908e-02:8.769692e-01:2.950266e-01
-1.356820e-01:4.442921e-01:-7.235304e-02:2.823019e-01:7.699859e-02:-7.191742e-01:5.294526e-01:-2.237384e-01:-2.479783e-01:7.438287e-01:3.071927e-01:-1.079247e-01
-7.238308e-01:1.915857e-01:-6.883520e-02:-8.740942e-02:1.333026e-01:-9.037334e-02:5.633844e-01:5.047984e-01:4.135208e-01:9.100338e-02:6.307978e-01:-1.993031e-01
6.314688e-01:-8.228269e-01:7.451224e-02:7.689881e-03:2.532800e-01:6.847854e-02:-6.317474e-01:-2.229405e-01:1.761029e-01:-2.703294e-02:-1.294809e-01:-3.662775e-01
-3.370503e-01:5.254698e-02:-3.023542e-01:2.391058e-01:-3.772225e-01:1.064339e-01:-4.389487e-01:2.546537e-01:5.516208e-01:3.403308e-01:6.746435e-01:3.214493e-01
2.391261e-01:-7.384886e-01:5.161695e-01:4.039188e-01:-1.036062e-01:9.457939e-02:-4.591707e-01:1.781046e-01:1.916412e-01:3.644560e-01:6.791335e-01:2.438520e-01
-3.300616e-01:-1.225367e+00:5.730574e-01:-2.138434e-01:1.577377e-01:-3.062818e-01:-2.950189e-01:-3.957827e-02:2.765137e-01:6.389124e-02:6.818454e-01:3.382380e-01
2.613266e-01:3.513777e-01:1.765832e-01:2.341282e-01:-3.758461e-01:-3.269853e-01:3.092923e-01:-4.686687e-01:-6.205289e-01:3.796761e-01:-1.741085e-01:-7.698196e-02
5.560481e-01:4.095603e-01:-2.654956e-01:-1.548828e-01:-8.489736e-02:5.965843e-01:3.908750e-03:-1.267298e-01:4.221926e-01:-7.430213e-02:8.222377e-02:2.442136e-01
-2.034515e-01:-4.564925e-01:-8.874106e-02:-7.236019e-01:-7.412026e-01:-6.812477e-01:-1.172143e+00:-6.302723e-01:-1.928120e-02:-6.416588e-01:-4.507373e-01:1.718742e-01
4.687323e-01:-1.158457e-01:1.079014e-01:-7.532669e-01:-5.216203e-01:-4.414011e-01:4.965471e-01:-3.249586e-03:4.429425e-01:5.368593e-01:-5.422855e-01:8.303346e-02
8.758035e-02:-3.753542e-01:9.297793e-01:-2.711868e-01:8.166780e-01:-5.166140e-01:7.059301e-01:-5.363944e-01:-4.436592e-01:-6.481368e-02:4.648317e-02:-1.333314e-01
-5.645854e-01:6.772974e-01:-2.983156e-03:5.675677e-02:2.114877e-02:3.974958e-02:4.310809e-01:8.401304e-03:2.059873e-01:2.736596e-01:-1.270756e-01:2.072640e-01
-6.778529e-02:2.084456e-01:-1.606364e-01:1.604123e-01:-6.779721e-01:2.647477e-01:-3.281952e-01:-1.213256e-01:1.333939e-01:3.249079e-01:-1.563871e-01:2.913657e-01
1.430850e-01:7.041250e-01:2.643034e-01:1.694369e-01:3.693173e-01:-4.445274e-01:2.297342e-01:2.334080e-02:-8.808400e-02:6.590508e-03:-4.905623e-01:-3.511744e-01
-1.875528e-01:2.044497e-01:-5.869915e-01:-4.117759e-01:-2.419637e-01:4.576589e-01:3.515455e-02:-1.061626e-01:4.668361e-01:-6.124801e-02:2.496415e-01:1.040461e-01
5.645552e-02:3.148505e-01:-2.936807e-01:-2.135083e-01:-7.029590e-01:-4.008635e-01:1.370103e-01:4.726516e-02:6.705814e-02:3.632588e-01:-3.132522e-02:-7.586689e-02
4.221865e-01:-7.757392e-01:2.267254e-02:-3.692836e-01:5.749350e-01:-6.606331e-02:-1.312331e-01:-1.751369e-01:4.547698e-02:-4.223073e-01:2.283093e-01:-6.881395e-01
-2.794647e-01:6.099221e-01:-2.029658e-01:3.956201e-01:1.660046e-01:3.397853e-01:-2.627171e-01:-1.632309e-01:2.591615e-01:-4.756884e-02:2.466114e-01:2.896990e-01
4.825398e-01:-2.067980e-01:3.107138e-01:-5.105149e-01:-8.769895e-02:-2.604271e-01:4.980260e-01:6.947262e-01:4.108605e-01:2.254649e-01:1.968374e-01:-5.319425e-01
-5.770173e-01:-1.228060e+00:6.457529e-01:-2.381216e-01:9.111574e-02:-3.878676e-01:4.149784e-01:-7.446055e-01:-6.218957e-01:3.404183e-01:7.329256e-02:6.161191e-02
-5.164019e-01:1.457180e-01:2.422260e-01:-1.922178e-01:-5.616358e-01:-3.263307e-01:-7.442441e-04:-1.164208e-01:9.277753e-02:6.242817e-02:4.855360e-01:5.899209e-01
-5.975411e-01:-1.510579e-01:-2.664949e-01:-2.177339e-01:-7.829057e-01:-1.555917e-01:1.226177e-01:1.711868e-01:7.041582e-02:2.818071e-01:-3.298686e-01:-3.287083e-01
4.075401e-01:2.937929e-01:-1.447295e-01:9.476405e-02:-4.368593e-01:3.525589e-01:-2.503355e-01:-1.894594e-02:1.525068e-01:-2.271894e-02:5.085877e-01:1.745694e-01
-3.344904e-01:1.598316e-01:6.108893e-01:8.456696e-01:5.357278e-02:3.912299e-01:-2.303543e-01:1.963942e-01:4.049964e-01:3.828513e-01:5.832781e-01:6.718987e-01
-5.022424e-01:5.413651e-01:-7.770208e-02:-2.257423e-01:1.428981e-01:1.366515e-01:2.398567e-01:3.748970e-01:8.337060e-01:-3.004092e-02:8.308535e-01:6.033487e-01
-4.367831e-02:-6.301782e-01:2.722375e-01:1.265232e-01:2.542120e-01:-2.030388e-01:3.367626e-01:5.674131e-01:4.279988e-02:3.228968e-01:4.310623e-01:-7.626324e-01
2.263758e-01:-1.423323e-01:5.697958e-01:4.597293e-01:2.911608e-01:-3.794331e-01:4.784361e-01:1.027623e-01:-5.945556e-01:3.342044e-01:5.091154e-01:-6.591386e-01
2.790211e-01:3.335470e-01:-1.961809e-01:8.374050e-02:-4.897013e-01:-4.500352e-02:3.106608e-01:-3.366347e-01:-4.199814e-01:2.397549e-01:-8.945734e-01:-2.283647e-01
-9.375913e-01:-9.518773e-01:-9.863619e-01:2.770077e-01:3.823341e-02:-4.399776e-01:1.034905e-01:-5.213944e-01:2.141984e-01:1.397243e+00:3.184604e-01:5.501788e-02
4.799787e-01:-5.235873e-01:2.725818e-01:-5.694029e-01:-4.416653e-01:-4.978315e-01:3.213879e-01:6.728439e-02:-1.110870e-01:1.858821e-01:-9.279276e-01:-7.466507e-01
-2.089872e-01:5.903544e-01:-5.939596e-01:-8.765389e-02:-3.121160e-01:-3.715637e-01:-4.070406e-01:-1.489772e-01:2.908428e-01:-3.374583e-02:2.684096e-01:8.354568e-02
-5.348890e-02:5.224779e-01:-3.544311e-01:3.772975e-01:3.567956e-01:-5.871990e-01:4.405180e-01:7.838068e-02:2.290456e-02:7.277657e-01:4.565960e-01:-4.481483e-01
2.083133e-02:4.153354e-01:-4.703140e-01:-2.339759e-01:-3.113099e-01:-1.945820e-01:-7.505978e-02:-8.287626e-02:6.133111e-01:4.541862e-01:-1.166087e-01:3.416898e-01
3.609715e-01:4.131877e-01:-7.968014e-02:-6.447166e-01:-3.906220e-01:-6.674240e-03:2.470250e-01:1.553754e-01:4.600510e-01:-1.075107e-01:-5.152394e-01:-1.237707e-02
-3.812957e-01:6.841942e-01:-6.437005e-01:-4.213460e-02:-2.536992e-01:-5.189221e-01:-5.211552e-01:-3.743917e-01:-6.148421e-02:-1.491729e-01:-1.529924e-01:-1.008735e-01
-8.087146e-02:-1.035674e+00:1.425689e-01:2.336253e-01:-1.693085e-01:-5.928819e-02:-7.882525e-01:1.176274e-01:3.411749e-01:3.175847e-01:8.163479e-02:-9.132212e-02
-2.563488e-01:-1.698727e-01:-5.219857e-01:-4.940046e-01:-8.143868e-01:-3.395131e-01:-3.661280e-01:2.304766e-02:3.935086e-01:2.235564e-01:-2.269480e-01:-1.107028e-02
8.117294e-03:3.506024e-01:-5.960811e-01:-4.894697e-01:-2.222363e-01:1.307672e-02:-3.286927e-02:1.882023e-01:2.132685e-01:-1.916320e-01:2.284676e-01:-3.983523e-01
-3.256368e-01:6.159980e-02:-3.868361e-01:-2.471869e-02:-8.879426e-01:-1.214528e-01:-5.597982e-01:-2.397302e-01:2.412402e-02:1.229538e-01:-2.181349e-03:1.117475e-01
3.727709e-01:5.363727e-01:-3.825327e-01:8.699403e-02:2.776864e-01:-1.131143e-01:-2.855229e-01:-5.960729e-01:-5.781766e-02:-7.766645e-02:-1.968904e-01:-4.898769e-02
-8.971696e-02:5.377687e-01:-5.562149e-01:-1.835191e-01:3.504362e-01:-3.452328e-01:5.019580e-01:-1.384910e-01:-6.683282e-03:7.828290e-02:3.492107e-01:-5.110759e-01
-3.908569e-01:-5.442418e-01:-9.913604e-02:-9.162657e-01:-4.291058e-02:-5.921790e-01:-5.376592e-01:-3.940094e-01:3.752645e-01:-5.352603e-01:3.333516e-01:2.666997e-01
1.072433e-01:3.336951e-02:-3.352481e-01:-2.101657e-01:8.314605e-01:-4.701892e-01:7.455742e-01:-4.160446e-03:3.825372e-01:6.317374e-01:8.728409e-01:-4.028763e-01
-2.597699e-01:4.038095e-01:-1.299559e-01:4.287248e-02:-3.486961e-01:1.244102e-01:5.208077e-01:-3.357508e-02:-9.785216e-02:3.694446e-01:-1.210647e-01:-9.644087e-02
4.544957e-01:-1.647051e-01:1.416202e-01:1.012600e-01:-3.600661e-01:-1.421770e-01:3.085525e-01:-7.068368e-01:-6.515374e-01:5.047440e-01:-1.568010e-01:-2.396133e-02
-3.133955e-01:-9.810625e-01:1.855850e-01:2.735547e-02:3.526825e-02:-2.939605e-01:-8.819177e-01:3.504342e-01:5.034772e-01:-9.967105e-02:-4.918425e-01:-4.983539e-01
-5.641266e-01:-3.349509e-01:6.648736e-02:2.151621e-01:1.291474e+00:-2.404519e-01:1.699888e-01:2.443909e-01:7.342169e-01:2.938034e-02:2.696638e-01:-3.522643e-01
6.270262e-01:7.942342e-02:-3.549142e-01:-3.230757e-01:-5.628774e-01:-2.437722e-01:-1.755217e-02:-1.602978e-01:3.792772e-02:1.720856e-01:-8.995581e-01:-3.963896e-01
8.871739e-03:4.652928e-01:-2.799748e-01:-2.311430e-02:-1.672687e-01:4.271742e-01:3.212861e-01:-2.901959e-01:1.714798e-01:3.692640e-01:-4.248637e-02:3.506436e-01
2.420580e-01:4.946233e-01:-1.881147e-01:-2.438704e-02:-1.536000e-01:3.735485e-01:-3.184004e-01:-3.587776e-01:1.452151e-01:-3.291767e-01:-1.853937e-01:1.866789e-01
-4.235910e-01:3.565962e-01:2.431331e-01:4.515586e-01:-1.891070e-01:-7.402130e-02:1.549632e-01:-4.235519e-01:-4.565335e-01:2.481928e-01:1.711907e-01:2.457281e-02
7.688111e-02:1.494788e-01:1.557698e-01:5.297076e-02:-6.159316e-01:3.149683e-01:2.406150e-01:-2.628316e-01:-3.815180e-01:1.427076e-01:5.409337e-02:1.069910e-01
-5.584837e-02:6.363093e-01:-2.109669e-01:-8.600851e-02:-2.105197e-01:3.466185e-01:4.014176e-01:-9.450588e-02:1.531564e-01:4.183863e-02:-4.208534e-01:1.169114e-01
-7.733328e-01:2.789132e-01:-1.554380e-01:-2.857808e-01:-4.010830e-01:1.804827e-01:6.351206e-02:-3.340852e-01:4.386541e-02:-2.105070e-01:-1.997816e-01:2.658501e-01
-7.353460e-01:1.948587e-01:-2.128092e-01:-7.687943e-02:-5.374482e-01:-3.434790e-01:-2.917167e-01:1.559798e-01:4.944563e-01:2.798793e-01:-1.981739e-01:3.091772e-01
-6.128541e-01:1.352223e-01:4.273157e-01:2.739097e-01:-1.150522e-01:1.517422e-01:-1.612580e-01:-2.699471e-01:-1.074586e-01:-1.529340e-01:2.970487e-01:4.444066e-01
3.846819e-01:2.482497e-02:-3.767471e-01:-1.018396e-01:-5.236810e-01:3.241252e-01:1.510372e-01:-1.210874e-02:1.933719e-01:3.805063e-01:4.409697e-02:-1.067059e-01
-2.914434e-01:-1.564693e+00:4.642520e-01:-4.427070e-01:1.298729e-01:-5.777537e-01:-7.550742e-01:2.774513e-01:7.682692e-01:6.124682e-02:-5.396298e-02:-1.882554e-03
4.162761e-01:-3.800634e-01:8.740348e-03:1.120453e-01:-3.788879e-01:8.334250e-02:9.318610e-02:5.225635e-01:2.088318e-01:5.218043e-01:-8.408196e-02:-6.355857e-01
-1.527513e-01:1.850072e-01:-6.845530e-01:5.411987e-02:2.537275e-01:-9.225702e-02:-5.545850e-01:-4.810834e-02:3.871633e-01:-2.539710e-01:6.928195e-01:-3.262368e-01
2.098096e-01:4.604226e-01:-4.292139e-01:-1.496902e-01:-3.538717e-01:-2.040273e-01:-5.980922e-01:-1.206089e-01:3.565229e-01:-9.040637e-02:-3.552805e-01:6.370462e-03
-6.590132e-01:1.648354e-01:1.103570e-01:4.962743e-01:-3.663258e-01:2.999535e-02:-5.985978e-01:2.252856e-01:3.781907e-01:2.031019e-01:7.370067e-02:3.070031e-01
-4.128876e-01:-1.392493e-01:-2.463764e-01:2.897656e-01:-1.980336e-01:3.802862e-01:-4.675684e-01:4.464720e-01:7.432358e-01:2.601280e-01:9.408810e-02:3.240718e-02
2.565413e-01:4.862591e-01:1.733867e-01:-1.082790e-01:-5.481541e-01:1.376494e-01:5.894912e-01:-4.901173e-02:-7.736421e-02:3.558539e-01:1.815124e-01:3.327698e-01
-6.111903e-01:-1.117191e-01:2.008518e-01:5.618430e-01:1.000459e+00:-3.772844e-01:2.573159e-01:-7.034310e-01:-1.642998e-02:6.564607e-01:7.493331e-01:4.907774e-01
-1.360400e-01:4.839198e-01:1.254741e-01:3.917989e-01:-2.499960e-01:-2.160189e-01:-2.715167e-01:-1.453384e-01:-1.444006e-01:1.855559e-01:-1.487404e-01:9.604572e-02
4.074989e-01:3.464710e-01:-1.730223e-01:-6.317441e-01:-1.325307e-01:2.098428e-01:-6.967615e-02:3.348131e-02:5.067431e-01:-4.562891e-01:-3.486382e-01:-8.648559e-02
8.461819e-02:2.862630e-01:-2.372925e-01:-2.516228e-01:-5.989994e-01:4.670087e-01:1.105291e-02:-2.218902e-01:1.665802e-01:-1.218554e-01:-6.736304e-01:1.724802e-01
-1.675586e-01:-2.374613e-01:3.772244e-02:-5.233612e-01:-6.533467e-01:-4.596979e-01:-4.759604e-01:-7.832172e-01:-4.540391e-01:-3.323638e-01:-2.528396e-02:3.245061e-01
-3.577543e-01:1.674148e-01:-4.339914e-01:-8.521488e-01:-6.256570e-01:-2.948227e-01:-9.654564e-02:-3.069706e-01:7.264467e-02:-4.940912e-01:1.249784e-01:2.947886e-02
-2.031196e-01:2.209434e-01:2.818484e-02:1.324260e-01:-2.977887e-01:2.666923e-01:4.721690e-01:2.298138e-02:3.256764e-01:7.517412e-01:-2.872055e-01:3.112074e-01
3.315489e-01:-5.113666e-01:4.310817e-01:2.086334e-01:-2.211928e-02:-2.569171e-01:-2.524707e-01:-2.569514e-01:-1.842375e-01:3.112560e-01:7.868536e-01:2.160138e-01
2.722345e-01:-3.014695e-01:8.342195e-01:3.081196e-01:5.938376e-01:-7.482275e-02:-1.371346e+00:1.444926e+00:1.429598e+00:-7.287897e-01:2.049428e-01:-2.870935e-01
1.673314e-01:2.554596e-01:-4.754379e-01:-4.462042e-01:-6.222599e-01:2.363156e-01:3.320405e-01:9.960091e-02:3.609715e-01:2.161544e-01:-1.244276e-01:-7.673066e-02
-2.086623e-01:-3.139944e-01:2.034244e-02:-1.721060e-01:5.329785e-01:-3.919781e-02:-5.313936e-01:1.457703e-01:1.080138e+00:-1.871149e-03:5.127922e-01:5.979978e-01
-1.510029e-01:2.180596e-01:-3.350052e-01:-2.857452e-01:-3.635767e-01:1.338068e-01:2.755744e-01:9.321355e-02:2.419273e-01:1.072366e-01:-8.191651e-01:-3.634662e-01
-2.203053e+00:-2.876682e-01:-1.663768e-01:-7.928367e-01:-1.693229e-01:-1.220698e+00:1.418618e+00:1.118043e+00:1.240373e+00:9.862832e-01:1.036792e+00:7.635851e-01
4.344312e-01:4.169170e-01:-3.642471e-01:-2.649802e-01:-3.150773e-01:-1.180046e-01:3.396922e-01:9.645478e-02:1.305600e-01:2.068856e-01:-4.779698e-01:-4.429203e-01
-4.036850e-01:-8.823655e-01:7.070714e-01:-1.679488e-01:1.842321e-01:-6.192373e-01:-4.923052e-01:-1.592735e-01:1.916990e-01:-1.822896e-01:5.668814e-01:4.878631e-01
2.032424e-01:1.607999e-01:8.662828e-01:9.238827e-01:4.331316e-01:-2.726348e-01:-3.012190e-01:4.155703e-01:4.518902e-01:7.171440e-01:-1.176974e-01:2.141287e-01
-2.939008e-01:-2.071914e-01:-1.883510e-01:-1.958914e-01:-1.083605e+00:-2.241644e-01:-3.386002e-01:3.910598e-01:2.141394e-01:2.232760e-01:-7.151319e-02:-1.992350e-01
-2.207816e-01:-1.381311e-01:-4.312703e-01:-8.808265e-01:-7.996372e-01:-6.761969e-01:-3.003641e-01:-3.004634e-01:1.829838e-01:-1.127411e-01:-3.510410e-02:1.510257e-01
-4.877453e-01:-1.158297e+00:7.401334e-01:2.493140e-01:4.202875e-01:-5.367844e-01:-3.803710e-01:-2.552047e-01:-3.365738e-01:-2.029877e-01:-7.466987e-01:-6.775837e-01
-3.289523e-01:4.003531e-01:-7.426591e-02:-1.956593e-01:9.897769e-02:1.837342e-01:3.857734e-01:2.302058e-02:-1.048276e-01:-4.341396e-01:-8.256664e-02:-4.261758e-01
1.230223e-01:4.615065e-01:4.286053e-01:-9.907424e-02:2.319458e-01:-7.744752e-02:-2.139764e-01:-3.594207e-01:-9.743488e-02:-5.091190e-01:-2.855699e-02:2.543674e-01
-1.961300e-01:2.150021e-01:-4.272103e-01:-3.237113e-01:1.995221e-01:3.803752e-01:1.818843e-01:2.670936e-01:5.054057e-01:-3.474822e-01:2.297151e-01:-3.576230e-01
-4.310270e-01:3.691955e-01:2.412518e-01:2.010708e-01:-5.236359e-02:-1.125491e-01:-2.580765e-01:-3.947257e-01:-3.657421e-01:-3.469889e-01:-2.512258e-01:-4.060401e-02
1.183822e-01:2.983031e-01:-4.753091e-01:-1.175722e-01:3.600947e-01:5.409912e-01:-3.883418e-02:3.151663e-01:1.002291e+00:9.075172e-02:3.393277e-01:1.221641e-01
-4.652836e-02:9.152368e-02:-3.965983e-01:-2.217260e-01:-3.179353e-01:3.625419e-01:3.188671e-01:1.753325e-01:8.512557e-02:-6.816698e-02:3.946857e-01:-4.364824e-01
-4.548308e-01:2.789484e-02:8.111357e-02:3.421755e-01:-1.649174e-02:-4.289892e-01:-9.089416e-01:1.278281e-01:9.494906e-02:-3.307792e-01:-2.357002e-01:-3.978338e-01
-2.480341e-01:3.578562e-01:-1.093721e-02:-2.012876e-01:3.365048e-01:1.576280e-01:-6.772326e-02:-1.340791e-01:1.357415e-01:-6.380150e-01:-5.280572e-01:-2.713979e-01
4.430606e-01:1.301997e-01:9.542987e-02:-5.422660e-01:-5.102699e-02:-2.504508e-02:9.847063e-02:5.916255e-01:5.558289e-01:-2.960285e-01:4.801390e-01:-3.516127e-01
-7.547953e-01:6.426465e-02:1.549925e-01:-2.139317e-03:6.745268e-02:-2.851433e-01:-3.919008e-01:2.153719e-01:7.325478e-03:-7.476383e-01:1.808654e-01:-4.183594e-01
1.756095e-01:1.729691e-01:2.109681e-01:2.811181e-01:-7.428992e-02:-7.673174e-02:-7.552368e-01:-2.997369e-01:-1.020743e-01:-2.511752e-01:-4.040579e-01:-4.758554e-02
-1.786555e-01:1.522292e-01:1.565069e-01:-4.049970e-01:6.190230e-01:-2.608974e-01:1.499263e-02:1.155770e-01:4.347643e-01:-5.210809e-01:7.545564e-01:2.009464e-02
-6.491706e-01:-1.907395e-01:-6.301746e-01:-4.716898e-01:-1.454873e-01:-2.314123e-01:-6.182740e-02:3.920823e-01:6.535386e-01:2.287162e-02:2.130869e-01:-3.699929e-01
3.972172e-01:3.954405e-01:1.469554e-01:-1.198273e-01:5.716437e-01:6.157336e-02:-4.151042e-01:-2.800295e-02:7.637731e-01:-1.038835e-01:-3.099855e-02:3.351383e-01
-3.313906e-01:2.487069e-01:3.401491e-01:-5.134801e-01:4.336483e-01:-8.282899e-01:6.903070e-02:-2.765179e-01:-1.030117e-01:-5.095412e-01:1.332761e-01:-3.314520e-02
-7.859636e-02:2.724245e-01:3.209798e-01:-8.588056e-02:7.128153e-01:-4.388374e-01:-3.307829e-01:1.482543e-01:3.528753e-01:-5.692819e-01:1.035366e-02:-2.644540e-01
2.785065e-01:1.626528e-01:-1.763251e-01:-4.504046e-01:-7.063820e-02:-1.729795e-01:-5.609900e-01:-5.000769e-01:3.449436e-02:-4.936181e-01:1.279834e-01:6.914249e-02
-1.380563e-01:3.607862e-01:9.450244e-01:5.112270e-01:5.062242e-01:3.382274e-01:1.787901e-01:2.337618e-01:1.027133e-01:-2.244682e-01:6.864782e-01:4.011850e-01
-2.280586e-01:5.181459e-01:3.182280e-01:-1.453331e-01:-1.679020e-01:2.155520e-02:4.220475e-01:-1.127919e-01:-2.675417e-01:-2.894878e-01:8.215926e-02:4.686153e-02
2.841581e-01:2.253319e-01:2.990640e-01:8.825222e-02:6.433077e-01:1.461996e-01:-2.817238e-01:5.442081e-02:2.906279e-01:-4.729668e-01:5.986360e-01:-4.956581e-03
1.286579e-01:-1.552378e+00:-1.013709e+00:-1.279354e+00:-1.228786e-01:2.190946e-01:4.865931e-01:-1.828954e-01:-4.397669e-01:-7.191818e-01:-1.209956e-01:2.264888e-01
5.008646e-01:-4.516780e-01:-2.059127e-01:-5.108896e-01:-1.370780e-01:5.723587e-01:1.554375e-01:-3.497384e-01:1.097599e-01:6.003267e-02:1.462695e-01:4.440624e-02
-1.146597e-01:-5.401651e-01:1.722885e-01:1.959609e-01:-1.353318e-01:2.845201e-02:-8.890724e-01:-1.257116e-01:4.872407e-01:1.498401e-01:1.944320e-01:4.795604e-01
3.528162e-01:3.678168e-01:8.623333e-02:3.706740e-01:-2.033089e-01:4.865004e-01:-1.143765e-01:-2.919655e-01:2.299581e-02:2.787080e-01:1.136566e-01:4.308503e-01
8.297504e-01:2.828755e-01:4.815226e-01:1.409331e-01:-1.590501e+00:8.951548e-01:6.538306e-01:8.878293e-01:-2.447069e-01:6.307620e-01:2.330924e-01:3.578869e-01
3.168509e-01:-4.825515e-01:9.991539e-02:-4.565611e-01:1.849441e-01:5.152364e-01:3.963914e-01:-5.439737e-01:-3.688154e-01:-3.406523e-01:3.270119e-01:-8.980460e-02
1.477464e-01:-4.360021e-01:-1.943696e-01:-6.185059e-01:-9.638694e-02:2.191581e-01:1.202848e-01:-6.324720e-01:-2.576615e-03:-2.248614e-02:4.300749e-01:2.244978e-01
2.871042e-01:-7.472298e-01:4.917740e-02:-4.935309e-01:-3.470660e-01:-8.081342e-02:7.896811e-01:-7.138157e-01:-1.775653e-01:1.021483e+00:1.847215e-01:2.608243e-01
2.488968e-01:-2.860262e-01:-3.842672e-01:-8.399936e-01:-8.698823e-02:2.391359e-01:2.886117e-01:-2.062555e-01:4.021360e-01:-2.527372e-03:3.770222e-01:5.100919e-02
3.563403e-01:-7.224501e-02:-8.249275e-02:-4.105769e-01:1.866255e-02:2.274922e-01:2.474961e-01:-6.655334e-01:-8.702680e-02:1.228685e-01:4.073586e-01:3.783447e-01
1.706716e-01:3.995527e-01:1.772091e-01:1.905046e-01:-1.778520e-01:2.063381e-01:4.919735e-01:-1.816718e-02:-4.893246e-02:-4.076943e-02:1.822132e-01:3.397176e-01
-1.302673e-01:5.535506e-02:2.438444e-01:-7.160276e-01:-7.026951e-02:-4.477931e-01:-1.967876e-02:6.098392e-02:3.022284e-01:4.872319e-02:2.925949e-01:-1.817039e-01
9.450573e-02:-1.743166e-01:-2.820453e-01:-8.613225e-01:5.501837e-02:6.613294e-02:1.274303e-01:-5.636309e-01:2.960688e-01:-1.588683e-01:1.418919e-01:2.693116e-01
-6.817693e-02:4.509832e-02:3.131566e-01:-5.714663e-01:1.326662e-01:4.769649e-02:3.033397e-01:-2.462094e-01:1.711168e-01:-2.825512e-01:6.662745e-01:4.752507e-01
3.147916e-01:-2.901776e-01:8.407516e-02:-9.085026e-01:-8.277557e-02:5.824113e-02:6.692150e-01:-2.128182e-01:1.247034e-01:1.166005e-01:2.578224e-01:4.616353e-02
-4.930947e-02:-1.014886e-01:-1.931743e-02:-9.489125e-01:2.035911e-01:-2.738845e-01:2.567736e-01:-5.270936e-01:2.685188e-01:-2.053098e-01:1.737762e-02:2.220847e-01
-9.754366e-02:-3.784134e-01:-3.726872e-01:-8.643580e-01:1.571269e-01:-3.838317e-01:2.576426e-01:-6.351410e-01:1.209675e-01:1.092434e-01:4.291867e-01:1.132039e-01
-2.806887e-01:-4.490880e-01:7.672134e-01:-2.452981e-01:6.949025e-03:1.812600e-01:5.075857e-01:-5.775094e-01:-3.590971e-01:3.164726e-02:2.214784e-01:5.546067e-01
-3.381706e-01:-6.479121e-01:5.995859e-01:1.056362e-01:1.141349e-01:-3.088647e-01:-3.854123e-01:-2.031983e-01:1.014476e-01:4.895081e-02:-2.079311e-01:-5.263112e-01
-2.165533e-02:6.504576e-01:-4.660892e-01:-2.781939e-01:-3.213533e-02:4.219396e-01:2.754810e-01:5.591072e-02:6.014415e-01:-7.522842e-02:4.278497e-01:3.601106e-01
2.577520e-02:-1.976147e-01:4.346719e-02:-6.292602e-01:1.931405e-01:2.666162e-01:5.426064e-01:-3.712054e-01:-3.960570e-03:-1.001059e-01:4.038020e-01:1.819512e-01
2.014314e-01:-2.662045e-01:-2.021015e-01:-6.374207e-01:3.396473e-02:4.676935e-02:1.812169e-01:-4.055774e-01:1.738854e-01:1.316213e-01:6.044121e-01:2.669654e-01
-3.120663e-01:1.569251e-01:1.844414e-01:-5.253238e-02:-5.015779e-01:-2.719431e-01:1.936054e-01:-3.033329e-01:-4.408493e-01:2.297629e-02:3.904889e-01:1.547584e-01
2.657452e-01:-3.503965e-01:9.492277e-02:-7.715663e-01:-3.339294e-01:2.487834e-02:3.011181e-01:-3.101313e-01:-4.669690e-02:-1.291429e-01:5.547811e-01:1.227492e-01
-1.019131e-02:-1.182105e-01:-1.336873e-01:-3.860493e-01:-3.130071e-01:3.579718e-01:6.878160e-01:-2.206087e-01:7.069884e-02:3.751894e-01:1.642432e-01:1.019072e-01
5.692914e-01:-2.420279e-01:-3.712760e-02:-6.336366e-01:-1.741125e-01:1.188131e-01:3.316299e-01:-3.716579e-01:1.914772e-01:3.420517e-01:3.361074e-01:3.031785e-01
-9.213767e-02:-3.717712e-01:-1.803317e-01:-8.999662e-01:-8.947614e-02:1.126365e-01:1.304584e-01:-4.964177e-01:1.518924e-01:-3.836762e-01:2.942924e-01:1.922467e-01
-9.939212e-02:-1.380383e-01:-3.605338e-02:-6.366745e-01:9.567326e-02:4.732409e-02:4.081547e-01:-4.832657e-01:1.612995e-01:1.807191e-01:2.283211e-01:3.606154e-01
2.545922e-01:-7.557204e-03:-1.788833e-01:-6.395330e-01:-6.982309e-02:1.158085e-01:2.305193e-01:-5.521732e-01:1.573667e-01:6.661258e-03:-8.056686e-02:2.459837e-01
-2.166388e-01:1.089594e-02:-2.747768e-01:1.409486e-01:-4.647678e-01:2.627346e-01:-1.116845e-01:8.749223e-02:-2.203446e-01:2.740097e-01:-2.089272e-01:-1.731700e-02
2.382456e-01:-3.144025e-01:-6.638685e-02:1.754238e-01:-6.309236e-02:-3.342881e-02:-2.283350e-01:-3.357349e-01:3.709586e-02:-3.187335e-01:-7.022725e-02:-2.905478e-01
-5.680315e-02:-4.038426e-01:1.446544e-02:-8.395690e-01:1.503290e-01:-1.746386e-01:2.882806e-01:-6.354800e-01:7.023747e-02:-6.038399e-02:2.635516e-01:2.933656e-01
-8.406144e-02:-7.074195e-01:1.878475e-01:-7.913065e-01:-1.656407e-01:3.701762e-01:8.660678e-01:-1.384497e-01:-4.097188e-02:1.184603e-01:-5.108788e-03:-1.180233e-01
2.070236e-01:-7.353954e-01:7.879264e-02:-6.394629e-01:-5.149372e-01:4.865505e-01:5.038449e-01:-3.675363e-01:-5.711872e-02:3.009256e-01:-1.221550e-01:1.281247e-01
-5.495062e-01:-4.487907e-01:4.942105e-01:-5.624031e-01:1.019276e-01:1.345012e-01:9.032378e-01:-3.365785e-01:-3.933935e-01:-2.625959e-01:1.751132e-01:-9.536000e-02
-3.982677e-02:-1.361877e-01:3.684328e-01:-1.376203e-01:-4.394701e-01:8.814669e-02:1.909332e-01:7.555869e-02:-1.076183e-01:1.819543e-03:2.147141e-01:1.314439e-01
6.852964e-02:-6.086726e-02:2.865503e-02:-7.165644e-01:1.403774e-01:1.415662e-01:5.975283e-01:-2.979994e-01:2.846068e-01:3.094795e-02:4.636577e-01:3.336635e-01
1.051061e-01:-1.372562e-01:-3.196674e-02:-9.163283e-01:-9.620377e-02:-1.277029e-01:6.835454e-01:-1.890562e-01:1.138882e-01:2.684786e-02:2.916265e-01:-9.416956e-02
-5.508981e-02:-2.719910e-01:2.089750e-01:-8.067035e-01:1.596466e-01:1.859512e-01:9.180800e-01:-2.926562e-01:-8.659443e-02:-4.988430e-02:2.363351e-01:-3.980241e-02
2.027156e-01:-3.209140e-01:3.289877e-01:-8.013664e-01:-5.147161e-02:3.620581e-02:7.200685e-01:-5.741836e-01:-2.175483e-01:5.310633e-02:6.790610e-02:1.856833e-01
-1.607512e-01:-3.042467e-01:4.731424e-01:-4.290371e-01:-8.376533e-02:2.924149e-01:8.132012e-01:-5.988560e-01:-3.748098e-01:1.487346e-01:-2.122295e-01:2.256414e-01
-3.344741e-01:3.618769e-01:-3.071159e-01:-2.909506e-01:-2.159233e-01:2.935967e-01:8.624532e-02:-2.553036e-01:2.378291e-01:-7.079770e-02:2.146323e-01:3.609682e-01
-5.126418e-01:-5.959853e-01:3.403503e-02:-5.878620e-01:-1.130625e-01:-3.433430e-01:-2.726727e-01:-2.540574e-01:-1.486211e-01:-6.542152e-01:7.641029e-01:-3.246931e-02
-2.073780e-01:-8.959429e-02:8.888227e-02:-3.087818e-01:-4.923387e-01:2.178590e-01:3.128878e-01:-3.372521e-01:-5.709623e-02:-2.773498e-02:-3.247585e-01:7.397561e-02
4.375582e-01:1.313614e-01:1.233972e-01:-2.659019e-01:-2.604285e-01:-1.265916e-01:-6.305210e-02:3.314416e-01:2.788277e-01:-5.175605e-02:1.834948e-01:1.079875e-02
-3.325821e-01:6.542624e-01:-4.297495e-01:6.262978e-01:7.803748e-01:-4.850442e-01:-1.935791e-01:1.131233e-01:3.831939e-01:5.388260e-01:4.140843e-01:-4.393057e-02
-1.192955e-01:-7.197066e-01:-4.099779e-01:-3.045922e-01:-4.041434e-01:-2.229591e-02:-3.136253e-01:1.696321e-02:1.743909e-01:1.648768e-01:8.502321e-01:-9.327128e-02
-2.093254e-01:-6.863382e-02:1.695600e-01:-1.193746e-03:-5.629036e-01:6.629219e-02:4.345133e-02:-5.068138e-01:-3.240725e-01:2.180823e-01:-6.043562e-01:2.296314e-01
-2.820079e-01:-1.580416e-01:4.268381e-01:1.133615e-01:-4.560921e-01:3.178661e-01:8.105762e-01:-6.723571e-02:-4.451484e-01:4.432733e-01:-6.337276e-02:-1.801113e-01
-2.100960e-01:-1.422240e-01:6.505042e-01:2.295100e-01:-4.479628e-01:3.702907e-01:2.556932e-01:-1.954666e-01:-3.598484e-01:1.555279e-01:-1.113983e-02:3.102835e-01
2.391839e-01:-5.563434e-01:5.393048e-01:-8.380885e-01:4.718707e-01:3.121273e-01:7.225879e-01:4.165531e-01:1.014501e+00:2.414501e-01:5.993811e-01:2.754730e-01
3.356513e-01:1.171465e-01:-2.358650e-01:3.645311e-02:1.860038e-01:-8.374611e-02:-2.422651e-01:-3.624384e-01:3.099860e-01:3.265952e-01:9.146994e-01:5.605565e-01
1.167819e+00:4.391063e-03:-1.486406e-01:4.720518e-02:6.780334e-03:3.075036e-02:1.338453e-01:-2.348328e-02:1.507194e-01:5.868043e-01:-2.541174e-01:-3.085813e-01
2.553682e-03:-9.179857e-02:-1.410834e-01:-2.610018e-01:-6.630446e-01:-1.343717e-02:-8.222422e-02:-7.144253e-01:-4.644573e-01:-4.946750e-02:-3.611400e-01:4.509773e-02
-4.050934e-01:2.287357e-01:-1.832415e-01:5.803510e-02:-6.535933e-01:-1.526425e-01:1.077487e-01:2.925863e-02:-1.619491e-02:4.420232e-01:2.510409e-01:-4.630393e-03
4.039099e-03:-1.175355e+00:3.367595e-01:-1.089257e-01:-1.659111e-01:4.807706e-03:-8.144126e-01:-8.025408e-02:-2.530111e-01:-5.636504e-01:-2.306505e-01:-1.081266e+00
-8.287553e-02:-1.543109e-01:-5.100740e-03:-7.253329e-01:-5.809653e-01:9.376544e-02:2.293872e-01:-3.132501e-01:2.360530e-01:-1.064602e-01:-7.075334e-01:9.853959e-02
4.982769e-01:3.471265e-01:3.311645e-01:1.340794e-01:-6.152963e-01:3.560473e-01:5.868309e-01:1.423913e-01:6.384512e-02:7.068230e-01:-3.526845e-01:3.033530e-01
-2.531409e-01:-9.366035e-02:3.731954e-02:-3.485151e-01:-4.062453e-01:2.467309e-01:3.299522e-01:-3.601970e-01:-5.891673e-02:1.073158e-01:-5.350974e-01:2.074591e-01
-2.075657e-01:1.548031e-01:7.103022e-02:-1.446610e-01:-2.432630e-01:2.020084e-01:2.652580e-01:-4.760306e-01:1.921748e-02:1.693061e-01:-4.824643e-01:3.577197e-01
-1.154943e-01:-3.541656e-01:3.955598e-02:-6.626788e-01:5.157729e-01:1.306875e-01:3.876941e-01:-3.630072e-01:5.786601e-01:4.373355e-02:1.897352e-02:2.475503e-01
3.056628e-01:3.522507e-01:-2.123971e-01:1.501647e-01:-2.071363e-01:2.249484e-01:2.323422e-01:-6.422454e-01:-4.566983e-01:1.570413e-01:-4.044821e-02:3.284443e-01
-2.540950e-02:-4.552643e-01:4.305748e-01:-1.309771e-01:-5.286442e-01:1.639881e-01:1.749044e-03:-3.519807e-01:-4.949574e-01:-8.400055e-02:-6.710657e-02:2.683542e-01
2.583350e-01:5.954139e-01:-2.470778e-01:2.778443e-01:5.488597e-01:-7.122327e-01:-1.391896e-01:2.619358e-01:3.639340e-02:8.925541e-02:-1.062619e-01:-6.346368e-01
1.422091e-01:3.386254e-01:-2.899026e-01:5.485386e-01:1.378479e-01:-7.415763e-02:1.347991e-01:-1.131074e-01:-1.875212e-01:4.743709e-01:3.260773e-01:-5.062473e-01
-8.900293e-02:4.474229e-01:1.473677e-01:4.180120e-01:-2.871110e-01:1.810173e-01:-2.755482e-02:3.867316e-01:5.033816e-01:3.810863e-01:4.586178e-01:1.940933e-01
9.111744e-01:1.149496e-01:-5.631255e-01:-2.717085e-01:3.532301e-01:2.692820e-03:6.157816e-01:-2.368872e-01:-1.177194e-01:1.901424e-01:-2.301240e-01:-4.665569e-01
2.918453e-01:2.573083e-01:-1.868911e-02:8.623160e-02:-6.959422e-01:1.504938e-02:3.022178e-01:-1.137321e-01:-2.409868e-01:2.123312e-01:-3.761650e-01:1.940859e-01
3.958156e-01:-5.031124e-02:-9.620537e-02:-2.076774e-01:-2.866128e-01:1.875570e-01:3.140207e-01:-1.808033e-01:-8.384368e-02:3.675947e-01:7.038303e-02:2.196888e-01
2.975872e-01:1.559666e-01:-3.889752e-02:2.068284e-01:5.962304e-01:-7.892438e-01:3.517267e-02:6.899758e-01:3.094399e-01:6.755128e-01:2.606190e-01:-3.603687e-01
3.208597e-01:4.423501e-01:-5.895792e-02:-7.815803e-02:-5.457492e-01:3.602433e-01:-5.234259e-02:-8.352362e-02:-1.682400e-02:-1.684690e-01:-5.706356e-02:5.797814e-01
1.842674e-01:-9.545047e-02:8.898836e-01:-7.223459e-02:1.851526e-01:2.776459e-01:2.916809e-01:2.425955e-01:-1.390975e-01:-1.333441e-01:-1.449635e-01:-1.356655e-01
-6.166648e-02:1.799634e-01:-3.281756e-01:1.693758e-01:-1.383593e-01:-4.138112e-01:-2.425962e-01:-1.839180e-01:-1.561672e-01:2.512324e-01:2.514745e-01:-4.381279e-01
-3.250572e-01:1.959741e-01:-3.171201e-01:-1.433174e-01:-4.128444e-01:-1.944620e-01:-4.793541e-02:-1.796019e-01:-4.306974e-02:1.572072e-01:-2.491567e-02:-2.058508e-01
-2.760527e-01:4.517871e-02:1.892694e-01:3.743668e-01:-8.706779e-02:-6.224164e-01:-1.408158e-02:-1.023868e-01:-1.540416e-01:5.133468e-01:1.664241e-02:-1.738682e-02
